n000928/0207_01,-0.1518328190,0.1389618367,0.1266301274,0.0036177838,-0.0756909102,-0.0316757187,0.0033134595,-0.1039276123,0.1350560933,-0.0600042269,0.2326388955,0.0004067337,-0.2260863334,-0.0672487617,0.0362987071,0.1108291000,-0.1476533562,-0.1076705679,-0.0658673719,-0.0969621241,-0.0213038009,0.0635270178,0.0453057326,0.0908212364,-0.0857805461,-0.3008224666,-0.1184523478,-0.0923000723,0.0282399412,-0.0645288229,0.0267807469,0.0433657467,-0.1548741609,-0.0405036062,-0.0446295105,-0.0032768296,-0.0065814196,-0.0152912689,0.1790126264,0.0387694165,-0.1262715459,-0.0747537240,0.0245795138,0.3344896436,0.1900909394,-0.0066161570,0.0569575392,0.0502750576,0.0296196435,-0.1978631467,0.0655316710,0.1453983784,0.2314518839,0.0693403482,-0.0221244637,-0.1512745470,-0.0542953052,0.0819839388,-0.1229981482,0.1039102823,0.0973047689,-0.1156530082,-0.0781048536,0.0046114014,0.2256484330,0.1175617352,-0.1250334680,-0.1516460776,0.1180798262,-0.1117110625,-0.0767403841,0.0687369406,-0.1704585105,-0.1485485733,-0.2163992524,0.0938560516,0.4112040401,0.1183969676,-0.2019878030,-0.0146476170,-0.2033806592,0.0378588848,-0.0409374833,0.0616945177,-0.0721438080,-0.0035856292,-0.1225918978,0.0490659773,0.1035130769,-0.0456926897,-0.0734185874,0.2092963308,0.0346325152,-0.0129645644,0.0096415486,0.0215461180,-0.0252340026,0.0358757339,-0.0580364019,-0.0243404210,0.0346391350,-0.0787057057,0.0404536799,0.0211611167,-0.1982222795,0.2564647496,0.0701727271,0.0459086932,0.0322874710,0.0876917168,-0.1182222292,-0.0501111597,0.1806494147,-0.2464409322,0.1692928672,0.1601310074,-0.0293802302,0.2003263235,0.0321880244,0.1868100613,-0.0147076566,-0.0158783160,-0.0315794088,-0.0920406729,0.0480186902,0.0025607347,0.0706707984,0.0807419643
n000928/0117_01,-0.1630109251,0.0543378070,0.0852188319,0.0365146101,0.0042138728,-0.1377313584,0.0448744483,-0.0637239367,0.0373322889,-0.0150647108,0.2558220923,-0.0565533303,-0.1767748147,-0.1526066959,0.0882848725,0.0976899713,-0.1415767223,-0.0581865422,-0.0712395161,-0.1301172376,-0.0048631383,-0.0141140986,0.0698241517,0.1364361793,-0.0840869173,-0.2779473364,-0.0661647171,-0.1414743662,0.0546152331,-0.0708374679,0.0042330706,0.0857021958,-0.1548516303,-0.0246204454,-0.0447569601,0.0182632208,0.0601377934,-0.0324735194,0.1838450432,0.0242291875,-0.1023110002,-0.1163982898,0.0035390863,0.3267271519,0.1760236621,-0.0337596275,0.0272170044,0.0582459942,0.0536461286,-0.1696422696,0.0040747486,0.0812047645,0.1488104910,0.0460204184,-0.0102689862,-0.1437569261,0.0046178699,0.0316677839,-0.1636011899,0.0402707271,0.0330446959,-0.0749429464,-0.0459884480,-0.0483660921,0.3445981741,0.0844231695,-0.1461608112,-0.1126755625,0.1771552712,-0.1081335992,-0.0237934161,0.1136742979,-0.1528677195,-0.1201658770,-0.2578777373,0.1382898092,0.3095666766,0.1162138358,-0.1899592429,-0.0302121174,-0.2401080728,0.0112921372,-0.0042533269,0.0648712963,-0.0858110413,0.0589175262,-0.1197001338,0.0063912105,0.1091265008,0.0031472435,-0.0756562278,0.2253901362,0.0276025906,-0.0006981986,0.0200387817,-0.0500011258,-0.0364160165,0.0145824552,-0.1065657437,0.0103914551,0.0322249904,-0.1255565435,0.0478616506,0.0940353349,-0.1851326972,0.1196077690,0.0454281271,0.0114306565,0.0046972074,0.0943065211,-0.1579438001,-0.0967650115,0.1018506587,-0.2836443484,0.1372998953,0.1707314253,0.1440830231,0.1269993484,0.0187272448,0.1221333668,-0.0403571464,-0.0202216916,-0.0536406599,0.0224816035,0.1023602486,-0.0282774866,0.0068383068,0.0656667426
n000928/0397_02,-0.0374103263,0.0653577372,0.1277256459,-0.0186551865,-0.1023558006,-0.0368470326,0.0273600332,-0.1076707318,0.1110823601,-0.0771396235,0.2241786718,-0.0435623266,-0.2394884378,-0.0780141205,0.0319372788,0.1027061492,-0.1157323718,-0.1571734399,-0.1566680968,-0.0847704858,-0.0536942072,0.0973447263,0.0001714000,0.0075259721,-0.1329429150,-0.3226636946,-0.0818979815,-0.1192032695,0.0453576036,-0.0613155477,0.0043368731,0.1222240850,-0.1782530397,-0.0977558643,0.0488005355,0.0449238867,-0.0559569038,-0.0475213602,0.1399025023,0.0162148960,-0.1947727948,-0.0690420195,0.0427647680,0.2862312794,0.1686767489,-0.0108527578,0.0190100893,0.0071537066,0.0369630009,-0.2262341827,0.0150555233,0.1320101619,0.1357061714,0.1236355752,0.0226973332,-0.1145862043,0.0278311111,0.0838782936,-0.1386133879,0.0521562994,0.1002651826,-0.1784138680,-0.0805563554,-0.0141248275,0.2173810154,0.0490587987,-0.0731288418,-0.1405774057,0.1623504758,-0.1468981355,-0.0894862711,0.0769832730,-0.1210257560,-0.0809826851,-0.1945156902,0.0296747033,0.4125781655,0.0801661462,-0.2398146987,-0.0199303627,-0.1341761351,0.0241433941,0.0318911895,0.0510065667,-0.0285023265,0.0155882146,-0.1076799706,0.0155889709,0.1971174181,-0.0781209096,0.0008693394,0.2106575221,0.0149072148,-0.0188934058,0.1003281772,-0.0216781553,-0.0541213155,-0.0029371297,-0.1046538129,-0.0372733399,0.1017154381,-0.0900644809,-0.0035159001,0.0826876462,-0.1411979198,0.2364276052,0.0303786136,0.0165970400,0.0968287066,-0.0070438674,-0.0337258168,-0.1040820479,0.2010448873,-0.1956246048,0.1704684943,0.1579577178,-0.0160409473,0.1280207485,0.0117664626,0.1226308197,-0.0582356378,-0.0199306719,-0.1433338821,-0.1181364506,0.0748624951,-0.0354063772,-0.0081068352,-0.0057238862
n000928/0020_02,-0.0869602337,0.0354883745,0.1218684837,-0.0508461520,0.0258163139,-0.0216959417,0.0368839502,-0.0805967227,0.1162786260,-0.0712230951,0.2717592120,-0.0304006897,-0.2173638344,-0.1446213573,0.1199097857,0.0769817978,-0.1489964277,-0.1073034406,-0.1266608089,-0.1277631223,-0.0550049059,0.0387139991,0.0367732868,-0.0016829851,-0.1045617685,-0.3078761399,-0.1118251756,-0.1881393790,0.0586623028,-0.0713587925,0.0092156241,-0.0082830405,-0.1957441568,-0.0492047668,-0.0189551171,0.0346396752,0.0317994244,-0.0462936386,0.1275522113,-0.0261141770,-0.0608661361,-0.0670776442,0.0342848450,0.2011431158,0.1369646639,-0.0234660674,0.0392211601,0.0474998988,0.0022968415,-0.1931097060,0.0789903402,0.0493161902,0.1459439248,0.0960604846,0.0166334920,-0.2037952095,0.0061806068,0.0600679442,-0.1315948814,0.1098480076,0.0591256917,-0.0932392925,-0.0990393683,0.0821286589,0.2967348993,0.0765044913,-0.1281991601,-0.1773197651,0.1107903123,-0.1292496771,0.0113325566,0.0702529103,-0.1586169004,-0.0785464644,-0.2410639673,0.1137105525,0.3509801328,0.0556974076,-0.2693483531,-0.0123903006,-0.2474743128,0.0302581936,-0.0089647435,0.0442251340,-0.0370596759,0.0669986978,-0.1679802835,-0.0088650445,0.1337425262,-0.0267053749,-0.0299432464,0.2341629863,-0.0057972837,0.0144859599,0.0563268885,-0.0482603908,-0.0512243062,-0.1036517918,-0.0762908682,-0.0530509613,0.0210651085,-0.0898423642,-0.0630462468,0.0937790126,-0.1799744666,0.1848688126,0.0158839580,-0.0294766035,0.0105839558,0.0341151431,-0.0325936526,-0.1200453117,0.1768174022,-0.2428624034,0.0947661698,0.2021020800,0.0767581463,0.1759892851,0.0063092969,0.1340840459,-0.0482891537,0.0527140014,-0.1311351210,-0.0155700101,-0.0232309587,-0.0064593949,-0.0178216137,0.0628263652
n000928/0018_01,-0.1283232421,0.0820488855,0.1118000969,0.0386140421,-0.0138398074,-0.0718434080,-0.0082061440,-0.0195085146,0.1316357553,-0.0304921679,0.2440266013,-0.0133490395,-0.1422448158,-0.1227079853,0.0718290359,0.1093272865,-0.1163551286,-0.0791055709,-0.0988489240,-0.1392659247,-0.0762566328,0.0178893171,0.0106869126,0.0331328735,-0.0597019494,-0.2923176587,-0.1006111205,-0.2025155127,0.0816534087,-0.1107987761,0.0286439899,-0.0507783256,-0.1807368994,-0.0414816514,-0.0357624479,0.0310293864,0.0137287648,-0.0333842076,0.1372564435,-0.0330289267,-0.0944226310,-0.0179726090,-0.0098440936,0.3299078047,0.2339603752,-0.0293326862,0.0019008648,0.0627348796,0.1153566390,-0.1661467701,0.0530225113,0.0470990427,0.1259312928,0.0677235276,-0.0062711257,-0.1098427773,0.0156380367,0.1189201772,-0.2087302506,0.0456149727,0.0503761768,-0.0967620760,-0.1410141289,0.0572086237,0.3258117437,0.0984496102,-0.1690477729,-0.1712915599,0.1075184718,-0.1705787331,0.0699608028,0.0975700766,-0.1603758186,-0.0763931721,-0.2775985599,0.1726642102,0.4273225367,-0.0047453735,-0.2010372728,0.0153581807,-0.1681665480,0.0254111029,-0.0186814982,0.1154766679,-0.0379323438,-0.0092322985,-0.1379632205,0.0039712349,0.1094008237,-0.0285660699,-0.0142868310,0.1580972672,-0.0234221779,-0.0434116833,-0.0092045199,0.0125529123,-0.0677848756,-0.0809205621,-0.0304746069,-0.0383429937,0.0300556943,-0.0736443698,-0.0577051304,0.0557253473,-0.1922890395,0.2067158222,0.0429689996,0.0258590654,0.0272828937,-0.0090922574,-0.0067533851,-0.0783786550,0.1610007882,-0.2693011165,0.1477367729,0.1310259402,0.0588933378,0.1610015035,-0.0520026609,0.1050209701,-0.0678566024,0.0496410839,-0.1263601780,-0.0028788103,-0.0382510871,-0.0272237379,0.0007527657,0.0292974301
n000928/0062_01,-0.1484998614,0.1391062737,0.1161515042,-0.0039878814,-0.0038914131,-0.0356511995,0.0129150730,-0.1414548755,0.1708342880,-0.0870114863,0.2828834951,0.0464288518,-0.1631988436,-0.1617989540,0.0763893500,0.0876097828,-0.1838795245,-0.0660279915,-0.0907925740,-0.0668160021,0.0024652153,0.0288925450,0.0516068563,0.0206119977,-0.0761514306,-0.2995608747,-0.0750013888,-0.1808725446,0.0042521181,-0.0809342936,0.0164466370,-0.0198577959,-0.1519778669,-0.0243757870,-0.0664053112,0.0473243669,-0.0200305935,-0.0079020504,0.1166435182,-0.0523707792,-0.1000887752,-0.0250414442,-0.0103009529,0.2558902502,0.1793252826,-0.0679327175,0.0347566307,-0.0052050985,0.1140098423,-0.2132563293,0.0609704070,0.0379302204,0.1006124616,0.0668139085,0.0453049392,-0.1547624320,-0.0252600405,0.0747576803,-0.1308667660,0.1005116776,0.0748664513,-0.1541538239,-0.1344452053,0.0568246804,0.2646851838,0.1481144875,-0.1534534544,-0.1480684429,0.0599294007,-0.1172118634,-0.0311426558,0.0528706498,-0.1354801506,-0.1230533868,-0.2584231794,0.1195756644,0.4264664948,0.0409683064,-0.2384037226,-0.0104797119,-0.2104940563,0.0173769295,0.0123123322,0.1380750537,-0.0256038308,0.0440202355,-0.1646908224,0.0295790061,0.1052849367,-0.0412741192,-0.0193885081,0.2786867023,0.0019537751,0.0281677321,0.0053088851,-0.0181571674,-0.0578383245,-0.0449340269,-0.0738456547,-0.0485507511,0.0462721512,-0.0850579962,-0.0446640402,0.0390126817,-0.1780828834,0.2014774680,0.0496209860,0.0619165227,0.0736413002,-0.0271706525,-0.0284008123,-0.0705395415,0.1296570152,-0.2385080606,0.1603155583,0.1276286840,0.0783837140,0.2082072943,0.0005910918,0.1082819253,-0.0259399787,0.0292256977,-0.1095761955,0.0171207581,0.0025147158,0.0227747317,-0.0173520781,0.0381531008
n000928/0153_01,-0.1628713757,0.1145303249,0.1820103526,0.0279853977,0.0011770518,-0.0702466741,-0.0047885720,-0.1122524142,0.1302267164,-0.1078043580,0.3475902975,-0.0151110105,-0.1217632294,-0.1716670990,0.0246788487,0.1179848015,-0.1313868165,-0.1380939335,-0.0796056166,-0.0501313806,-0.0410357490,0.0444387533,0.0329596438,-0.0026018152,-0.1009207815,-0.3462665677,-0.1078515798,-0.1371822953,0.1186550334,-0.1059459224,0.0411140285,0.0778779089,-0.1350504756,-0.0326547250,-0.0495661274,0.0013902262,0.0249528307,-0.0046948562,0.1727047563,0.0179022811,-0.1619567126,-0.1300330609,-0.0514870174,0.3060715795,0.1676329672,-0.0414088480,0.0144717051,-0.0232793130,0.0327184796,-0.1791678071,0.0538738742,0.0853299201,0.1716513187,0.0611765981,-0.0153403645,-0.1379557848,0.0012610750,0.0370241031,-0.1887576431,0.0755795464,0.0757860467,-0.1076890826,-0.1064501032,0.0503328145,0.2271317393,0.1223801002,-0.1036451757,-0.1744199991,0.1783111691,-0.1071058437,0.0179653354,0.1119211912,-0.1265799552,-0.1294163615,-0.2350403965,0.0580805689,0.3395689428,0.0414735079,-0.2168910205,-0.0325997584,-0.1822109967,0.0160837807,-0.0005058063,0.0532021262,-0.1193871349,0.0057268906,-0.1201254874,-0.0203303620,0.1003434807,-0.0010104794,-0.0559750050,0.2258785069,-0.0373578742,0.0024529165,0.0579794608,-0.0125543810,-0.0196867697,0.0219877362,-0.0567993745,-0.0368671119,0.0713023469,-0.0790599436,-0.0002859735,0.0865133107,-0.1466405839,0.2201315463,0.0450410545,0.0912781134,0.1194032729,0.0258631185,-0.0904311910,-0.1255529523,0.1943938732,-0.1757646799,0.1445872486,0.1406569034,0.0657524094,0.1562746614,0.1026366353,0.1350195855,-0.0533106998,-0.0173443425,-0.1207021847,0.0333646834,0.0375132486,-0.0883230790,-0.0202472620,0.0293068551
n000928/0305_03,-0.1814146936,0.1151209325,0.0859206244,0.0072563160,-0.0541282892,-0.0349226594,0.0149040055,-0.0534486622,0.1273504943,-0.0516304784,0.2616483569,-0.0327219740,-0.2117293030,-0.1462891996,0.1097975373,0.0851322412,-0.1840914935,-0.0757609829,-0.0461538658,-0.1283118725,-0.0407038592,0.0072417809,0.0499731526,0.0394796878,-0.0988581255,-0.2989329398,-0.0882748514,-0.2398534417,0.0702758133,-0.0610147305,0.0024936134,-0.0144785577,-0.1685589254,-0.0464346036,-0.0202304721,0.0055603180,0.0026430800,0.0062334863,0.1687735021,-0.0779847503,-0.0676798373,-0.0998204648,-0.0157561973,0.2663861811,0.1909666359,-0.0241007525,0.0115236510,0.0844466835,0.1156905666,-0.2020276934,0.0196742136,0.0956462026,0.1538822800,0.0480090342,-0.0275639202,-0.1341843307,0.0036320342,0.0828553885,-0.1999379098,0.0776374564,0.0672610998,-0.1407057643,-0.1388056576,0.0551153645,0.3010267615,0.1127280891,-0.1479308307,-0.1481906474,0.1356239766,-0.1556474119,0.0595956631,0.1196889952,-0.1750663966,-0.1200341955,-0.2042953968,0.0788441971,0.4031607509,0.0502501354,-0.1746375710,-0.0426708013,-0.2049768865,0.0316533297,-0.0300397128,0.0602716431,-0.0763032138,0.0003139032,-0.1399185210,0.0274995752,0.1233370975,-0.0582957976,-0.0205915309,0.2119406015,0.0101901488,0.0186916366,0.0244123079,-0.0279125534,-0.0051651001,-0.1215717047,-0.0235795863,-0.0030540200,-0.0003355714,-0.1627661884,-0.0440685302,0.0419228300,-0.2009568661,0.1862722337,0.0214238279,0.0446818173,-0.0294445381,-0.0173553713,-0.0194305852,-0.0420732163,0.1797475964,-0.2439621091,0.1474432200,0.1580290496,0.0266869515,0.1901148409,-0.0724762306,0.0870393515,-0.0840631798,-0.0111191384,-0.1062459946,-0.0540913604,-0.0057372628,-0.0382068828,0.0201052837,0.0092262654
n000928/0090_02,-0.1763128191,0.0551192127,0.0621628761,-0.1209714562,-0.0526849963,-0.0460834317,0.0348838903,-0.1292096078,0.1920901835,-0.1009937823,0.2499701679,-0.0366810188,-0.1698367745,-0.1360569894,0.0528220236,0.1517816931,-0.1800373793,-0.1610079110,-0.0490720645,-0.0765901953,-0.0808344930,-0.0112636955,-0.0528055765,0.0810950324,-0.1264135242,-0.3107624948,-0.1192233562,-0.1565982848,-0.0102269528,0.0094051491,0.0805633441,0.1262940019,-0.1277707219,0.0005178396,-0.0146904150,0.0613989681,0.0281932596,-0.0211328436,0.1380377114,0.0075688241,-0.1354084313,-0.0669190958,0.0000985749,0.2632690072,0.1972319484,-0.0354307182,0.0303409565,0.0534706824,0.0521181189,-0.2408768684,-0.0296994429,0.0769576728,0.1454491019,-0.0215905905,0.0406674072,-0.1185612231,-0.0363564193,0.0809441209,-0.1979476959,0.0138712917,-0.0301961303,-0.1258889735,-0.1213637665,-0.0353406668,0.2857833207,0.1518436968,-0.1523067355,-0.1016607061,0.2597217262,-0.1160242558,-0.0624285750,0.0336002260,-0.1542363316,-0.1271656007,-0.2603941858,0.0613040999,0.3898602426,0.1021845266,-0.2186583281,0.0226462595,-0.1800174266,0.0209718347,-0.0659925491,0.0393271707,-0.0575061254,-0.0516021065,-0.1089960858,-0.0627516955,0.1674341410,-0.0139705902,-0.0108784437,0.2101751715,-0.0194604658,-0.0200412162,-0.0257004276,-0.0615387820,-0.0039765928,-0.0637871698,-0.0802039281,-0.0907200947,0.0439401977,-0.0458313599,-0.0121724540,0.1414611042,-0.2428628057,0.1899325401,0.0380961522,-0.0164533518,0.0148243085,0.0703125522,-0.0224869773,-0.0533341095,0.1911155283,-0.2127563059,0.1046699136,0.1715945750,0.0226495918,0.1599646956,0.0117219388,0.0475878641,-0.0585021973,-0.0203363635,-0.1275364012,-0.0820403323,0.0353887901,-0.0571509078,0.0041427482,0.0694323108
n000928/0147_02,-0.1097774133,0.0499028936,0.0868903920,-0.0590177290,-0.0724480748,-0.0659647658,0.0569017902,-0.0961970687,0.1073909774,-0.0728808716,0.2363374680,0.0194734931,-0.2119899839,-0.1192889437,0.0563842766,0.0241155326,-0.1203523502,-0.1122593209,-0.0826603025,-0.0997462571,-0.0638907477,0.0169954207,0.0603915490,-0.0108904513,-0.0720160753,-0.2799386680,-0.0868178755,-0.2045407742,0.0168136787,-0.0852065831,0.0947062522,0.0272173714,-0.1588892341,-0.0319655053,-0.0350629166,0.0270201992,-0.0284725409,-0.0188126639,0.1876272857,-0.0499781929,-0.0712301880,-0.0680607259,0.0073295310,0.2187880278,0.1463991851,-0.0742453709,0.0613642707,0.0337772667,0.0461047664,-0.2261804640,0.0557115749,0.0575413927,0.1183772385,0.0605853535,0.0859191418,-0.1667854488,0.0401569307,0.0555005148,-0.1513015032,0.1253686249,0.0636732355,-0.0671829432,-0.1144354492,0.0631483272,0.2518228889,0.0734798610,-0.1176112592,-0.1434491873,0.1185758039,-0.1604585350,0.0011834442,0.1568244994,-0.1249049082,-0.1055539846,-0.1564834416,0.0878822878,0.3840083778,0.0802493542,-0.1686046124,-0.0369594954,-0.2190757692,-0.0002354369,-0.0105556995,-0.0120479949,-0.0487433150,-0.0085899550,-0.1485552043,0.0241250880,0.1132218316,-0.0106739989,-0.0614394322,0.2143629491,-0.0021220427,0.0122403344,0.0351205692,-0.0115642445,-0.0118673034,-0.0320338458,-0.0156899896,0.0166241433,0.0683944821,-0.1917697191,-0.0480773933,0.0517621338,-0.1770669222,0.1492876858,-0.0336813107,0.0231581591,0.0055496795,0.0063874424,-0.0492819808,-0.0159385167,0.1788400710,-0.2981277108,0.1893599480,0.1676632166,-0.0201189760,0.1428653747,-0.0366750769,0.0652738512,-0.0430415943,-0.0222766586,-0.1116625369,-0.0572025850,-0.0612663701,-0.0088868868,-0.0225295909,0.0426838174
n000928/0258_01,-0.0912474915,0.0445704162,0.1265999079,-0.0033129298,-0.0383529253,-0.1637156457,0.0410173982,-0.1298184991,0.2012180984,-0.0643188506,0.2152456492,0.0005616043,-0.0781283006,-0.1080383509,0.0539663658,0.1100487933,-0.1735803634,-0.1965494752,-0.0348847136,-0.0795064494,-0.0594795719,0.0430138484,0.0201848391,0.0682389215,-0.0906647295,-0.2690866888,-0.1073756292,-0.1873153448,0.1090651974,-0.0316117816,0.0113543672,0.1247434244,-0.2345118225,-0.1043778956,0.0069367960,0.1040270403,0.0858938992,-0.0168817397,0.1856194586,-0.0279449634,-0.1733901948,-0.0390046313,-0.0146764359,0.2496998012,0.1576526910,-0.0455852598,0.0197719596,-0.0449197926,0.0477898009,-0.1630378515,0.1044112593,0.0823059455,0.1482900828,0.0845209062,-0.0723817423,-0.1983775645,0.0204156041,0.0550082400,-0.2313510478,0.1061365530,0.1164560914,-0.0771176517,-0.0680085942,0.0605500340,0.2830598652,0.0993602425,-0.0858102590,-0.1707153320,0.1998046786,-0.1753674448,-0.0266851876,0.1112130135,-0.1116723344,-0.1049208194,-0.2360552549,0.0928529203,0.3524843454,0.0330082811,-0.2669540644,0.0008331048,-0.2167587876,0.0152951637,-0.0135567551,0.0442640297,-0.0507671237,0.0595812835,-0.1592768282,-0.0282675251,0.2027099431,0.0245273970,-0.0274476614,0.2522931099,0.0040780492,-0.0071851029,0.0604154803,0.0444601700,0.0108523825,-0.0071741310,-0.1414549202,-0.0464218222,0.0842687935,-0.0689968243,-0.0733364522,0.1403653324,-0.2186812758,0.1886820495,0.0009469914,-0.0082056299,0.0180755444,0.0282235797,-0.0533629768,-0.1345161349,0.2315618396,-0.1864237636,0.2074118704,0.1537672579,0.0459549278,0.1863791198,-0.0172799602,0.1471957713,-0.0498488769,-0.0889478624,-0.1484072357,-0.0051623136,0.0665293261,-0.0524525307,0.0077191908,0.1167217121
n000928/0036_02,-0.1592035890,0.1213348582,0.1710570157,0.0085906079,0.0191174932,-0.0753140226,0.0465894714,-0.0650860220,0.1899664551,-0.0860125497,0.2564314306,-0.0408667699,-0.1374646276,-0.1526426375,0.1062342525,0.1649298668,-0.1773743182,-0.1048353314,-0.1280665249,-0.1717034429,-0.0442746058,0.0946359858,-0.0022826258,0.0326911584,-0.1064818949,-0.2751417160,-0.0729048029,-0.1964870393,0.1035658345,-0.0674685314,-0.0124588441,0.0158515498,-0.1720874757,-0.0698648617,-0.0162611678,0.0641146228,0.0504257381,0.0012504868,0.1542865783,0.0543709323,-0.0939617679,-0.0969019607,-0.0064515080,0.3259105086,0.1983501762,-0.0391587019,0.0130376965,0.0426731557,0.1112029552,-0.1632655710,0.0571467094,0.0355161056,0.1383376420,0.1144204587,-0.0060387403,-0.1909875423,0.0086080804,0.0031816978,-0.1975772232,0.0967129022,0.1431601346,-0.1852485240,-0.1399910599,0.0809942037,0.3119759560,0.0523938164,-0.1346251220,-0.1894641072,0.1141579077,-0.1375833899,0.0427667946,0.1242630035,-0.1549654603,-0.0213519819,-0.3241437376,0.1119494885,0.4227961898,0.0093834735,-0.2281477898,-0.0547849014,-0.1992920786,0.0194173343,0.0200403575,0.1233091280,-0.0523195751,0.0909940600,-0.1476721317,0.0129032386,0.1174576730,-0.0093620950,-0.0577283017,0.2263866216,-0.0019839220,-0.0060428558,0.0140455589,-0.0316451006,-0.0546098389,-0.1188015863,-0.0467793681,-0.0708179101,0.0317197777,-0.0906820968,-0.0423336513,0.0545631312,-0.1859211177,0.2303757519,0.0356406197,0.0378453135,-0.0434793942,-0.0035908513,-0.0906018019,-0.0677622333,0.2126293182,-0.1852849126,0.0890191644,0.1589446068,0.0791644081,0.1616509706,-0.0020527765,0.1254973710,-0.1048228666,0.0423837155,-0.0782951489,0.0053740381,-0.0060519287,-0.0320095308,0.0716891289,0.0628620535
n000928/0093_01,-0.0951584354,0.0953786299,0.1261488795,-0.0145679303,0.0420533903,-0.0111617735,-0.0093499795,-0.0967264324,0.1130511835,-0.1061143503,0.3136830032,-0.0448372848,-0.1415779442,-0.1542048603,0.0840403438,0.0741205886,-0.1662675887,-0.0803775191,-0.1091452688,-0.1320329905,-0.0580742694,0.0560117476,0.0174136646,-0.0001416388,-0.0896873996,-0.3623924255,-0.1204426289,-0.1691328883,0.0776186138,-0.0741134062,-0.0218707211,0.0424182974,-0.1362110972,-0.0411299840,-0.0168272648,0.0180831738,0.0042313635,-0.0087614823,0.1253155172,0.0052472968,-0.0640280023,-0.0752867982,-0.0065755621,0.3258191347,0.1917687953,-0.0217487048,0.0538502857,0.0095607312,0.0804813802,-0.1260800660,0.0634172559,0.0709677488,0.1220848784,0.1016825438,0.0101783164,-0.1408722550,-0.0169122927,0.0257139560,-0.1239761487,0.0798445642,0.0785767660,-0.1272377074,-0.1161008254,0.0262561254,0.2866312563,0.0575031117,-0.1161610931,-0.2205400020,0.1545005441,-0.1138072684,0.0034850729,0.1087822616,-0.1885617375,-0.1020342857,-0.2544488907,0.1123723090,0.4117824733,0.0665141046,-0.1955180019,0.0079581579,-0.2190917730,-0.0080951788,0.0330471620,0.1021853760,-0.0488474816,0.0893979296,-0.1159241199,0.0297314245,0.1461282372,-0.0189824160,-0.1027995050,0.2003042847,-0.0279496871,0.0076877456,0.0748820230,-0.0422359034,-0.0400243700,-0.0483961068,-0.1074989811,-0.0617081970,0.0281608086,-0.0986536294,-0.0448716767,0.0781903192,-0.1720997393,0.2589685023,0.0441518165,0.0577720627,0.0363793001,0.0043152724,-0.0691253021,-0.0792881921,0.2011810988,-0.2741329074,0.0569983460,0.1597234905,0.1703053266,0.1935476214,0.0202078391,0.1136708409,-0.0598262623,0.0133834044,-0.1589844525,0.0036756438,-0.0020884266,0.0234296620,0.0070937388,0.0429591574
n000928/0070_01,-0.1262127459,0.0938224122,0.1408051550,-0.0136511214,-0.0532678068,-0.0598188080,0.0773199499,-0.0998013392,0.1618910730,-0.0757254884,0.3062542081,-0.0871197209,-0.1564547122,-0.1137163192,0.0479049347,0.0536104813,-0.1546815634,-0.1432219446,-0.1240907311,-0.1772714108,-0.0115516298,0.0682628006,-0.0026325202,0.0610451475,-0.0197282843,-0.3605927527,-0.1319407523,-0.1335348487,0.1248083934,-0.1613782197,0.0605749339,0.0437792614,-0.1653989404,-0.0899002180,-0.0553635992,-0.0434261113,0.0156248864,-0.1021142080,0.1405709833,-0.0168045834,-0.0729690418,-0.0593305454,0.0442193672,0.3241098225,0.1646786034,-0.0373210460,-0.0254851244,0.0282838922,0.0694181994,-0.1727886349,0.0309457146,0.1016988605,0.1726129204,0.0297862589,0.0469592698,-0.1100222766,-0.0237376373,0.0395996347,-0.2054154128,0.0938375667,0.0434013158,-0.1291948706,-0.1065718681,0.0062257461,0.2318318039,0.0970628560,-0.0574234575,-0.2173888683,0.1170728058,-0.1567068398,-0.0276353434,0.1253067702,-0.1368932724,-0.0803782493,-0.2018170655,0.0953726619,0.4744490385,0.0122138895,-0.1861600280,0.0411616638,-0.2161595821,-0.0453215092,-0.0296825618,0.0562339984,-0.1053646281,0.0241605360,-0.1857955456,0.0457096323,0.1129501089,0.0071117124,-0.0963030085,0.2387333810,-0.0182404444,-0.0293166600,0.0837144554,-0.0376423560,-0.0724037141,-0.0202665292,-0.0707809180,-0.0917441621,0.0578607395,-0.0754927397,-0.0670547038,0.0363915190,-0.1913606077,0.1966999918,0.0341663286,0.0142929498,0.0121048763,-0.0478354022,-0.0609005019,-0.0437564254,0.1834402829,-0.2907324433,0.0473896116,0.1147251278,0.0923166350,0.1981649846,-0.0281988084,0.0657829642,-0.0210318230,-0.0263649654,-0.0970056206,0.0028870730,0.0189085510,-0.0194980092,-0.0107975695,0.0398210213
n000928/0063_05,-0.1854536086,0.0979892835,0.1051800549,0.0519539081,0.0251558386,-0.1237437278,0.0524300076,-0.0713931248,0.1060876176,-0.0255654082,0.3173643649,-0.0207727980,-0.1324029416,-0.1615641266,0.0455682538,0.0851946995,-0.1586337686,-0.0927221105,-0.0593833476,-0.1434036046,-0.0164473318,0.0170461182,0.0052615805,0.0573342443,-0.1162644774,-0.2607255280,-0.0816780925,-0.1291948706,0.1440634578,-0.0785752386,0.0499074534,0.0616729930,-0.1654862314,-0.0751816332,-0.0507166311,0.0047467342,0.0860161558,-0.0212534405,0.1988461316,0.0088161826,-0.0614487119,-0.1064996645,-0.0116229132,0.3703718185,0.1619667709,-0.0486054048,0.0172693282,0.0719347298,0.0790449530,-0.1873739064,0.0167756975,0.0806221217,0.2014928162,0.0467419028,-0.0336858556,-0.1102861241,-0.0481465347,0.0514670089,-0.1680658907,0.0970076695,0.0573490374,-0.0685829371,-0.0885918811,-0.0415095612,0.2700766027,0.0700185150,-0.1010662690,-0.1565507501,0.2099800855,-0.1180804521,-0.0183660053,0.1051659882,-0.1233058572,-0.1011837572,-0.2382694185,0.1161879897,0.2735057771,0.1020690799,-0.1871124655,-0.0013320423,-0.2343074083,0.0265377425,-0.0382265337,-0.0096593518,-0.0600253120,0.0494691320,-0.1424119920,-0.0145272566,0.1639242172,0.0142193185,-0.0760656595,0.2344744205,0.0079323240,-0.0245421473,0.0204490721,-0.0559603237,-0.0294404179,-0.0131220082,-0.0813334808,-0.0257844198,0.0792485550,-0.0862889737,0.0444918536,0.1049240083,-0.1781193614,0.1902458072,0.0326932259,0.0913846716,0.0565623231,0.0779720992,-0.1219683588,-0.0895517990,0.1805806607,-0.1991333663,0.1491618007,0.1369781047,0.0881353915,0.1209899262,0.0330485180,0.1014334634,-0.0489257574,0.0027619265,-0.0757817626,-0.0281757582,0.0221379288,-0.0820168257,0.0050669732,0.0766422674
n000928/0102_02,-0.0726728514,0.1036117524,0.0806855559,-0.0137723023,-0.0859537274,-0.1148176491,-0.0039013270,-0.0585378744,0.1760563254,-0.0432403684,0.2246891558,-0.0063302689,-0.2185283750,-0.1074420437,0.0170607008,0.0688930526,-0.1184763834,-0.0517900959,-0.0838716850,-0.1205927506,0.0290980320,0.0275012348,0.0223148521,0.0025382680,-0.1138598397,-0.2001499683,-0.0518805012,-0.1020318866,0.0870599374,-0.1700894088,0.0241315104,0.0309147388,-0.2372082025,-0.1031832770,-0.0810907260,0.0457712710,-0.0025626258,-0.0519169010,0.1474336982,-0.0060827709,-0.1478781700,-0.0246358141,-0.0311226882,0.2168047428,0.1987035722,-0.0556178875,-0.0291019827,-0.0601122007,0.1026119888,-0.2038496137,-0.0012124106,0.1732672751,0.0823998004,0.0551129282,0.0241568647,-0.1130480915,-0.0070664287,0.1304627806,-0.1575105041,0.0544562563,0.0882198289,-0.0560331047,-0.0859540477,-0.0810148641,0.1547645628,0.0163408127,-0.0906580836,-0.1356472224,0.1273973733,-0.1408367604,-0.0488703586,0.1444297731,-0.0990089327,-0.1426210254,-0.2705751657,0.0913086981,0.3231790066,0.1322628856,-0.1683985144,0.0182905067,-0.2157023549,-0.0293516982,-0.0445263982,0.0056983177,-0.0114470683,0.0135940425,-0.1219932958,0.0424790010,0.1269426048,-0.0392026417,0.0252187867,0.2326976210,-0.0001587607,0.0212505944,-0.0587852895,0.0031944683,-0.1310056299,-0.0109794643,-0.0669007078,-0.0753771439,0.1253685951,-0.1412044168,0.0062421788,0.1313252449,-0.1920966506,0.1778188795,0.0293665119,0.0195705146,0.0586625040,0.0061474531,-0.0258912109,-0.0429554693,0.1845532507,-0.2048550099,0.2302965820,0.1600206196,0.0214443579,0.0919179767,0.0345038436,0.1228376031,-0.0767591745,-0.0283999778,-0.1097361594,-0.0601954088,-0.0324874111,-0.0337028317,0.0036513377,0.0335196629
n000928/0253_01,-0.1124907061,0.0650873631,0.0182117689,-0.0475311913,-0.0131555097,-0.0701226518,-0.0230328925,-0.0113193449,0.1415499151,-0.0101176258,0.2471602559,-0.0503186360,-0.2404631823,-0.0964545384,-0.0050156512,0.0302432925,-0.1532773226,-0.0039120987,-0.0109313298,-0.0989906043,0.0896684453,0.0054377262,-0.0033948880,0.1392420381,-0.1224329174,-0.2701136768,-0.0394358374,-0.1530721337,0.0496607684,-0.1536017656,-0.0088414159,0.0940243751,-0.1414634138,-0.0715123862,-0.0112637281,0.0723808035,0.0402309410,-0.0257951356,0.1294504106,-0.0245968066,-0.0516896583,-0.0800437033,-0.0036984347,0.2887361050,0.1304412782,0.0579215996,0.0206452049,-0.0238059461,0.1096370593,-0.1683322638,0.0253656767,0.1350984126,0.1316714436,0.0489571914,0.0310449228,-0.1857469976,0.0276642460,0.0951995701,-0.2095360607,0.1103373989,-0.0011575688,-0.0634376556,-0.0139634199,-0.0119363302,0.2759709358,0.0494612642,-0.1324096024,-0.1053090245,0.2081174701,-0.1300116628,-0.0333286040,0.1121755168,-0.1113680601,-0.1736890376,-0.1699196547,0.0842010304,0.3275987208,0.1600122154,-0.1951476187,0.0396042317,-0.1998277903,-0.0668358654,0.0112013025,0.0573659502,-0.0606003404,0.0159803629,-0.1126225889,0.0207983796,0.1537700742,0.0327664576,-0.0208645016,0.2435896397,0.0262614042,0.0090151466,0.0268281437,-0.0429276936,-0.1330898106,0.0258990116,-0.0788386092,-0.0583730228,0.0690906197,-0.1372201741,0.0104138181,0.1131866276,-0.2117026597,0.1564305425,0.0266461931,0.0015029367,0.0241817720,0.0513942726,-0.0947003439,-0.0583502129,0.1653405875,-0.2996724248,0.1834174097,0.1357032210,0.1884624362,0.1607409269,-0.0051290905,0.0831781775,0.0559690334,-0.0757717416,-0.1187044084,-0.0380308777,0.0459363498,-0.0604768358,0.0194426049,0.0191230122
n000928/0082_04,-0.0929583833,0.0585912578,0.1052717492,-0.0101866852,-0.0341914408,-0.1177385673,0.0674412400,-0.1094743684,0.1489296108,-0.0654976070,0.2411072403,-0.0158014186,-0.1631304175,-0.0917071849,0.0130364886,0.0991396680,-0.1254010648,-0.1444849968,-0.1182440296,-0.0920534730,0.0053830827,0.0377918705,0.0526501983,-0.0362166241,-0.1147714108,-0.2485365421,-0.1215937510,-0.1847833544,0.0476550162,-0.0617368035,0.1106696203,0.0315923169,-0.1317551434,-0.0359869152,-0.0258398671,0.0312766209,0.0190877989,-0.0408803634,0.1880941093,0.0442348048,-0.1266808510,-0.0526458062,-0.0421647616,0.2709709704,0.1603929698,-0.0268121678,0.0233041923,-0.0031296015,0.0287804380,-0.2474984974,0.0163041931,0.0771573409,0.0901279077,0.0628482699,0.0805213600,-0.0948310047,0.0716564879,0.0357415155,-0.1931779087,0.0763880759,0.0622155182,-0.0988117456,-0.0550888292,0.0386865437,0.1963022649,0.1027022228,-0.0364457816,-0.0808317661,0.1861738861,-0.1281699091,-0.0627821833,0.0493985377,-0.1368205249,-0.0882343352,-0.2040306628,0.0157235675,0.4332841337,0.0405140333,-0.1711224467,-0.0062771486,-0.1524757296,0.0133455377,0.0171977635,-0.0425694957,-0.0697675273,-0.0264949314,-0.1609619856,0.0290855430,0.1812207699,-0.0998510271,-0.0254966766,0.1700346619,-0.0507538393,-0.0184276551,0.0481303483,-0.0326629803,-0.0063354336,0.0317252465,-0.0459387451,-0.0201493334,0.1208901703,-0.1482889503,-0.0091745686,0.0484245121,-0.1849409491,0.1194355190,0.0199419595,-0.0451425426,0.0037263434,0.0194676053,-0.0807852596,-0.0010009697,0.2251655161,-0.1393313259,0.2566840649,0.2061362416,-0.0557994507,0.1093176007,-0.0127028413,0.0866651386,-0.0862501860,0.0009987475,-0.0975413769,-0.0759174749,-0.0438095555,0.0288198590,-0.0219366811,0.0604209080
n000928/0015_01,-0.1352811605,0.1079590991,0.1331618428,-0.0147917774,-0.0373842865,-0.0511344783,-0.0044514015,-0.1336919814,0.1317181438,-0.1060121506,0.2955161333,0.0303339586,-0.1902631223,-0.1845094711,0.0451638140,0.1150770932,-0.1311264932,-0.1731282622,-0.1223922074,-0.1693371385,-0.0974580050,-0.0008694336,0.0391769595,0.0255683810,-0.1086616665,-0.2712677419,-0.1115944684,-0.2184502482,0.0656358451,-0.1069729179,0.0058964901,0.0158755668,-0.1811939031,-0.0774814710,-0.0773991048,0.0577095374,0.0099353222,0.0034700567,0.1434408277,-0.0189153682,-0.0895222127,0.0072424859,-0.0499937646,0.3086881936,0.2427745163,-0.0442971922,0.0524823070,0.0231861807,0.0640485883,-0.2127371579,0.0844387114,0.0742362663,0.1278662235,0.0971273854,-0.0155037800,-0.1481904536,-0.0231285915,0.0693075508,-0.1711302549,0.0766413808,0.0688331053,-0.1284820288,-0.0939225107,0.0494146571,0.2722395658,0.1450194418,-0.1024660170,-0.1400086582,0.1935292780,-0.1757216603,0.0185493268,0.1035669595,-0.1685200930,-0.0603089929,-0.2545060217,0.1432322115,0.4176879525,0.0947349519,-0.1738726646,-0.0406639092,-0.2223315686,0.0346960574,-0.0652182922,0.0192684643,-0.0789224356,0.0271460135,-0.1411424130,0.0428246632,0.1326110810,-0.0082371701,-0.0361557491,0.2353810221,0.0174012911,-0.0105403010,0.0904402435,0.0248626582,-0.0316881351,-0.0969600827,-0.0855028331,-0.0387676544,-0.0051305862,-0.1221785918,-0.0101407804,0.0481375046,-0.1236983016,0.2059202641,-0.0068449462,0.0391089618,-0.0390900373,0.0353964530,0.0015742024,-0.0877202004,0.2164169848,-0.1824830621,0.1528635025,0.1856812090,0.0595671311,0.1599190980,0.0046993652,0.1236659735,-0.1190254092,-0.0331705585,-0.0814322606,-0.0261544473,-0.0177860633,-0.0127833793,0.0455439314,0.0950281844
n000928/0206_01,-0.2077309936,0.1302191168,0.1418364644,-0.0008484842,0.0322673507,-0.0771189705,0.0988683552,0.0109378817,0.1186997145,-0.0106788501,0.2562881410,-0.0328880250,-0.1983768195,-0.1322894543,0.0800976679,0.1283415258,-0.1589481980,-0.1365882456,-0.1289689243,-0.1230898425,-0.0412186310,0.0040812287,-0.0072285510,0.1211888120,-0.0707873926,-0.2916316986,-0.0556197576,-0.1847637594,0.1546016037,-0.1209497079,-0.0144718150,-0.0161275640,-0.1982986778,-0.0664536878,-0.0783770010,0.0205643531,0.0328231417,-0.0550548062,0.2070229053,0.0017433213,-0.1234573275,-0.1241268963,-0.0121418443,0.3524029553,0.1841568202,-0.0081293453,0.0033453498,0.0972964689,0.0675150454,-0.2551119924,0.0310453754,0.0689683780,0.1537508816,0.1006986052,-0.0821576938,-0.1822281629,0.0015235860,0.0200512446,-0.2295956463,0.0788595378,0.0764735118,-0.1731672287,-0.1170204580,0.0018384187,0.3311668932,0.0907576084,-0.1489027590,-0.1668391377,0.1807476133,-0.1846515536,0.0663772598,0.1218173802,-0.1047071740,-0.0535494760,-0.2753712237,0.1657941490,0.2879326344,0.0942883119,-0.1365104467,-0.0343395881,-0.2475862801,0.0617036596,-0.0408765264,0.0536709800,-0.1185490042,0.0578894690,-0.1505432725,0.0251419581,0.1176613197,0.0100961551,-0.0270814002,0.2081408203,0.0140428320,0.0034143170,-0.0027207141,-0.0051965606,-0.0328695029,-0.0470615365,-0.0521637201,0.0789060444,0.0489614010,-0.0748616531,0.0225636810,0.0864898413,-0.1620566398,0.1392349005,0.0160830487,0.0324734263,0.0092193596,0.0256602578,-0.1355339885,-0.1325910389,0.1639686078,-0.2218839377,0.1385871768,0.2053446919,0.0917725936,0.0984346420,0.0495851524,0.0899248198,-0.0487796478,-0.0176900662,-0.1430547237,0.0311250053,0.1057830602,-0.0829722956,0.0137836533,0.0567468032
n000928/0020_04,-0.1457679719,0.0480892733,0.1140579805,-0.0110865701,0.0094502922,-0.0958776101,0.0948884487,-0.0649278387,0.1666475832,-0.1141069159,0.2893846929,0.0136507237,-0.2305616140,-0.0859691054,0.0322612599,0.0695001855,-0.1348900199,-0.1017126143,-0.0731142908,-0.0896567926,0.0756681785,0.0644409955,-0.0111199627,0.0238349326,-0.1073017195,-0.2092030793,-0.1253685355,-0.1759826243,0.0951926783,-0.0729762837,0.0638404414,0.0090722628,-0.1370208561,-0.0116126947,-0.0762317181,-0.0194764324,0.1135938466,-0.0893502012,0.2171000242,0.0073364275,-0.1415148973,-0.1241563708,-0.0304149110,0.2788888216,0.1305582374,-0.1258560270,0.0199128743,0.0343350805,0.0635833889,-0.2462180108,0.0550541654,0.0439333431,0.2235511243,0.0693370998,0.0240599215,-0.1468391567,-0.0239306837,0.0233150907,-0.2058961838,0.0604097024,0.0547004156,-0.0725059956,-0.0994079262,-0.0000551331,0.2415085435,0.0865094438,-0.1383969188,-0.1530387104,0.2298441231,-0.1525549442,-0.0433784015,0.1420736909,-0.1627538055,-0.0790957808,-0.2416010350,0.1072782427,0.3415409029,0.0766308531,-0.2089241147,-0.0044638617,-0.2535579205,0.0281117950,-0.0377976373,0.0165193025,0.0000639483,0.0530283153,-0.1340678781,0.0428861380,0.1673095226,-0.0699019432,-0.0925908238,0.2237540483,0.0258609280,-0.0414930657,0.0185161848,0.0157856736,0.0296896603,-0.0748115554,-0.0598980561,0.0309027955,0.1006944627,-0.0707846284,-0.0413887911,0.1231540740,-0.1895924509,0.1584995091,0.0267710872,-0.0546777695,0.0129445000,-0.0059018498,-0.1180651560,-0.0325664841,0.1744767576,-0.2241967767,0.1567169577,0.1123836786,0.0221777633,0.1204390749,-0.0555866882,0.0831593126,-0.0410350934,-0.0577641577,-0.1219897792,-0.0908562317,0.0418480486,-0.0132151181,-0.0131678302,0.0368319601
n000928/0056_01,-0.0741583481,0.0647083521,0.1200145334,-0.0384260938,0.0303593781,-0.0745804757,-0.0262866393,-0.1555975080,0.1177011281,-0.0568262935,0.2799709737,-0.0143401977,-0.1516428292,-0.0784186348,0.0098913386,0.0661906376,-0.1045081466,-0.1071280390,-0.0858614296,-0.0924464464,-0.0191655196,0.0251070932,0.0452711731,0.0538661741,-0.1129813269,-0.2809993923,-0.1242878959,-0.1262638718,0.0694799125,-0.1156557426,-0.0476782098,0.0439017229,-0.2203729898,-0.0481173545,-0.0381294563,0.0377526060,0.0334466770,-0.0424067043,0.1433082819,0.0610806644,-0.1231666803,-0.0351657458,-0.0120063918,0.3035133183,0.2108075768,-0.0357741676,0.0230154935,-0.0043030744,-0.0115435030,-0.1858441383,0.1118895486,0.0703606904,0.1106477901,0.0814710408,-0.0058627548,-0.1566443443,-0.0079452237,0.0648372918,-0.1068653092,0.1081011891,0.0794755369,-0.0884630680,-0.0760244876,0.0450125225,0.2968884110,0.1298651099,-0.1030879244,-0.1748408377,0.1506688446,-0.1064141020,-0.0677847564,0.0557757095,-0.1454233229,-0.0994400755,-0.2421178818,0.1356248707,0.4035279453,0.0925986171,-0.3102745414,0.0425727926,-0.2302336693,-0.0018098373,0.0558841303,0.0704545751,-0.0235859640,0.0848879516,-0.1448619217,-0.0053496817,0.1793447435,0.0078296270,-0.0753143057,0.2430104315,-0.0335438214,0.0001493525,0.0888659880,0.0089923190,-0.0851560757,-0.0151049607,-0.1564343870,-0.1214298606,0.0739661008,-0.0181047432,-0.0455146395,0.1768590510,-0.1937673986,0.2318675965,0.0431324244,-0.0193022490,0.0780153945,0.0452494882,-0.0366163105,-0.1296323836,0.1498333663,-0.2361837924,0.1396991163,0.1572363675,0.1336409301,0.1344328374,0.0462595634,0.1104516312,0.0205578804,0.0487518795,-0.1389234364,-0.0019716281,0.0340820588,-0.0110928938,0.0008332897,0.0705635324
n000928/0309_01,-0.1139987186,0.1155839190,0.1115823612,0.0347215980,0.0129008144,-0.0749876425,-0.0163712092,-0.0936206877,0.1285219491,-0.0287643503,0.2644519210,-0.0338321440,-0.1886995435,-0.1116719618,0.1133125350,0.0878889859,-0.1320264935,-0.1035452858,-0.0841182023,-0.0862566382,-0.0023156302,-0.0107738283,0.0515634865,0.0705812797,-0.1415909082,-0.3779633641,-0.1257761568,-0.1550383717,0.0719157755,-0.1287598312,-0.0535985045,0.0499519855,-0.1348840743,-0.0609068871,0.0165438615,0.0250504017,0.0323101617,-0.0066330801,0.1087904349,-0.0097315945,-0.1104676351,-0.0832944736,-0.0013282616,0.3549230695,0.2388358563,0.0319103487,0.0659591705,0.0342598148,0.0458619967,-0.1465358585,0.0649086982,0.0615856983,0.2133954167,0.0611697435,0.0453563891,-0.1730202734,-0.0114000421,0.0336924866,-0.1962692738,0.1030450091,0.1014756709,-0.0890646428,-0.0682048649,0.0222629756,0.3098497987,0.0588191673,-0.2007248998,-0.0958038941,0.0939636156,-0.1180308610,0.0649623498,0.0619605817,-0.1834940165,-0.1656553745,-0.2681633234,0.0465882868,0.3575144410,0.0622206926,-0.2358852327,-0.0275681764,-0.1841711551,0.0272843577,-0.0378330871,0.0667767972,-0.1139310747,0.0642835349,-0.1401467472,0.0699770600,0.1265986860,-0.0075157285,-0.0248525292,0.2304757684,-0.0623559617,-0.0183301121,0.0001253923,0.0416156203,-0.0877690315,-0.0317894742,-0.0515675582,-0.0255518965,0.0147531889,-0.1080720201,-0.0039487337,0.0784483254,-0.2273667753,0.2104887366,0.0420469791,0.0851154476,0.0017581698,0.0064008343,-0.1243531778,-0.0730676055,0.1686524749,-0.3107597232,0.0859015957,0.2064571381,0.0952600390,0.1313846707,-0.0420211852,0.0469207168,-0.0229078289,-0.0092217773,-0.1247354224,0.0247891936,0.0143976007,-0.0746838078,0.0166312400,0.0452957489
n000928/0013_01,-0.1477421224,0.0952984989,0.0893660486,-0.0301934481,-0.0102402801,-0.0145688597,0.0514567606,-0.0737834498,0.1961881965,-0.1009740010,0.3135708869,-0.0117484787,-0.1742078960,-0.1468819678,0.0522991940,0.1048546880,-0.1541645676,-0.1138738468,-0.0880483016,-0.1471006125,-0.0367997140,0.0325472355,0.0384665541,0.0190825760,-0.0984659195,-0.3280412853,-0.1168444604,-0.2055734396,0.0829350799,-0.0904441103,0.0402199216,0.0464187786,-0.1626541466,-0.0234055556,-0.0434140675,0.0308096018,0.0041654552,0.0178357605,0.1525012106,-0.0530181527,-0.0647231564,-0.0623301789,-0.0240619145,0.3282916546,0.2094794661,-0.0061341757,0.0261621736,0.0300864074,0.1452075392,-0.1805232763,0.0395287909,0.0597734377,0.1519568413,0.0628162473,-0.0408862829,-0.1408011168,-0.0178985838,0.0408884957,-0.1946190596,0.0749148056,0.0727461651,-0.1545836776,-0.1295914054,0.0487011001,0.2977095842,0.0544256829,-0.1722814441,-0.1881570816,0.1579987407,-0.1684915572,0.0771599784,0.0946170613,-0.1971549094,-0.1188138500,-0.2511769831,0.1437312365,0.4000360072,0.0263089053,-0.1402836889,0.0111556798,-0.2102566510,0.0456421152,-0.0628210902,0.0818232670,-0.0723310709,0.0111645861,-0.1943916678,0.0195892006,0.1436839104,-0.0963582993,-0.0418994203,0.2407331616,-0.0257886220,0.0297866836,-0.0071359100,0.0162630342,-0.0860908628,-0.0432431549,-0.0559591204,0.0103286821,-0.0112871332,-0.0789991096,-0.0402470939,0.0502228886,-0.1370156705,0.2423169613,-0.0152938301,0.0765754580,-0.0277482849,-0.0292489920,-0.0752748773,-0.1224521324,0.1717033535,-0.2250348032,0.0896561891,0.1472989023,0.1103290915,0.2133215815,0.0213030335,0.1112072319,-0.0484039113,0.0351866931,-0.1533115059,0.0045430968,0.0111872908,-0.0139006013,-0.0183330774,0.0472308397
n000928/0213_01,-0.0967806280,0.1432427317,0.0794765651,-0.0556326695,-0.0246158093,-0.0333550125,0.0552482717,-0.1641171128,0.1804056168,-0.0941292644,0.2759353817,-0.0643236116,-0.1841956824,-0.0893477350,-0.0157790650,0.0813888833,-0.1125653163,-0.1663741171,-0.0404117331,-0.1014435962,0.0343794227,0.0198359732,-0.0371626280,0.0799526870,-0.1124981567,-0.3029618859,-0.0764333382,-0.1659179032,0.0562090389,-0.1077352911,0.0515757315,0.0236946940,-0.1569705009,-0.0256765615,-0.0578844585,-0.0374094993,0.0243176464,-0.0263756998,0.1753489375,0.0186652709,-0.1752163768,-0.0718740821,0.0124791535,0.3196766675,0.1781715900,-0.0529790558,0.0109972563,0.0168187004,0.0477865636,-0.1202291399,0.0271038152,0.0667334050,0.2074903101,0.0200275164,-0.0133667476,-0.1675108224,-0.0323059112,0.0013350341,-0.2152634412,0.0965288579,0.0808865651,-0.1223385930,-0.0745285824,0.0715842396,0.2072410434,0.0826375261,-0.0735575855,-0.1608826518,0.1935340762,-0.1784268022,-0.0259767622,0.0598207228,-0.1441560388,-0.1278220266,-0.2107299864,0.0620805249,0.4192801416,0.0915442109,-0.2023777664,0.0057389326,-0.1446830183,0.0300030652,0.0389718637,0.0346090607,-0.0868811384,0.0305867642,-0.1353763044,0.0180391110,0.1519541591,-0.0085391616,-0.1102783829,0.2050134391,-0.0541636758,-0.0442466103,0.0553765669,-0.0095769884,-0.0739267394,0.0421025567,-0.0735224336,-0.0592271164,0.0294160508,-0.0885102972,0.0207210034,0.1196912155,-0.2230763435,0.1959222555,0.0380633026,0.0224571824,0.0009353058,0.1047173366,-0.0920674652,-0.0854777470,0.1879613549,-0.1682557613,0.1360708177,0.1435194463,0.0897315368,0.1425424516,0.0406281613,0.0422111973,0.0247017741,-0.0076429984,-0.1218362525,-0.0385373756,0.0098443059,-0.0444564484,0.0847005323,0.0501710884
n000928/0305_01,-0.1945383847,0.1423530579,0.1058145314,0.0166075062,-0.0161775388,-0.0465598330,0.0535562485,-0.0317385010,0.1230647340,-0.0594189689,0.2571908534,0.0000144197,-0.1797405332,-0.1363661736,0.0549203418,0.1612777412,-0.2124309540,-0.1281351447,-0.0937294886,-0.1421383321,-0.0687718615,0.0314176045,0.0382957198,0.0628621206,-0.0899771452,-0.2662448585,-0.0769091845,-0.1799649745,0.1677863300,-0.0735298321,0.0360525325,-0.0249517970,-0.2327961922,-0.0543340333,-0.0420238189,0.0053121075,0.0206216294,0.0003974475,0.2442268133,0.0145355714,-0.0999640971,-0.1067707315,0.0156733599,0.2979061007,0.1723111123,-0.0180350896,-0.0170377474,0.0870178789,0.0873152018,-0.2247968316,0.0375132300,0.0890715122,0.1858395785,0.1161310300,-0.0774934590,-0.1298194230,0.0070477221,0.0550801009,-0.2186088264,0.0965242609,0.0467700958,-0.1528453529,-0.1129011437,0.0517599210,0.2855595648,0.0914906561,-0.0938372985,-0.1767158657,0.2336194366,-0.1660466790,0.0354429930,0.1358040720,-0.0914884582,-0.0580927990,-0.2542268634,0.0972188339,0.3611951768,0.0891651064,-0.1221354678,-0.0246401280,-0.1847975850,-0.0153694246,-0.0746427029,0.0581885353,-0.1167769209,0.0305149965,-0.0845675468,0.0429502949,0.1334301531,-0.0008080192,-0.0511545204,0.2161518335,0.0211038031,0.0331974253,0.0337826759,-0.0240565538,0.0105221495,-0.0950874835,-0.0422695912,0.0046466221,0.0171467010,-0.1233248115,0.0171258915,0.0641538128,-0.1579539180,0.1805763841,0.0193707701,0.0235454515,-0.0110377213,0.1065632775,-0.0849067345,-0.0904396400,0.1857812405,-0.1949660182,0.2191522568,0.1884532273,-0.0074628349,0.1207982004,0.0171688348,0.1337445527,-0.0664303079,-0.0172198117,-0.0810974017,-0.0682625026,0.0407769755,-0.0970932990,0.0679187030,0.0654569343
n000928/0121_01,-0.1316802204,0.1117311716,0.1725246459,0.0348021463,-0.0624441691,-0.0753045082,-0.0121618742,-0.0332520157,0.1113708988,0.0138298851,0.3019694388,-0.0195115246,-0.1841990948,-0.1079937518,0.0489709824,0.1497301012,-0.1705280989,-0.0524318255,-0.0296538509,-0.1171407998,-0.0005345226,0.0263860859,0.0407811180,0.0332067981,-0.1403067708,-0.3011923730,-0.0450204425,-0.1726913601,0.0902736038,-0.1052260101,0.0224800743,0.0505523644,-0.1653534472,-0.0189562496,-0.0221667401,0.0214848146,0.0177273378,-0.0313337035,0.1236661971,-0.0318177380,-0.1184871122,-0.0704544634,-0.0111306673,0.2942974567,0.2149227560,-0.0207485929,0.0684459955,0.0240528975,0.0761328265,-0.1983919442,0.0431069881,0.0643946975,0.2072333544,0.0257260203,0.0077121500,-0.1650639772,-0.0318188444,0.0567235500,-0.1146038845,0.0793976486,0.1150639504,-0.0636060014,-0.0765277296,-0.0469748862,0.3043336272,0.0339895077,-0.1560236961,-0.1136719435,0.1478579044,-0.0872063935,-0.0297911651,0.0558064356,-0.1524932235,-0.1085906923,-0.2782101631,0.0774285048,0.3447270393,0.0571201146,-0.2926285565,-0.0085821953,-0.2142741382,0.0962412059,-0.0432891063,0.0577366166,-0.0557859689,0.0020991089,-0.1699549854,-0.0562722124,0.1505066305,-0.0871673822,-0.0011904394,0.2021726966,0.0015318701,-0.0069815819,-0.0203150176,-0.0654471517,-0.0857625157,-0.0164719727,-0.0498098284,-0.0536665246,0.0017938195,-0.1013019085,-0.0197855569,0.0964131430,-0.2321665287,0.2301253676,0.0404892676,0.0699396804,0.0624246262,0.0736600682,-0.0964261591,-0.0863476992,0.1866475940,-0.2269837558,0.1689279675,0.1671241075,0.0773751661,0.1598757356,0.0379208177,0.1593513191,-0.0698159710,0.0494660698,-0.0976007804,-0.0270279814,0.0183482599,-0.1089340597,-0.0227455739,0.0700616986
n000928/0316_02,-0.1113017723,0.0692716315,0.0293350667,-0.0437630452,-0.1351367533,-0.0638269559,0.0683022961,-0.1389133483,0.0522576384,-0.0393269099,0.1936996728,-0.1178565770,-0.2083389312,-0.0280479863,-0.0055051055,0.0985363796,-0.0806241408,-0.1096216887,-0.1619844586,-0.0910213068,-0.0402021967,-0.0078130057,0.0378959589,-0.0007724259,-0.0989518762,-0.3132289946,-0.0960230008,-0.0754718557,0.0503024086,-0.0107638855,0.1034339815,0.1540451497,-0.1456749439,-0.0799507722,0.0370674208,0.0567700937,-0.0880850703,-0.0587806106,0.2091260105,-0.0146858580,-0.1656419635,-0.0050239326,0.0736956075,0.3228446245,0.1760374308,-0.0153478682,0.0363089852,0.0053739483,0.0162436478,-0.2533844709,0.0188769083,0.1254099756,0.1371924281,0.1034350023,0.0623573735,-0.0897701085,0.1185009256,0.1307299137,-0.1888231039,-0.0100362878,0.0913639516,-0.0899841487,-0.0485892817,-0.0505715683,0.2475913465,0.1447728872,-0.0483546406,-0.0760497153,0.2312456667,-0.1103988588,-0.0510595962,0.0071898662,-0.1461704224,-0.1180459037,-0.2034138292,0.0539784394,0.3391048312,0.1356536597,-0.1705221385,-0.0046661468,-0.1020368785,0.0884044692,0.0529389568,-0.0291877612,-0.1014166847,-0.1139996648,-0.0456473269,-0.0314562358,0.1607848108,-0.0750396624,-0.0524763055,0.1588526517,0.0674459040,-0.1220628098,0.0980489701,-0.0429772623,-0.0244361684,0.0061079911,-0.1191229746,0.0321443938,0.0619136058,-0.1989880055,0.0207363237,0.1104493588,-0.2629901767,0.2041329741,0.0100999577,-0.0152954254,0.0583347268,0.0135946032,-0.0155740045,-0.0154910851,0.1699849367,-0.2574468851,0.2303152531,0.2169892192,-0.0504204854,0.1491393298,0.0215815529,0.1045795530,-0.0241316743,0.0418786742,-0.1083938405,-0.1269470602,0.0555422902,-0.0038829702,-0.0736596435,0.0745948777
n000928/0007_01,-0.1232237518,0.1342740804,0.1281400919,-0.0230797213,-0.0433566943,-0.0164987333,0.0011057518,-0.0947188213,0.1525200605,-0.0768576413,0.2732039392,0.0011317953,-0.1786693186,-0.1602928936,0.0830109641,0.1227417141,-0.1823040992,-0.1339194775,-0.0954693556,-0.1628332883,-0.0746495426,-0.0045618569,0.0255912617,0.0124487299,-0.0554703884,-0.3471260369,-0.0886417776,-0.2075250447,0.1052751467,-0.1216312349,0.0472361706,-0.0186378490,-0.1759561151,-0.0506284833,-0.0769986138,0.0068566389,0.0040419661,-0.0422999337,0.1394464970,-0.0729997605,-0.0724707246,-0.0456832126,-0.0252762046,0.2850218117,0.2500213087,-0.0362269208,0.0400742665,0.0464574248,0.1125837937,-0.1877846122,0.0464250557,0.0624885857,0.1305109411,0.0674144477,-0.0083909845,-0.1105167866,-0.0028580762,0.0392306522,-0.2057917565,0.0519698337,0.0945830867,-0.1100462824,-0.1127158403,0.0712262988,0.2999044359,0.0832775161,-0.1148427874,-0.1859712899,0.1375317574,-0.1608032882,0.0372448713,0.0529170632,-0.1768538952,-0.0779643357,-0.2655055523,0.1563425958,0.4142571390,0.0516166538,-0.1670816839,0.0037794067,-0.2122654617,0.0333380178,-0.0239556264,0.0371258520,-0.0704347864,-0.0242853984,-0.1588912904,0.0371361449,0.1158890203,-0.0519102737,-0.0528241098,0.2094193697,-0.0149464533,-0.0214061774,0.0273318440,0.0202512667,-0.0531987995,-0.0273226090,-0.0618100017,-0.0202039853,0.0455608144,-0.0694547519,-0.0077318670,0.0651399642,-0.1466566473,0.1956921816,-0.0008469634,0.0631633103,0.0159225743,0.0119564654,-0.0825285539,-0.1257880330,0.1933614761,-0.2196901888,0.1270266324,0.1748668402,0.0613637455,0.1648724526,0.0048476821,0.1172154546,-0.0510618314,0.0164471082,-0.1026562229,-0.0063414411,-0.0009106910,0.0140233543,-0.0041742250,0.0698193610
n000928/0146_01,-0.1644346118,0.1414154768,0.1623193771,-0.0256156363,-0.0172802676,-0.0494512320,0.0003687739,-0.1030973494,0.1766625345,-0.0961907879,0.1797237843,-0.0056108721,-0.1673535705,-0.0968271345,0.0781608224,0.1216583252,-0.1474009007,-0.1256080866,-0.1133745387,-0.0698704869,-0.0399728119,0.0458368100,0.0315654948,0.0219705291,-0.1089910418,-0.2752185166,-0.0891836211,-0.1847424805,-0.0111939283,-0.0698058456,-0.0020259116,-0.0074136415,-0.1464387476,-0.0517469496,0.0262970086,0.0556441694,0.0146590751,0.0348066129,0.1397551596,0.0063574100,-0.1634243429,-0.0799685046,0.0294123422,0.2692057490,0.2208001465,-0.0329381749,-0.0034043211,-0.0245070532,0.1218429580,-0.1944413930,0.0472538471,0.0692552701,0.1348436326,0.0952669308,0.0565955378,-0.1706732810,0.0088041155,0.0664381012,-0.1597710997,0.0501391701,0.0843675807,-0.1470636576,-0.1570734382,0.0635237619,0.2445684671,0.1194299459,-0.1239991561,-0.2181278169,0.1441663951,-0.1279568672,-0.0033336570,0.1071374193,-0.1443191916,-0.0668230802,-0.2333049178,0.0185715780,0.3870041668,0.0189429969,-0.2467969507,-0.0335042067,-0.2341580987,0.0202252008,-0.0493568070,0.0903696418,-0.0422320627,0.0505796373,-0.0801391304,-0.0246259272,0.1186594069,-0.0541531481,0.0130849676,0.1821634322,0.0141514493,-0.0245981365,0.0201012176,-0.0463167056,-0.0818761811,-0.0708601847,-0.1329849213,-0.1192258522,-0.0166871306,-0.0707804114,-0.0333446488,0.0732266232,-0.2717871964,0.2234301865,0.0617611520,-0.0084099919,0.0034662872,0.0079046087,-0.0283821262,-0.0677191913,0.1871361136,-0.2245222479,0.1361071318,0.1742544472,0.0282585025,0.1476951838,-0.0179103129,0.1023152471,-0.0461117402,0.0520368740,-0.0889131948,-0.0224741250,0.0067499136,-0.0140203014,-0.0332663320,0.0126191992
n000928/0099_01,-0.1143630818,0.1251177490,0.1706652641,-0.0146106780,-0.0217601657,-0.0272195991,-0.0322710834,-0.1240152493,0.1239361018,-0.1280086190,0.2415014356,0.0035612041,-0.1817815453,-0.1135056317,0.1091495529,0.0977454782,-0.1618833095,-0.1151554510,-0.0688289255,-0.0834109634,-0.0538996607,0.0198833682,0.0304307938,0.0046706949,-0.1487229317,-0.3118624091,-0.0980519131,-0.1874487102,0.0389636010,-0.0620040782,0.0150605738,-0.0022488460,-0.1840571314,-0.0169163421,-0.0539885648,0.0507146046,-0.0269040707,-0.0162190534,0.1263739169,-0.0248130858,-0.1194555983,-0.0261658877,-0.0421839133,0.2666898966,0.2202179134,-0.0635763705,0.0131858569,0.0980998129,0.1136307791,-0.2248153090,0.0592603981,0.0369902477,0.1947105974,0.0754059628,0.0576405451,-0.1542010158,0.0154807577,0.0550055504,-0.1535778046,0.1001669765,0.0937098861,-0.1423545182,-0.0896255895,0.0676353723,0.2501773834,0.1057176441,-0.1285036653,-0.1046140194,0.1357844919,-0.1132534519,0.0463563092,0.0591524765,-0.1481364667,-0.1086005494,-0.2040219009,0.0794898719,0.3203820884,0.0987632424,-0.2806192636,-0.0398541465,-0.1508212388,0.0873899832,0.0076916236,0.0607250221,-0.0131268203,0.0243252460,-0.1351524740,-0.0024666348,0.1111925244,-0.0436264314,-0.0201093610,0.2813673913,-0.0117776720,0.0049083475,0.0492061004,-0.0713582486,-0.0497682802,-0.0943123549,-0.0829207078,-0.0208590031,0.0093516149,-0.0971604884,-0.0604154170,0.0582046844,-0.1615505219,0.2459920794,0.0300813094,0.0878196359,0.0293429438,0.0376763903,-0.0697230101,-0.0748616010,0.1787762642,-0.2171274275,0.1423328668,0.1524855793,-0.0199465882,0.1549391150,0.0036342656,0.0853509754,-0.0554959141,0.0257249828,-0.1244166121,-0.0635366887,0.0056661987,-0.0530260876,-0.0111408299,0.0445297100
n000928/0024_01,-0.1075273529,0.0791561827,0.1281275898,-0.0231985338,-0.0514578223,-0.0309664216,0.0029074112,-0.1093741357,0.1392579228,-0.0641525090,0.2571633756,-0.0524888039,-0.2105897963,-0.1049178988,0.0612071864,0.0945990533,-0.1707586944,-0.1075429022,-0.0812349468,-0.1658225209,-0.0467921495,0.0349567384,0.0119656166,0.0279353261,-0.1050171927,-0.2693196535,-0.0901625380,-0.1720285416,0.0548800230,-0.0400587022,-0.0273016375,0.0120569505,-0.1845652163,-0.0315817073,-0.0296342596,0.0507627800,-0.0011544807,-0.0342415720,0.1065171510,-0.0160021335,-0.0680795833,-0.0158516355,-0.0052511096,0.2671754360,0.2144802213,-0.0058419802,0.0031707082,0.0717235059,0.0465668403,-0.2027817965,0.0475057960,0.0904846862,0.1489086151,0.0543721579,-0.0157542042,-0.1589983106,-0.0634557679,0.0917648822,-0.1428372711,0.1034039110,0.0677923337,-0.1802346706,-0.0745970458,0.0033894749,0.2929761708,0.1286166310,-0.1237961873,-0.1227918267,0.1246040910,-0.1630042493,0.0038813087,0.0619256273,-0.1570770890,-0.0773113444,-0.2117992043,0.1129123867,0.4277363718,0.0599403828,-0.2106295973,-0.0454327650,-0.1841475368,0.0321949199,-0.0138287507,0.0702929571,-0.0360845253,0.0118854884,-0.1608649194,-0.0002146428,0.1676528901,-0.0721178949,-0.0082891136,0.2544103861,-0.0128790494,-0.0168459266,0.0183349196,-0.0635585114,-0.0390425250,-0.0901316777,-0.0401194021,-0.0605132170,-0.0318922363,-0.1342587173,-0.0259954035,0.0445496552,-0.1696320623,0.1495725363,0.0188210681,0.0072623491,-0.0080933627,0.0055725183,0.0010134280,-0.1023459509,0.2013353109,-0.2310267389,0.1095966697,0.1746503115,0.0730304196,0.1976215243,-0.0567391329,0.1331159920,-0.0602622665,0.0159090571,-0.0613853447,-0.0334926732,-0.0269395448,-0.0036644088,0.0262191631,0.0712727383
n000928/0443_01,-0.1540659368,0.1209824979,0.1301067024,0.0513343178,-0.0310256314,-0.0659556761,-0.0195162818,-0.0577382185,0.1160828918,-0.0262723863,0.2544347942,-0.0079465630,-0.1712387651,-0.1351961344,0.0365187600,0.1002629548,-0.1290366799,-0.0915474892,-0.1046176553,-0.1343632936,-0.0708372742,0.0020843693,0.0491034873,0.0312816501,-0.0732395947,-0.3249396384,-0.0882851928,-0.2354085594,0.0752447322,-0.1083523035,0.0448257364,-0.0435192436,-0.1524714828,-0.0612290613,-0.0292733945,0.0212801360,0.0232617185,-0.0261306651,0.1767619252,-0.0683908612,-0.0972184464,-0.0219559185,-0.0083786063,0.3623971045,0.2252337635,-0.0393914506,0.0386515334,0.0664206967,0.1110768020,-0.1649574041,0.0797362924,0.0460593104,0.1449402422,0.0499604195,0.0075203702,-0.1352042854,0.0031227078,0.1426423788,-0.2102559358,0.0626153201,0.0708215684,-0.0892859101,-0.1511593610,0.0678565353,0.3327058852,0.1217595711,-0.1732821018,-0.1834615767,0.1317676604,-0.1628521532,0.0762285292,0.0825442076,-0.1755933762,-0.0764343441,-0.2425696552,0.1626849622,0.4397813976,0.0126327127,-0.2347706556,-0.0115404287,-0.1858458668,0.0332333930,-0.0211565737,0.1167666391,-0.0446446463,-0.0076555666,-0.1354849339,-0.0164934378,0.0879161358,-0.0122162737,-0.0432781652,0.1762047410,0.0083859079,-0.0732329488,0.0256518126,-0.0180236343,-0.0912533700,-0.0688843429,-0.0689848065,-0.0361563265,0.0104401484,-0.0678479075,-0.0554674007,0.0439697802,-0.1809556186,0.2108484358,0.0322859250,0.0416969657,0.0245504752,-0.0135966698,-0.0200969875,-0.0883596763,0.1898792535,-0.2636951804,0.1447362751,0.1345858127,0.0868203342,0.1816683710,-0.0199051816,0.0895617902,-0.0179765634,0.0698696524,-0.1327157021,-0.0092887860,-0.0161299817,-0.0576440282,0.0037217820,0.0282540172
n000928/0257_02,-0.1220083535,0.0761273727,0.1221291944,0.0108315889,-0.0376348831,-0.0282855369,0.0265481081,-0.0907370597,0.1457117796,-0.0698612407,0.1913231313,0.0384870768,-0.1141722053,-0.1201681271,0.0662379935,0.0806105807,-0.0441335887,-0.1669884026,-0.0944605321,-0.1599993259,-0.0521736480,0.0301492382,0.0198821370,0.0148693081,-0.1386792958,-0.2604314685,-0.0810970515,-0.1695782393,0.0740365088,-0.0377430469,0.0034636110,0.0530566834,-0.1876963079,-0.0305184163,0.0127840433,0.0842730775,0.0385538824,0.0220804513,0.1300473511,-0.0317975283,-0.0993394032,-0.0127780903,0.0487743616,0.2991388142,0.1993276775,-0.0336200856,0.0239138231,0.0563029647,0.1393382996,-0.1739899963,0.1060531661,0.0210047923,0.1740775704,0.0612366460,0.0606614910,-0.1321771741,0.0332332700,0.0333600342,-0.1946736276,0.0904842019,0.0606257282,-0.1140589118,-0.1748022139,0.0005485229,0.2472280413,0.1190892980,-0.0627253577,-0.2106374353,0.1346782893,-0.1991291493,0.0285514072,0.1292422712,-0.1431351304,-0.0285347141,-0.2268719673,0.0855881199,0.3964061141,0.0833324417,-0.2043159604,0.0554360189,-0.1253825277,0.0596152954,0.0021232322,0.0008719699,-0.0638649836,0.0556476004,-0.1253973991,-0.0177334547,0.1837991476,-0.0061167944,-0.0499894023,0.1787416637,0.0180035084,-0.0298243873,0.0529157631,-0.0615296587,-0.0309412796,-0.0901966169,-0.0936016738,-0.0691392422,-0.0202639662,-0.0982788503,-0.0291763768,0.0176463015,-0.2384057790,0.2049946040,-0.0046134368,0.0602792390,0.0075922669,0.0452155657,-0.0760149136,-0.0626613647,0.1662507504,-0.2554229498,0.1230359972,0.1161097884,0.0315316543,0.1401191354,-0.0202289820,0.0993105918,-0.0514903925,0.0511005968,-0.0794956237,-0.0513262227,0.0167258419,-0.0908320621,0.0147265904,0.0767110139
n000928/0067_02,-0.1325901896,0.0805533752,0.1078408509,-0.0151123125,0.0308056213,-0.0164520703,0.0250228513,-0.0909813270,0.1455884427,-0.0977779701,0.2450527698,-0.0114704696,-0.1681136787,-0.1252765805,0.0907541215,0.0546764769,-0.1596260518,-0.0902750120,-0.1330900341,-0.0861851573,-0.0353871882,-0.0156828444,0.0466867089,0.0461663529,-0.1024939343,-0.3114782274,-0.0596107244,-0.2210786194,0.0709588677,-0.0672099739,-0.0039824657,-0.0051107481,-0.1605626494,-0.0233423878,-0.0602770261,0.0495347902,0.0093865646,-0.0308804289,0.1482608467,-0.0670071840,-0.0926655605,-0.0354355313,-0.0202604476,0.2836259902,0.2212840468,-0.0329011306,0.0330005810,0.0500614904,0.1122664660,-0.2107651681,0.0485471860,0.0416293666,0.1136296615,0.0880239606,0.0089532435,-0.1298467666,0.0109508038,0.0509497859,-0.1749977171,0.0878486186,0.0672950894,-0.1155527085,-0.1219434217,0.0440637060,0.2972080708,0.1137340814,-0.1587785631,-0.1715658158,0.1110065207,-0.1757832319,0.0210442636,0.0880188644,-0.1782870889,-0.0864970759,-0.2152415067,0.1030109450,0.3958535492,0.0864189342,-0.1756577343,-0.0045828121,-0.2224818319,-0.0035043084,-0.0125597958,0.1181351021,-0.0065862183,0.0221186206,-0.1003908664,0.0458667725,0.1418813765,-0.0189874824,-0.0396919660,0.2297606468,0.0076876841,-0.0288121961,-0.0287734307,-0.0559282228,-0.0464894697,-0.0414608680,-0.0753543153,-0.0135736289,0.0038615949,-0.0256231427,-0.0189231317,0.0594902188,-0.1889296770,0.2175783068,0.0175426044,0.0543736182,0.0774675682,-0.0122867245,-0.0438032672,-0.0784308612,0.1518193483,-0.2610826790,0.1049944833,0.1694773287,0.1652931869,0.1285187602,-0.0323313177,0.0542410463,0.0243808478,0.0745621175,-0.1905239373,0.0075312811,0.0047251955,-0.0210687853,-0.0187686607,0.0388218202
n000928/0164_01,-0.1590362489,0.0430847444,0.1598489285,0.0586824641,-0.0200835261,-0.1430053264,0.0475994125,-0.0348159410,0.0959769785,0.0254148114,0.2830220163,-0.0391771570,-0.1311687827,-0.1263402849,0.0720924288,0.1097352728,-0.0904201120,-0.0416409448,-0.0950032398,-0.0779627934,-0.0391585678,0.0378499515,0.0695995837,0.0556341633,-0.0954522192,-0.2759724557,-0.0696785301,-0.1940865666,0.0747213885,-0.0573025309,0.0142276175,0.0499847680,-0.1219661757,-0.0496233217,-0.0301154032,0.0525225699,0.0038038897,-0.0327384211,0.2044149637,-0.0456927940,-0.1329979300,-0.1020607352,-0.0198331233,0.2692166865,0.1423184574,-0.0213813502,0.0559161901,0.0871147066,0.0475876257,-0.2004418969,0.0318268128,0.0499202907,0.1881003976,0.0267492794,0.0119403061,-0.1067117080,-0.0320686027,0.0662805587,-0.1642960608,0.0414529778,0.0626632869,-0.0172827207,-0.0937237591,-0.0238525532,0.3091369569,0.1175206229,-0.1341684610,-0.0984958932,0.1703598499,-0.1494879425,-0.0269528739,0.0799266845,-0.1417999715,-0.1173644811,-0.2290354669,0.1225186288,0.3189718127,0.0380341522,-0.2353378087,-0.0507485420,-0.1787438691,0.0468854234,-0.0363810807,0.0074261539,-0.0804940909,0.0535530001,-0.1380018592,-0.0748241395,0.1526627094,-0.0703298375,-0.0037382678,0.1860346645,0.0451939330,-0.0063813389,-0.0007774876,-0.0971149355,0.0306830015,-0.0056154719,-0.0785664394,0.0510439686,0.0617000796,-0.0848809779,0.0057169111,0.0673202276,-0.1743319482,0.1460081637,0.0378129333,0.0050137844,0.0557319447,0.1058096141,-0.1540799290,-0.1523376554,0.1870917380,-0.1804496348,0.1413450986,0.1501268446,0.0500970595,0.1154080406,0.0232145749,0.1523084342,-0.0325327627,0.0728285834,-0.0861080587,-0.0234525148,0.0866031796,-0.0673844665,-0.0465280451,0.0702512711
n000928/0158_01,-0.1432676315,0.0525983274,0.0884541944,0.0578475483,0.0350594074,-0.0946538523,-0.0125085544,-0.0380203612,0.0722091943,-0.0214247182,0.2548999786,-0.0540093891,-0.1357101053,-0.1377398670,0.0356190726,0.0728363693,-0.1278978288,-0.0699757263,-0.0904582739,-0.1060151607,0.0372808278,0.0307063032,0.0248861350,0.1150219515,-0.1082257926,-0.2974708676,-0.0515909418,-0.1939200908,0.0618845746,-0.1424866766,-0.0171792805,-0.0288492199,-0.1754896641,-0.0366428420,-0.0633598939,0.0197205376,0.0703017563,-0.0536820553,0.1632377654,0.0192254782,-0.0915814042,-0.0242831744,-0.0135796759,0.3143224418,0.1104549617,-0.0475125723,0.0394059718,0.0213638172,0.1137495190,-0.2057871372,0.0407494716,0.0855318382,0.1514237374,0.0526101030,0.0442738384,-0.1341354847,0.0216212496,0.0440714695,-0.1433950216,0.1052019298,0.0280494355,-0.0123003386,-0.0299365222,0.0035216326,0.2732888162,0.0627238005,-0.0923530012,-0.1101939902,0.0714130104,-0.0941969752,0.0226978492,0.1176969558,-0.1149767116,-0.1401609927,-0.2194944173,0.1350338161,0.3892203271,0.0851562992,-0.2386098355,0.0527249053,-0.2552102506,-0.0077064540,0.0422415733,0.0261244085,-0.0354039371,0.0883886144,-0.1586533785,0.0575413294,0.1422737241,-0.0061236890,-0.0154922437,0.1946685910,0.0192452781,0.0020249682,0.0438064523,-0.0500518344,-0.0942423493,-0.0075395536,-0.0314117149,0.0010696813,0.0472014919,-0.0632980764,0.0005805595,-0.0007463126,-0.1971717924,0.1489233673,0.0614857078,-0.0191781316,0.0295111910,0.0722234547,-0.1097631827,-0.0569143742,0.1168582365,-0.2781013548,0.1479010284,0.1115529835,0.1090245321,0.1716498286,-0.0126576778,0.0940695554,-0.0603235811,0.0173474327,-0.0639595911,0.0078925099,0.0536527075,-0.0034756223,-0.0008339118,0.0210966058
n000928/0449_01,-0.0750745609,0.0886724517,0.1075717360,-0.0055943131,0.0137670711,-0.1001992822,-0.0339181647,-0.1099591404,0.1207758412,-0.0788806006,0.2720201612,-0.0393970273,-0.2100005746,-0.1354137957,0.0971564725,0.1430884153,-0.0593671426,-0.1091619954,-0.0928560644,-0.0763417929,-0.0563568175,0.0236378610,0.0489510186,0.0229916554,-0.0857279301,-0.2914837301,-0.1034833342,-0.1548048556,-0.0191913061,-0.0814390406,-0.0199819244,0.0654698387,-0.1726060510,-0.0799401551,0.0168712437,0.0599120595,0.0140914926,-0.0102944300,0.1248751730,-0.0210217386,-0.1249960288,-0.0528490283,0.0291136429,0.3216864765,0.1999296695,-0.0052798404,0.0577671006,-0.0099226702,0.0596460700,-0.2141790837,0.0729968697,-0.0100093260,0.1447370946,0.0853791684,0.0093231574,-0.2223382443,0.0382166654,0.0772421509,-0.2000324577,0.0791642591,0.0875688493,-0.0940064490,-0.1074654832,0.0386927947,0.3783308566,0.1143224910,-0.1787710637,-0.1042736024,0.1105296612,-0.1180324554,0.0355398133,0.0652971193,-0.1859027594,-0.1240034774,-0.3300773203,0.0889341682,0.3454363644,0.0455843620,-0.2349510193,0.0039621973,-0.1469734758,0.0912305415,-0.0229995940,0.0790846348,-0.0709082410,0.0663499311,-0.1176774204,0.0128190871,0.1519570351,-0.0516248569,-0.0385889262,0.2306701690,-0.0386100374,-0.0054458589,0.0224741176,0.0212022420,-0.0390195176,-0.0941040441,-0.1170639992,-0.0326290131,0.0236043558,-0.1140204147,-0.0134113263,0.1148765683,-0.2373060584,0.1822090298,0.0143141728,0.0401947834,0.0191266406,0.0305346381,-0.0292582922,-0.0963824540,0.1448585689,-0.2533544898,0.1341505051,0.1726046652,0.0926108956,0.1656520665,-0.0054022507,0.1089421958,-0.0538251624,0.0239412431,-0.1259342134,0.0022037448,0.0321015716,0.0139623862,0.0376068354,0.0871479362
n000928/0141_01,-0.1589569002,0.1194860265,0.1431948692,0.0271690879,0.0174198877,-0.0633808225,0.0357879400,-0.1213869750,0.0802553669,-0.0204410106,0.2466640621,-0.0242071785,-0.1714949906,-0.1440420449,0.0355104953,0.1112398207,-0.1844229400,-0.2003101557,-0.0916305408,-0.1277083457,-0.0397153050,0.0331764780,0.0724727288,0.0689920336,-0.1087089702,-0.2809463739,-0.0460326374,-0.1708007604,0.1244674698,-0.0964822918,-0.0043938551,0.0055038352,-0.1789695323,-0.0253062677,-0.0452440791,0.0428901948,0.0664746240,-0.0512729399,0.2303470522,0.0041374601,-0.1209038049,-0.0904770046,0.0449845493,0.3557024002,0.1785686165,-0.0166944787,0.0235908441,0.0889955908,0.0400244743,-0.1967424601,0.0647815764,0.0999380350,0.2234622985,0.0439923853,-0.0281103719,-0.1548214108,0.0043022502,0.0681632236,-0.1676978767,0.1221987307,0.1404436380,-0.0986669809,-0.0326032788,0.0314337909,0.3398822248,0.0565190166,-0.1224513650,-0.1246959716,0.1194288284,-0.1250318885,-0.0493950471,0.0513397157,-0.1386067420,-0.0779797807,-0.2588008642,0.1097115502,0.3274786174,0.0861677378,-0.1900036186,0.0157125778,-0.1908682138,0.0584097318,-0.0055732061,0.0370603204,-0.1520362943,0.0713698566,-0.1874314994,-0.0225147381,0.1509320736,0.0409578159,-0.0642647147,0.1970469654,-0.0017805193,-0.0430145375,0.0382197723,-0.0468160696,-0.0307259280,0.0082468186,-0.0809706002,0.0181546006,0.0100450199,-0.0828410089,0.0342639871,0.0850614905,-0.1823997796,0.1088677421,-0.0007033481,0.0287472755,0.0237770975,0.0773308799,-0.1424489468,-0.1324015260,0.1580949426,-0.2455749959,0.1154328510,0.2054298669,0.1027104631,0.1221565828,0.0815458149,0.1226769090,-0.0152104069,0.0679608732,-0.0946892351,-0.0183766391,0.0895924643,-0.0776258558,0.0723610744,0.1193704158
n000928/0032_01,-0.1113600284,0.1412834972,0.0620069504,-0.0021697548,0.0307674073,-0.0589489639,0.0667692870,-0.0371649563,0.1581600606,0.0056496575,0.2790633738,-0.0554949567,-0.2113787979,-0.1229850873,-0.0050528604,0.0733801946,-0.1799698025,-0.0600000359,-0.0053892694,-0.1009258106,0.0223925188,0.0096916091,-0.0429539010,0.0697670802,-0.0766781121,-0.3722238243,-0.0969374254,-0.1868191510,0.0836593881,-0.1678088903,0.0172880404,0.0760482326,-0.1208989769,-0.0631800890,-0.0476197898,-0.0325593427,0.0442074314,-0.0321713388,0.1585448384,0.0271409657,-0.0644054785,-0.0758004263,0.0085875615,0.4096498191,0.2402366549,-0.0331026725,0.0080351774,0.0652353615,0.1105764657,-0.1912863255,0.0283198021,0.0748657510,0.1985718608,0.0899531320,-0.0055733537,-0.1478283405,-0.0351057462,0.0181871615,-0.2421139628,0.0639659837,0.0413895696,-0.1005214825,-0.0876001120,0.0410135351,0.2697910964,0.0597534180,-0.1471645981,-0.1430849582,0.1691039801,-0.1760898381,0.0200279858,0.0186930560,-0.1485303640,-0.1373610497,-0.2239607871,0.1944253594,0.3442852199,0.1270305067,-0.2184535563,0.0392623469,-0.1916238815,-0.0010044412,0.0301989615,0.0861052498,-0.0429235473,-0.0027223518,-0.1287204772,-0.0128499493,0.0834910274,-0.0093505196,-0.0947099924,0.1904373169,-0.0598639697,-0.0061545009,0.0401826873,-0.0056810393,-0.1154391915,0.0335241146,-0.0781076327,-0.0218875669,0.0351924524,-0.0954741165,-0.0233757608,0.1284518242,-0.1873452216,0.2301859260,0.0410173982,0.0347219892,0.0264110453,0.0059325388,-0.0724456608,-0.0680889711,0.1508272439,-0.2779742777,0.1561836600,0.1287131906,0.0749171972,0.1953492165,-0.0180890411,0.0693444386,0.0233198702,-0.0028349124,-0.1198614985,-0.0198663045,0.0378600582,-0.0220423564,-0.0227709934,-0.0136547964
n000928/0042_01,-0.1684128344,0.1424713731,0.1053889021,0.0544040874,-0.0786235109,-0.0624577142,0.0645767376,-0.0658328384,0.1411107033,-0.0673916936,0.2891030908,0.0285575725,-0.1607505232,-0.1261779219,0.0697896853,0.1119003594,-0.1460836679,-0.1211412549,-0.1459681392,-0.1596623659,-0.0434215814,-0.0003652270,0.0057063485,0.0340575688,-0.0775491819,-0.2421411872,-0.0472890735,-0.1951005012,0.1170129925,-0.1311390102,0.0684656948,-0.0458922759,-0.1812670529,-0.0621004067,-0.0556869507,0.0149410926,0.0098940805,-0.0585397519,0.1304314733,-0.0986032188,-0.1071862951,-0.0024850387,0.0064789969,0.2534578145,0.1492800862,-0.0444352292,0.0196428895,0.0171346776,0.1026431918,-0.1870329380,0.0124930572,0.0554604530,0.1389663368,0.0522132367,-0.0070607299,-0.1572801620,0.0031756368,0.0684204251,-0.1946626157,0.0795280486,0.0879608020,-0.0632941425,-0.1167802811,0.0137421647,0.2535368204,0.1232928410,-0.1179538965,-0.1603474170,0.1207048818,-0.2028443515,0.0283291973,0.1125022620,-0.1222927570,-0.1027213112,-0.2068241388,0.1086060479,0.4599914253,0.0669771805,-0.1463566571,-0.0292766877,-0.1937770993,0.0411984622,-0.0308664050,0.0582580864,-0.0735746920,-0.0357579812,-0.1285630912,0.0262398757,0.1465707719,0.0026777927,-0.0371629670,0.2030945718,0.0283523686,-0.0265136771,-0.0146225942,-0.0584652536,-0.0255497452,-0.0523704812,0.0104042999,0.0183706991,-0.0405716673,-0.1322898418,-0.0305175427,0.0127135497,-0.1424557269,0.1456194222,0.0240310449,0.0859842524,0.0219818968,0.0904377401,-0.0613016300,-0.0788453296,0.1592646837,-0.2374438345,0.2075361758,0.1744673550,0.0383691974,0.1392314285,-0.0032070493,0.1311110854,-0.0294416882,0.0300316941,-0.0988145247,-0.0249648821,-0.0226842612,-0.1035868973,0.0088600460,0.0385408923
n000928/0120_02,-0.2091796696,0.1594778597,0.1085493937,-0.0742149279,-0.0914650038,-0.0210673399,-0.0538960323,-0.1357532144,0.1576708406,-0.0756857395,0.3053040206,0.0779328942,-0.1905270070,-0.0888812542,0.0338884555,0.1229781806,-0.2227640003,-0.0674978793,-0.1271887869,-0.1368763894,-0.0170975346,0.0573980063,0.0579301417,0.0352555364,-0.1392778754,-0.2814540863,-0.0645152107,-0.0505712032,0.0595543236,-0.0988457352,0.0315881893,0.0370882675,-0.2119128555,-0.0592844822,-0.0363609456,0.0634561032,0.0029929141,-0.0428350978,0.1519763619,-0.0439449288,-0.1378021091,-0.0149967968,0.0250656176,0.2351112515,0.2566113174,-0.0531306341,-0.0250478238,-0.0244729947,0.0577275567,-0.2283854038,0.0530086271,0.1379378736,0.0862333998,0.0254644714,0.0224249661,-0.1657585353,-0.0358078144,0.1310540736,-0.1179113761,0.0026440779,0.0779774487,-0.1276318580,-0.1128317788,-0.0340910330,0.1609639674,0.1683257967,-0.1435809880,-0.1701070815,0.1358565390,-0.0684434101,-0.0452123657,0.0649825111,-0.1432461143,-0.1498494148,-0.3046140671,0.0711423680,0.3493220210,0.0980879888,-0.2594853640,-0.0402115509,-0.1423931569,0.0348522663,0.0127903176,0.0533678830,-0.0802596435,-0.0649776533,-0.1189545318,0.0533958152,0.0939121470,0.0582383089,-0.0680449009,0.2741558850,0.0404019281,-0.0132881720,0.0525493659,0.1134480089,-0.0822892487,-0.0435109735,-0.1379690766,-0.0166302267,0.0908596218,-0.0646401420,-0.0248212516,0.1593246162,-0.1512195766,0.2231789827,0.0315854102,0.0621167794,0.0540372618,-0.0062217605,-0.0425170586,-0.0517347679,0.1643538624,-0.2053924352,0.1826610863,0.1856754422,-0.0280536786,0.1802564710,0.0864616930,0.1184446439,-0.0436357483,0.0211932026,-0.1261610389,-0.0683214441,-0.0028301021,-0.0836261362,0.0453729481,0.0674489886
n000928/0127_01,-0.1631382704,0.0905613750,0.1257829368,-0.0021682095,-0.0190320890,-0.0517179631,0.0202302113,-0.0734861940,0.1565534770,-0.0689258501,0.2769707441,0.0243755020,-0.2031572908,-0.0887941197,0.0302909985,0.0751356333,-0.1455267370,-0.0936459228,-0.1106310263,-0.1913966686,-0.0301959161,-0.0038411457,0.0245333873,0.0576270819,-0.0628971979,-0.2983747423,-0.0686200783,-0.1840077043,0.1424983740,-0.1200481728,0.0041769100,0.0055391872,-0.1269873977,-0.0592573509,-0.0412084423,0.0599716455,0.0453014933,-0.0368108079,0.1453054100,-0.0323048569,-0.0928339958,-0.0435085185,-0.0382919200,0.3311141133,0.2351561785,-0.0741691738,0.0601422414,0.0224164743,0.1273176670,-0.1825220883,0.0693305209,0.0433156267,0.2038738579,0.0462930016,0.0314853154,-0.1630730629,-0.0471144617,0.1039581895,-0.1345827579,0.1012517437,0.0822814181,-0.1456297636,-0.1135991961,-0.0034948178,0.2624676526,0.0847573727,-0.1603007168,-0.1799357682,0.1310420483,-0.1492646784,0.0128933415,0.1087743193,-0.1559308022,-0.0590639114,-0.2304578722,0.1366121173,0.4364447296,0.0969210416,-0.2037963569,0.0235289782,-0.2272210717,0.0297566503,-0.0392407961,0.1255685687,-0.0777280107,0.0686552003,-0.1346289814,0.0124013256,0.0818426460,0.0159819350,-0.0777872130,0.2023990303,-0.0209007002,0.0353322849,0.0330248177,-0.0152987344,-0.1213895530,-0.0776653960,-0.0608059466,-0.1061626524,0.0085580703,-0.0730682611,0.0070502483,0.0339704975,-0.1701333374,0.2244483232,-0.0200574175,0.1049624905,0.0452937521,0.0060634026,0.0055116508,-0.0405148789,0.1843704283,-0.2668148577,0.0859754980,0.1618910581,0.1162085384,0.1713141054,0.0245269667,0.0586161949,-0.0065632807,0.0327639394,-0.1176493466,0.0241300296,-0.0174340494,-0.0640913025,0.0295842830,0.0369118974
n000928/0098_01,-0.0570110418,0.0356107354,0.0910967439,-0.0180127919,-0.0451939143,-0.1023052856,0.0037420969,-0.0334423929,0.1316516101,-0.0350931510,0.2687300444,-0.0073681823,-0.1863545924,-0.0700168014,0.0506669804,0.0732409507,-0.0941279158,-0.1031507850,-0.0667072684,-0.1003453508,0.0172902923,0.0312336516,-0.0108726267,0.0720511526,-0.0920816585,-0.2242083848,-0.0795223340,-0.1725255847,0.0461391211,-0.1405248940,0.0068672877,0.0571688227,-0.1673140377,-0.1076653302,-0.0296520311,0.0215420630,-0.0074969623,-0.0717502907,0.1532302201,0.0244781002,-0.1305041909,-0.0995949581,-0.0034327935,0.2955712676,0.1380182952,-0.0133412462,0.0359863490,0.0099251792,0.0687843263,-0.2141799778,0.0837610811,0.0564765856,0.1444062889,0.0853360742,-0.0440465212,-0.1910683662,0.0153279090,0.0672732070,-0.1992644519,0.1089018881,0.0888551176,-0.1146095544,-0.1232036874,-0.0411169417,0.2622653842,0.1106006429,-0.0783143863,-0.1853746921,0.1421333253,-0.1419013590,-0.0925293863,0.1193519533,-0.1521281004,-0.0896126032,-0.2541952133,0.0610089377,0.3319215477,0.0422583222,-0.1642081887,0.0159907341,-0.2071567029,0.0369656868,-0.0358871408,-0.0004589756,-0.0288743991,0.0660158694,-0.1209324002,-0.0002048258,0.1695317626,-0.0493778363,-0.0561631694,0.1756397933,-0.0239403546,-0.0086898515,0.0584740192,-0.0030478663,-0.0272422787,-0.0058312295,-0.0875955373,-0.0439184196,0.0706111044,-0.1257931441,-0.0133718187,0.0731931254,-0.2303704917,0.1738624424,0.0351096243,0.0296625309,0.0616441332,0.0226728860,-0.1304548234,-0.0930714756,0.2156364024,-0.2260734737,0.1705060601,0.1588259786,0.1373937130,0.1278259903,0.0230218023,0.1067118049,-0.0658708960,-0.0377344675,-0.1787571460,-0.0043046265,0.0490144901,0.0124332812,-0.0062006954,0.0715333149
n000928/0003_01,-0.0930485651,0.0906664729,0.1592280269,-0.0305627286,-0.0047254134,-0.0373599268,-0.0001989026,-0.0928863585,0.1092225313,-0.0544990227,0.2489167452,0.0087016188,-0.2004789263,-0.1128073260,0.0869335905,0.0538325608,-0.1411272436,-0.1062440798,-0.0378709100,-0.1554766595,-0.0182481948,0.0742682368,0.0935073793,-0.0048730308,-0.0828841776,-0.3262782991,-0.1156603247,-0.1894254684,0.1087720320,-0.0240367521,0.0504335798,0.0031822056,-0.1742174029,-0.0267117359,-0.0282272473,0.0150857419,0.0285607353,-0.0299130194,0.1351924539,-0.0417417660,-0.0551395006,-0.1049857736,0.0294268541,0.2646910846,0.1763443649,-0.0204582103,0.0729048476,0.0527339466,0.0572077297,-0.1792728752,0.1002744287,0.0231099520,0.1577467471,0.0531759113,0.0487495959,-0.1705804020,-0.0262319855,0.0404178649,-0.1377628148,0.1039409637,0.0463041365,-0.0693232790,-0.0814739391,0.0422225110,0.2674663067,0.0550851561,-0.0783063099,-0.1933800131,0.1408698261,-0.1551963240,0.0095398724,0.1260443032,-0.1673323661,-0.0313716009,-0.2311604470,0.0806342661,0.3508352339,0.0161677971,-0.1603764743,-0.0006511770,-0.2020223588,0.0350399092,-0.0303619560,0.0017031815,-0.0507067814,0.0391434506,-0.1801668704,0.0037805764,0.1576420367,-0.0942397267,-0.0559454598,0.2099693418,-0.0085254572,0.0073698051,0.0471534282,-0.0018440044,-0.0642144457,-0.0358748995,-0.1001477689,-0.0453190766,0.0077395584,-0.0787118748,-0.0350767076,0.0764110535,-0.2017025203,0.1446007490,0.0057095331,-0.0065478482,0.0151668098,0.0239677001,-0.0928743631,-0.1373920143,0.1861715019,-0.2255340517,0.0766991004,0.1763120443,0.0486186557,0.1741123497,-0.0318547115,0.1128400415,-0.0462348908,0.0067495387,-0.0912468359,-0.0201150626,-0.0139429960,0.0037428732,-0.0717754439,0.0665117502
n000928/0197_01,-0.1043909714,0.0966265500,0.1286601722,-0.0033574200,-0.0544302687,0.0073445658,-0.0204161908,-0.1179181263,0.1303489953,-0.0461920574,0.2346305847,-0.0188766085,-0.2163656503,-0.0294970479,0.0186800603,0.0914597511,-0.0869398192,-0.1268361211,-0.0654231533,-0.1017073020,-0.0097983647,0.0294338521,0.0481481850,0.0614796802,-0.1432809234,-0.2705581188,-0.1099882200,-0.2041661292,0.0838220119,-0.0958639309,0.0044542942,-0.0110318158,-0.1589905769,0.0044283550,-0.0094923805,0.0262648202,0.0423082784,-0.0575862378,0.1760047376,-0.0393080190,-0.1310627609,-0.0357754864,0.0308754127,0.2225408703,0.1195662171,-0.0250463970,0.0685646832,0.0209762026,0.1121083200,-0.1717423797,0.1388060004,0.0265032519,0.2333268672,0.0630922988,0.0146789774,-0.2045263946,-0.0334733874,0.1075158119,-0.1908863336,0.1921421140,0.1044607982,-0.0863825083,-0.1236390620,0.0089275511,0.2488351464,0.1586088538,-0.1662878394,-0.1959194243,0.1144768745,-0.1344824135,0.0033879904,0.1044615880,-0.1577476561,-0.0939545780,-0.2195258737,0.1201664433,0.3832127750,0.0300954543,-0.2281203717,-0.0252703242,-0.1216508821,0.0526759475,-0.0579913408,0.0729619786,-0.0659478307,-0.0018390762,-0.1038813442,0.0052092057,0.1581664383,-0.0459147319,-0.0478683338,0.2120841146,-0.0593086630,0.0480901599,-0.0274783485,0.0537192188,-0.0881416425,-0.0279864650,0.0019786628,0.0366474278,0.0026674541,-0.0530916192,-0.0264258180,0.0303404313,-0.1600119174,0.1722925156,-0.0224159136,0.0332566798,0.0200098567,0.0545031540,-0.1256846040,-0.0674307421,0.1963658333,-0.2798633575,0.1953400373,0.1213072538,0.0446732342,0.1242731139,0.0326563604,0.1055847034,0.0631435663,0.0451280251,-0.1416739672,-0.0546864197,0.0702029616,-0.1130228713,-0.0248578079,0.0547156744
n000928/0033_02,-0.1067642346,0.1682350188,0.1304941624,-0.0187105909,0.0054502031,0.0093385056,0.0290834643,-0.1081389338,0.1416669339,-0.0737263560,0.2572635412,0.0105332620,-0.1663722247,-0.1366697103,0.0389895700,0.1011599749,-0.1234659478,-0.1419765204,-0.0426074788,-0.1068806127,-0.0276585501,0.0230883136,0.0384291373,0.0353455022,-0.0950446874,-0.3310118318,-0.1158536747,-0.1976976246,0.0726530850,-0.0819864720,0.0287021101,-0.0150118442,-0.1793546677,-0.0457455516,-0.0459679216,0.0031114556,0.0746676624,0.0173762552,0.1359262168,-0.0196114071,-0.0755584762,-0.0044991528,0.0183300264,0.3129038215,0.2048662454,-0.0636321232,0.0382838845,0.0372158177,0.0821973830,-0.1599855125,0.0456552953,0.0244655833,0.1699449867,0.0668912604,0.0042023323,-0.0859815702,-0.0113969827,0.0690359920,-0.1813105792,0.1072374880,0.0708790720,-0.1089668423,-0.1325269043,0.0800001249,0.2594825029,0.0687072724,-0.1112238988,-0.1913897097,0.1654963940,-0.1281662881,0.0205222443,0.0608407855,-0.1502353102,-0.0483185798,-0.2134721279,0.1670846492,0.3903914988,0.0600574687,-0.2420496494,0.0253340863,-0.2091039866,0.0693708658,-0.0170737058,0.0325742587,-0.0272245109,-0.0215145461,-0.1496778131,0.0100031067,0.1166058704,-0.0249458719,-0.0296967626,0.2052860558,-0.0220888853,0.0055810902,0.0514864959,0.0422440842,-0.0930376500,-0.0225468166,-0.1112290770,-0.0341518484,0.0015861141,-0.0608038716,-0.0335094780,0.0924312100,-0.1940056384,0.1983913034,0.0006952567,0.0106718475,0.0432619154,0.0679079592,-0.0398777984,-0.1049210429,0.1575030982,-0.2284337133,0.1306934208,0.1521367878,0.0042529055,0.1419395357,-0.0003329692,0.1143848300,-0.0179323535,0.0235962495,-0.1110273674,-0.0533859767,0.0195077695,-0.0522878170,-0.0398046598,0.0216519292
n000928/0029_01,-0.1450781226,0.0984170437,0.1252286583,-0.0318879746,-0.0349445641,-0.0466147251,0.0307876691,-0.1053163484,0.1376208365,-0.1097395197,0.2743943036,-0.0305200741,-0.1516805440,-0.0982035697,0.1195414439,0.0981954187,-0.0769233033,-0.1649848968,-0.1224778369,-0.1272072643,-0.0678545982,0.0016044530,-0.0004997248,0.0260703284,-0.0484580696,-0.3568306863,-0.1061940044,-0.1297080666,0.0632207468,-0.0739017129,0.0018302314,0.0297632292,-0.2065501213,-0.0563788787,0.0005777264,0.0462595001,0.0153123792,-0.0629189163,0.1415684074,-0.0094267474,-0.0658972561,-0.0436564013,0.0252164993,0.2882525325,0.1853239238,-0.0371693857,0.0506011322,0.0172011144,0.0773185939,-0.1603260636,0.0688441843,0.0580530427,0.1820567548,0.0711534098,0.0090697957,-0.1346582323,0.0612492226,0.0395594090,-0.2122311294,0.0907128826,0.0846539289,-0.1230944395,-0.1268210709,0.0484747440,0.3045840561,0.1141650230,-0.0861725286,-0.1881109774,0.1230047271,-0.1190683097,0.0320244655,0.0737155080,-0.2000069320,-0.1028432027,-0.2059794068,0.1093908846,0.4176720977,0.0691026524,-0.2273720205,0.0000307560,-0.1997238696,-0.0099309236,-0.0116028097,0.0600124262,-0.0414369330,-0.0365334414,-0.1542035639,0.0484104492,0.1997503340,-0.0060462644,-0.0649048015,0.1962970644,-0.0032800213,-0.0517840832,0.0069695702,-0.0281421598,-0.0595072322,-0.0672203749,-0.0672522634,-0.0955199301,-0.0270330310,-0.0671897978,-0.0755765066,0.0825534388,-0.2495653927,0.2054588646,0.0021816746,0.0153432116,-0.0104640126,-0.0222255774,-0.0188567266,-0.0776020959,0.1242797524,-0.2258527279,0.0981324092,0.1746358126,0.0951116234,0.1694981307,-0.0538091920,0.0697051063,0.0069907745,0.0174332466,-0.1253352016,-0.0228976067,-0.0131350597,0.0098678889,0.0071325190,0.0645033494
n000928/0466_01,-0.1544518918,0.0755662024,0.1466164440,0.0424528942,-0.0187155586,-0.1248015165,-0.0003390256,-0.1397384405,0.1160143539,-0.0624749772,0.2497756928,-0.0562223345,-0.1340175569,-0.1886143833,0.0962610543,0.1064057797,-0.1180828288,-0.0986721590,-0.0720392764,-0.1291224957,-0.0440347232,0.0034592170,0.0789749473,0.0688590109,-0.1094603911,-0.3069185913,-0.1012545824,-0.2421219945,0.0985361561,-0.0448137298,-0.0339422263,0.0298892092,-0.1598232985,-0.0955259427,0.0119588897,0.0905653909,0.0539452769,-0.0286009815,0.1453242898,-0.0128328986,-0.1170832962,-0.0777655467,-0.0244380049,0.3249855042,0.2316827625,-0.0150128519,0.0512063839,-0.0081408061,0.1317019612,-0.1063898504,0.0540484078,0.0305207185,0.1333234459,0.0316776447,0.0071962900,-0.1447743326,0.0519980267,0.0674447268,-0.2615044415,0.0857211426,0.1346588731,-0.1150833219,-0.1150748134,0.0736147389,0.3466581106,0.1240382344,-0.1375250220,-0.1619958282,0.1704054773,-0.1582107544,0.0489507020,0.1109022126,-0.1694850326,-0.0720749944,-0.2331399322,0.0494985692,0.4250468016,0.0428335518,-0.2269462496,-0.0241032299,-0.2392903268,0.0336049572,0.0472083725,0.1096248180,-0.0385613889,0.0586808920,-0.1402311623,-0.0193382539,0.1313519627,-0.0092335762,-0.0214570463,0.2514691651,-0.0080549233,-0.0332318991,0.0427704006,-0.0468911491,-0.0997149572,-0.0359965116,-0.0809657127,-0.1068570986,0.0409014225,-0.0913948864,0.0324967802,0.0419276282,-0.2290295362,0.1867830306,0.0286803786,0.0843397081,0.0351813473,-0.0573204458,-0.0650611967,-0.0585457273,0.1902780831,-0.2552483082,0.1283631623,0.1263923049,0.1182577685,0.1548738927,0.0091941683,0.0820155069,-0.0377510861,-0.0307459570,-0.1186290309,0.0385683589,0.0134962555,-0.0611791424,0.0621561185,0.0490108915
n000928/0296_01,-0.0731779411,0.0582938641,0.0565084331,-0.0346365497,-0.1019424275,-0.0586168393,0.0204196423,-0.0873448849,0.1221139431,-0.0355836451,0.2270877659,0.0139516778,-0.2095616609,-0.1206743419,0.0429271348,0.0612679198,-0.1018023640,-0.0749432370,-0.1974696070,-0.0928048044,0.0108493278,0.0310879443,-0.0057787895,-0.0165420156,-0.1315217167,-0.2524235249,-0.0972847641,-0.1481037289,0.0892128721,-0.1432140768,0.0491163991,0.0009260758,-0.1977823675,-0.0960237160,-0.0414485000,0.0279786866,-0.0787343904,-0.1049757674,0.1591069698,-0.0672728419,-0.1383704096,-0.0575742312,0.0042905714,0.1915192008,0.2000315487,-0.0009600302,-0.0027016532,-0.0201589316,0.1056119651,-0.2790123224,0.0577799194,0.0958690941,0.1081903875,0.1101532280,0.0974146873,-0.1548629403,0.0702373460,0.1310001016,-0.2225693166,0.0620750748,0.0380480811,-0.0941196978,-0.1341330856,-0.0678677037,0.1969047636,0.1004969105,-0.0653465167,-0.1332799345,0.1987922490,-0.1875644326,-0.0216667950,0.0993828848,-0.0945407748,-0.1814182252,-0.2483794838,0.0878066942,0.3511584997,0.1981866807,-0.2251531780,-0.0093109906,-0.1186152920,0.0303586088,0.0433005132,-0.0599102825,-0.0637491196,-0.0184853375,-0.1109710038,0.0114538614,0.1679767817,-0.0552079156,0.0125185680,0.2651026845,0.0189137068,-0.0221563373,0.0495890900,-0.0609483682,-0.0281147957,-0.0129015204,-0.0586303174,0.0301860534,0.1904751807,-0.1678011119,0.0145122558,0.0871736854,-0.1393656433,0.1894772202,0.0076718233,0.0280043744,0.0666634217,-0.0599917173,-0.1201437935,-0.0503020994,0.2573806643,-0.2303487360,0.2606760561,0.1715756357,-0.0154588213,0.1241310313,0.0334472656,0.1396101713,-0.0631970242,-0.0233742855,-0.1916463524,-0.0586729720,0.0621570945,-0.0752386600,-0.0283563193,0.0436729938
n000928/0089_01,-0.1540552080,0.1345610470,0.0980243906,-0.0268006027,-0.0600373596,-0.0606679693,-0.0471917503,-0.0836711153,0.0831891447,-0.0636520684,0.3346425295,-0.0670172125,-0.1340852082,-0.1480878145,-0.0202022232,0.0932221413,-0.1734159887,-0.0606960356,-0.0616952181,-0.1196391806,-0.0515855737,-0.0476371013,0.0074838977,0.1032574475,-0.1450309902,-0.3303395808,-0.1045655236,-0.1598020643,0.0496611595,-0.1544289887,0.0056978972,0.0385394096,-0.1895629466,-0.0681492388,-0.0443610437,0.0211211853,0.0267443173,-0.0093802093,0.0983553603,0.0263377689,-0.0378854461,-0.0165829267,-0.0076699685,0.3550064266,0.2269045264,-0.0072228853,0.0526680872,0.0483245067,0.0792945921,-0.1581559926,0.0119693642,0.1005817354,0.1327830106,0.0538910851,-0.0016407417,-0.0720965862,-0.0182146728,0.0575441569,-0.1465627104,0.0906343982,0.0426335745,-0.0617547520,-0.0664743930,0.0236498825,0.2900986969,0.1364161819,-0.1246092767,-0.1775300056,0.1792128682,-0.1447079033,-0.0073210914,0.0609685443,-0.1475487500,-0.1025856733,-0.2410099208,0.1276690215,0.3831797838,0.1253336817,-0.2021601498,-0.0293018594,-0.2353537381,-0.0272045806,-0.0512919948,0.0534352176,-0.0631655827,0.0092907716,-0.1097106189,0.0388007388,0.1614551246,0.0114054866,-0.0573296547,0.2185167670,-0.0172790866,-0.0549018383,0.0471510887,-0.0432222299,-0.1380978674,-0.0269687697,-0.0598206073,-0.0566169731,0.0015999014,-0.0978573710,-0.0169093497,0.0981717110,-0.1748156697,0.2020391673,-0.0031671457,0.0185255259,-0.0217226576,0.0770700574,-0.0953133926,-0.0769758224,0.1654664874,-0.2338846326,0.1651771218,0.1602258831,0.1460745186,0.1239283532,0.0525594354,0.0600057803,-0.0069832690,0.0262102839,0.0009061586,-0.0608351417,-0.0339872092,-0.0751595125,0.0322671942,-0.0011381879
n000928/0030_01,-0.1473802924,0.0834810287,0.1285013109,0.0193204675,-0.0126326540,-0.0246764589,-0.0295304246,-0.1187014952,0.0928819925,-0.1124952734,0.2487626076,-0.0001575602,-0.1593943536,-0.0776755959,0.0224807225,0.1209625527,-0.1039617583,-0.1188019812,-0.1310635656,-0.1078060865,-0.0347798020,0.0171581842,0.0231027063,0.0381158628,-0.0903384387,-0.3089174330,-0.1237036139,-0.1966160685,0.0377914011,-0.0613551661,-0.0248763263,-0.0581274889,-0.1918114573,-0.0136681031,-0.0609012544,0.0049105249,0.0628162399,-0.0392836705,0.1571114808,-0.0164671894,-0.0733363926,0.0009136768,0.0264782961,0.2788199186,0.1554416567,-0.0527908206,0.0501847789,0.0625436679,0.0490292311,-0.2136715353,0.0691582933,0.0199298467,0.1638604105,0.0987345278,0.0139849717,-0.1240611225,0.0247680787,0.0559241623,-0.1576988548,0.1285217404,0.0916384459,-0.0646609291,-0.1170803979,0.0560366362,0.3503968418,0.1405087262,-0.1517726332,-0.1377379447,0.1125481278,-0.1399211437,0.0498171262,0.0228821598,-0.1631820947,-0.1012005061,-0.2260184884,0.1851411909,0.4150441587,0.1059965640,-0.2623749375,-0.0089155259,-0.1968569010,0.0227009282,0.0040679090,0.0472699553,-0.0335332379,0.0366037525,-0.1219270229,0.0512810014,0.1696472764,-0.0090070181,-0.0056863530,0.2622881830,0.0157935657,-0.0328899287,0.0268723592,0.0040864120,-0.0494765081,-0.0984435007,-0.0676516071,0.0440488867,-0.0047430778,-0.0524633229,-0.0362612493,0.0521439128,-0.1478788406,0.1634744704,-0.0203147773,-0.0194530450,-0.0010105968,0.0587136634,-0.1036108583,-0.1155705377,0.1524085701,-0.2032328397,0.1156877652,0.1477892101,0.0792482942,0.1387858987,0.0006994260,0.1170950904,-0.0146987420,0.0724907070,-0.1161501557,-0.0376359224,0.0445794128,-0.0617946535,-0.0130705656,0.0641112402
n000928/0038_01,-0.1384603083,0.1049370393,0.1167024821,-0.0271627270,-0.0473449975,-0.0425160937,0.0407130346,-0.1114416048,0.1686896384,-0.0961757377,0.2470004559,-0.0336808264,-0.1749878824,-0.1246824637,0.0768580958,0.1332083344,-0.2074476331,-0.1161667556,-0.0947803855,-0.1262543947,-0.0353726782,0.0537294522,0.0371760316,0.0582089052,-0.0374841131,-0.3089943230,-0.1079842746,-0.2067744732,0.0597982705,-0.0986961126,-0.0144731738,-0.0201597661,-0.1622593552,-0.0334699899,-0.0636339188,0.0154454410,0.0050347270,-0.0992646739,0.1372209638,-0.0169906244,-0.0854030252,-0.0639968812,0.0100401007,0.2631482780,0.2096141130,-0.0678394809,0.0220442154,0.0226109885,0.0714671910,-0.1891413480,0.0735785812,0.0500807501,0.1191544011,0.0978664085,-0.0272479374,-0.1644368321,-0.0160373747,0.0756794661,-0.1771699488,0.0524533130,0.0920139849,-0.0961472616,-0.1151047498,0.0760963783,0.2953022122,0.1544983387,-0.1296334416,-0.1711727083,0.0907140151,-0.1801610589,-0.0039838045,0.0485706292,-0.1739343852,-0.0863948986,-0.2089909464,0.1259503067,0.4287859499,0.0260650851,-0.1979226023,-0.0509465896,-0.2090577781,-0.0085382611,-0.0011481234,0.1275624484,-0.0443448499,0.0104474714,-0.1430211365,0.0351668075,0.1195149794,-0.0423157141,-0.0203746017,0.2597390413,0.0215277746,-0.0431444161,0.0272907019,-0.0062910146,-0.0071871057,-0.0312176272,-0.0370622873,-0.0201930851,-0.0017391806,-0.0983852148,-0.0788184628,0.0523919389,-0.1968587488,0.1858750582,0.0409365371,-0.0035485411,0.0059888931,-0.0542787760,-0.0274464302,-0.0965443105,0.1727793068,-0.2206086963,0.0835214779,0.1730745435,0.0770696104,0.2172405869,-0.0723552629,0.1508582383,-0.0284991544,-0.0065588886,-0.1198444963,0.0346031785,0.0207526647,0.0229099579,-0.0344358161,0.0572405420
n000928/0273_02,-0.1171159670,0.0738972649,0.0829561129,0.0005338006,-0.0475067608,-0.0590353087,-0.0020023957,-0.0344987735,0.1164046004,-0.0296272691,0.2306530178,-0.0416872464,-0.1729610413,-0.0451291986,-0.0381623842,0.0727790743,-0.1375142485,-0.0856060684,-0.0544523522,-0.1207461804,0.0369718261,-0.0125900097,0.0059383996,0.1030828431,-0.1695352197,-0.2484817505,-0.0303594060,-0.2380532473,0.0580072477,-0.1888418198,0.0182446670,0.0569992848,-0.1412845999,-0.0248869136,-0.0726617426,0.0442620069,0.0544250496,-0.0350134559,0.1924657822,0.0005677072,-0.1025938764,-0.0816947594,0.0136385988,0.3240259290,0.1221961081,0.0106114522,0.0675962567,0.0425051451,0.0776616856,-0.1972299516,0.0505968258,0.0688822865,0.1530411690,0.0646948442,0.0161340013,-0.2038849443,-0.0070831496,0.0710872635,-0.1851676404,0.1745115519,0.0727436095,-0.0429554209,-0.0740636215,-0.0405030996,0.2967495918,0.0562230945,-0.1396936327,-0.0810965151,0.1756420732,-0.1523862928,-0.0251817703,0.0997276157,-0.1128771901,-0.1649830490,-0.1994695067,0.1086345240,0.3183042705,0.1721530408,-0.1939619929,-0.0127391061,-0.1763542145,-0.0084566195,-0.0222671553,0.0515943095,-0.0509557128,0.0769908950,-0.1032465026,0.0067351274,0.1436980963,0.0124071036,-0.0079827690,0.2086880058,-0.0046342481,-0.0547543839,-0.0303330850,-0.0331047401,-0.1213034540,0.0145775042,-0.0619153827,-0.0038442751,0.0251046252,-0.1148680896,-0.0063850861,0.0628733411,-0.2003833205,0.1394268274,-0.0157290548,-0.0229731835,-0.0277998373,0.0803369954,-0.1406773031,-0.0747289062,0.2255297452,-0.2517361343,0.1328110993,0.2037020773,0.1345828921,0.1444191784,0.0515547469,0.1006726176,0.0270646159,0.0008483389,-0.1460831910,-0.0309811067,0.0491537787,-0.0939071625,-0.0090442225,0.0548302382
n000928/0104_01,-0.1770171970,0.1083012372,0.1635092348,0.0389633216,0.0202850960,-0.0473500825,-0.0297595076,-0.0933073238,0.1240699291,-0.1022562236,0.2429906875,-0.0089891776,-0.1504535526,-0.0940491185,0.1004804447,0.0830312967,-0.1662799120,-0.1004892439,-0.1396692991,-0.1409962773,-0.0829638392,0.0745886192,0.0334735624,0.0382885858,-0.0977838561,-0.2351271063,-0.0777942613,-0.1888830662,0.0865541920,-0.0747283772,-0.0670666248,-0.0565023310,-0.2093151510,-0.0645178035,-0.0365528464,0.0681434795,0.0271761045,-0.0065489127,0.1178169996,0.0053998642,-0.0733450726,-0.0732207969,-0.0043123867,0.2796121538,0.2169211805,-0.0210925043,-0.0065921303,-0.0024007149,0.0888156816,-0.1447449923,0.0743686110,0.0627807379,0.1777967811,0.0826500580,-0.0119244838,-0.1858584881,-0.0395672470,0.0717437938,-0.1074249968,0.1076654270,0.1078045517,-0.0841341913,-0.1229381710,0.0437399819,0.3118920624,0.0847637728,-0.1489239335,-0.1822364777,0.1258200705,-0.1100674942,0.0120164547,0.1382669210,-0.1517632306,-0.0776755512,-0.2521514297,0.0979712903,0.4143311977,0.0096144360,-0.2071613669,-0.0334527902,-0.2483637035,-0.0045601935,-0.0301440246,0.1108333021,-0.0593777038,0.0649449304,-0.1057619005,0.0382958539,0.1359920502,0.0081324168,-0.0363708586,0.1849723011,-0.0015802346,-0.0163908694,0.0145247914,-0.0360108204,-0.0527659282,-0.0921458080,-0.0906788111,-0.0803076625,-0.0123371547,-0.0605789125,-0.0429536961,0.0638738722,-0.1626114994,0.1804298759,0.0694809332,0.0323769301,0.0376382023,0.0135630481,-0.0784420148,-0.0987814516,0.1909174621,-0.2556819320,0.0842948109,0.1410892606,0.0963476300,0.1487548947,0.0049354737,0.1420237869,-0.0444556065,0.0700443238,-0.1347737312,0.0075933826,0.0117751099,-0.0265646875,0.0354674831,0.0611870363
n000928/0239_03,-0.1188352108,0.1468225569,0.0742145255,-0.0300196800,-0.0825311989,0.0294255614,0.0024905121,-0.0589658245,0.1442847699,-0.0748827457,0.1948007345,-0.0388569273,-0.2663573921,-0.0556629375,-0.0166347474,0.1481263041,-0.1560674310,-0.1641834974,-0.1114211753,-0.1101028472,0.0134211890,0.0776526779,-0.0527850874,0.0493419319,-0.1184373125,-0.3083324730,-0.0258916616,-0.0863739327,0.0217069481,-0.0903410986,0.0755804703,0.0136162024,-0.2107913047,-0.0168046504,0.0172172319,0.0518411249,-0.0094617195,-0.0743176341,0.1751807928,-0.0372783318,-0.1708909422,-0.0155647174,0.0872433260,0.2918861806,0.1233728454,-0.0206447542,-0.0099730249,-0.0346135274,0.1529161334,-0.2729191780,0.0166950040,0.1461689174,0.1279746145,0.0973876491,0.0790618137,-0.1948006004,0.0668434426,0.1453057975,-0.1877233833,0.0815823153,0.0689841658,-0.0793310478,-0.0556975193,-0.0559691563,0.1652786732,0.0412694588,-0.1049753129,-0.1991541386,0.0911405534,-0.1642324775,-0.0169152729,0.1271650046,-0.0638248250,-0.1887103766,-0.2616730034,0.1069925278,0.4216982424,0.1967311203,-0.2168436199,0.0353100374,-0.0460935980,0.0405533426,0.0905786157,0.0349260792,-0.0868551508,-0.0157384463,-0.1435739100,0.0082420893,0.1715828925,0.0239749569,-0.0302339569,0.2349666655,0.0164759960,-0.0228839051,0.0247850642,0.0253786463,-0.1077095270,0.0270691663,-0.0709895268,0.0192210861,0.0662826300,-0.1156526729,0.0073443223,0.0578174591,-0.1859472543,0.1912024766,-0.0211463030,0.0357484408,0.0064945566,0.0747991949,-0.1056667119,-0.0104522547,0.1703231037,-0.2986006737,0.1879697740,0.1527332962,-0.0359387286,0.1791359633,0.0795618519,0.1374268979,-0.0313582122,-0.0103702797,-0.1282667965,-0.1337711513,0.0513752215,-0.0534981936,0.0398638360,0.0171734728
n000928/0321_01,-0.1188282222,0.0640956163,0.1488327682,-0.0140334498,-0.0401608013,-0.0571458787,-0.0441271439,-0.0371366814,0.1050873250,-0.0244775303,0.1949544996,-0.0401658565,-0.1617532670,-0.0641179904,-0.0013998300,0.0906506181,-0.1168920696,-0.0677555203,-0.0541972741,-0.1169208288,0.0551937260,0.0639159605,-0.0129601546,0.0679892078,-0.1134964451,-0.2865186930,-0.0013251202,-0.1413692236,0.0416243002,-0.0978883356,0.0152010657,0.0512392260,-0.1578856558,-0.0100428704,-0.0337232277,0.0952003822,0.0503752865,-0.0365276784,0.1096241102,-0.0434517264,-0.1398927718,-0.0607200265,0.0170808341,0.2605015934,0.1489664763,0.0013945778,0.0390666351,0.0160510316,0.0817866623,-0.1994891763,0.0456321016,0.1008034423,0.0836068988,0.0671549216,0.0407331549,-0.1657702625,-0.0119041447,0.0609608963,-0.1089584455,0.0839717612,0.0609002486,-0.0770765245,-0.0549409948,-0.0741389841,0.2480160445,0.0412011109,-0.1277734041,-0.1092772558,0.0962370709,-0.1207010299,-0.0679907799,0.0527039915,-0.1327184737,-0.0814136267,-0.2776900828,0.0946481377,0.3807735145,0.1083931699,-0.2092775553,0.0464215986,-0.1631868929,0.0456528515,0.0128508853,0.0658461228,-0.0386770330,0.0772665814,-0.0869318172,0.0274580512,0.1209735796,-0.0009862566,-0.0160841830,0.1808137149,-0.0144922789,0.0053012539,-0.0180712380,-0.0109526552,-0.0772930309,0.0091773234,-0.0485860296,-0.0261897147,0.0859949365,-0.0748402774,0.0469660833,0.1017660648,-0.2268573493,0.1730644405,0.0183224417,0.0507637188,0.0959521085,0.1219086200,-0.0902306437,-0.0787917823,0.1697956026,-0.2264069915,0.1508587152,0.1665959656,0.0931830332,0.1576430947,0.0438957587,0.1431696266,-0.0208528414,0.0313913599,-0.1058594212,-0.0349807963,0.0255141482,-0.0134843439,-0.0006794622,0.0870330036
