n001291/0106_02,-0.0709904730,0.1273490041,0.1209027171,-0.0814784765,-0.1236284971,-0.0490403958,-0.0238471478,-0.1981182545,0.2492637932,-0.1346181184,0.1397021711,-0.0543367937,-0.2848406434,0.0468621068,-0.0606125183,0.1482350975,-0.1798897088,-0.1583942920,-0.1104721949,-0.0843507051,0.0868022963,0.0126862209,0.0398542099,0.1377924085,-0.1247554198,-0.3419989944,-0.0618798733,-0.0959783345,-0.0187774803,-0.1394224465,0.1104914770,0.0586712584,-0.1831531525,-0.0080691557,-0.0579055101,0.0316932835,0.0048184860,-0.2020456046,0.1284598261,-0.0353678763,-0.2783676386,-0.0333039910,0.0085528344,0.2304625511,0.2529209852,-0.0188977942,0.0353170335,-0.1006535068,0.1781785637,-0.3458578885,-0.0853813365,0.1251400709,-0.0795905367,-0.0266613439,0.1131769419,-0.1933958679,0.0478994399,0.0162870251,-0.1828306764,0.0547229350,0.1553691179,-0.1165193841,-0.0298258215,-0.1149614677,0.1934730113,0.0593144596,-0.1796521842,-0.0703962296,0.1420533210,-0.2230122983,-0.0107830409,0.0845442265,-0.1303603649,-0.1930978149,-0.2878235281,-0.0433474854,0.5496301055,0.1667555571,-0.1329445243,0.0478847362,-0.1282705665,0.1024106443,0.0180805530,0.1590550691,-0.0079469588,0.0200539213,-0.1277796328,0.0677101910,0.2003631443,0.0210051946,-0.0404904559,0.3529675901,-0.0440199934,-0.0025230888,-0.0098487940,0.0832371265,-0.1737603992,-0.0144384122,-0.1109471917,0.0335389450,0.0418665782,-0.0038322993,0.0088522062,0.0982013568,-0.1549459845,0.1985357106,-0.0555478632,0.0494576953,0.0066839093,-0.0247170217,-0.1366107464,0.0249512326,0.2005651742,-0.2471105903,0.1061962023,0.1638993025,0.0663238391,0.1138892248,0.0373064205,0.0668119192,-0.0177890807,-0.0206226148,-0.1777494252,-0.0784848928,0.0037555345,-0.1063254476,0.0336173251,0.0003247387
n001291/0224_01,-0.1174476668,0.1549548209,0.0159764756,-0.0633489043,-0.1480728984,-0.0367010608,-0.0344653167,-0.1114424542,0.2449247092,-0.0981499553,0.1073086709,-0.0458522663,-0.2683377862,0.0084466748,-0.1912905574,0.1980144382,-0.2388685495,-0.1549710184,-0.0629130378,-0.0266379789,0.0999646932,0.0846832320,0.0005980862,0.1530962586,-0.1124714687,-0.3702656627,-0.0536360480,-0.0916632116,0.0036226986,-0.1119234040,0.0913165361,0.0598647445,-0.1835788935,0.0043576546,0.0035507726,0.0740967542,-0.0115174484,-0.1320473254,0.1088993251,0.0373524427,-0.2399065495,-0.0480138361,0.0289527997,0.3432866931,0.2429856658,-0.0422509722,0.0415881202,-0.1447143406,0.1021074429,-0.3372964263,-0.0640451238,0.1767886579,-0.0855313316,0.0350133330,0.0990335494,-0.1884116083,0.0554129556,0.0974250808,-0.1957790256,0.0603051968,0.0708342046,-0.0825680867,-0.0368910320,-0.0259044599,0.1808037907,0.0729978457,-0.1158879176,-0.1761271060,0.2291506976,-0.2618271112,0.0036797742,0.0903671458,-0.0699231699,-0.2081653923,-0.2514455914,-0.0468116328,0.4967616796,0.2316105664,-0.1264971644,0.0985801816,-0.1211528704,0.0568242110,0.0626209974,0.1495077759,-0.0164295882,0.0134838885,-0.1869532466,0.1024695784,0.1532029063,-0.0030878689,-0.0006147872,0.3194065094,0.0098307943,-0.0933870599,0.0552401878,0.0791739523,-0.2172954679,0.0286074765,-0.1271165460,-0.0890591368,0.1175647676,-0.0128334425,0.0395640731,0.1306014359,-0.1213137060,0.1786195636,-0.0489221923,-0.0007734345,0.0109753730,-0.0493274778,-0.0667898431,0.0107012223,0.2038983554,-0.1815985739,0.1890307814,0.1112420633,0.0260078926,0.1675293595,0.0364160091,0.0932541490,-0.0359692946,-0.1102403700,-0.1200427413,-0.0477940217,-0.0539489463,-0.0748308524,0.0286728218,-0.0397798754
n001291/0323_01,-0.1053835377,0.1199492291,0.0694369599,-0.0433171727,-0.1337854713,-0.0592493899,-0.0620168746,-0.1560738534,0.2251023650,-0.1005915105,0.0901766568,-0.0199004374,-0.3187735975,0.0627867952,-0.1541984230,0.1514834613,-0.1628615707,-0.1308212280,-0.1187246293,-0.1140875742,-0.0082727941,0.0935566127,0.0966037735,0.1381842345,-0.1106511950,-0.3223311305,-0.0068300962,-0.0912260488,-0.0405172817,-0.1250596792,0.1154264286,0.0949635357,-0.2178872973,0.0315996557,0.0205547176,0.1152500138,0.0243894141,-0.0884708390,0.1259645820,-0.0210227687,-0.2429177165,-0.0631299466,-0.0150162596,0.3197330534,0.2663165629,-0.0304236282,0.0002889056,-0.1386293173,0.1585541368,-0.3164978027,-0.0339615308,0.1340027601,-0.0289368927,-0.0550671667,0.0943436474,-0.1675669551,0.0650523454,0.1150338054,-0.1796457171,0.0480028950,0.1310158819,-0.1092597395,-0.0201591700,-0.0449406765,0.2898688018,0.0363167077,-0.2143522203,-0.0873090476,0.1540869474,-0.2517314553,0.0384009778,0.1254025400,-0.0783210546,-0.1988172978,-0.2864794433,-0.0199028291,0.5025017858,0.1598425955,-0.1625909656,0.0771081150,-0.1157637388,0.0955084562,0.0370426103,0.1877970397,-0.0781982318,0.0293395557,-0.1359435618,0.0727705508,0.2097330838,0.0255405344,-0.0799624249,0.3239060044,-0.0397930145,-0.0478117839,0.0187899731,0.0425767228,-0.1872902960,-0.0441068746,-0.1282169223,-0.0188350491,0.0512985662,-0.0046843896,0.0085590389,0.0944973603,-0.1291289330,0.1670178771,-0.0871032774,0.0183221400,0.0352174677,-0.0618081801,-0.1092070937,-0.0242582597,0.2244748622,-0.2913680077,0.1923438609,0.0913051218,0.0646723062,0.1529080123,0.0309302472,0.0685386956,0.0063788043,-0.0121029913,-0.0970229059,-0.0629234239,0.0504632145,-0.1575737447,0.1174425632,-0.0371608548
n001291/0231_01,-0.0662752986,0.0947170183,0.1281296909,-0.0531158447,-0.1734149009,-0.0480172224,-0.0707114041,-0.1499348581,0.2397845685,-0.1622632444,0.1218886524,-0.0487290174,-0.3346444964,0.0511745550,-0.1308705658,0.2100831270,-0.1408610940,-0.1429980397,-0.1496586651,-0.0620427243,0.0783247128,0.0468691215,0.0709947720,0.1324359477,-0.0824665129,-0.4398614466,-0.0372439697,-0.0548252016,-0.0646845922,-0.1349587590,0.0673914403,0.0568105057,-0.2084732503,-0.0046261773,-0.0166768357,0.0829095244,-0.0507248342,-0.1608135253,0.1498542577,0.0206027217,-0.3000419438,-0.0681435540,0.0118381120,0.2714566886,0.2400338501,0.0124326786,0.0680276528,-0.1552855670,0.1469707489,-0.3705535829,-0.0199357178,0.1639634669,-0.0450986661,0.0021394230,0.1257767379,-0.1447608620,0.0446544513,0.0730687231,-0.2027592957,0.0732472166,0.1612702608,-0.1093052179,-0.0686016902,-0.0995996669,0.2677289546,0.1020742506,-0.1849238873,-0.0875124186,0.1940243542,-0.2385722101,-0.0092025846,0.0623144917,-0.1162415594,-0.2374310344,-0.2872332335,-0.0410088375,0.5371013880,0.2040907890,-0.1747551709,0.0154212592,-0.1210998371,0.0878510922,0.0590745583,0.1892320663,0.0012037642,0.0519681983,-0.1039987952,0.1254679263,0.2003171742,-0.0362328105,-0.0461998619,0.3607124984,0.0100877061,-0.0368843079,0.0096286852,0.0632846057,-0.1801763624,-0.0165713783,-0.1997251213,-0.0239996463,0.0833754316,0.0478826538,0.0454154089,0.0459894538,-0.1033120975,0.1784580946,-0.0623935908,-0.0136806229,0.0361014344,-0.0593832545,-0.1910074055,-0.0475671142,0.2065079212,-0.2135512233,0.1811635047,0.1372001469,0.0877627358,0.1351407766,0.0629734173,0.0921485573,0.0347285122,-0.0875527114,-0.1214140728,-0.0660325289,0.0475800894,-0.0634734482,0.0782381967,-0.0339727663
n001291/0521_01,-0.1320116967,0.1057977676,0.0482205153,-0.0875557363,-0.1060687453,-0.0201875009,-0.0103539228,-0.1647972763,0.2426131666,-0.1541573703,0.1783214658,-0.0327653103,-0.2904627025,0.0083239581,-0.1324633360,0.2119076401,-0.2328066826,-0.1609707177,-0.1275116652,-0.0793754607,0.0099334680,0.0587016977,0.1028043032,0.1471367627,-0.1576005518,-0.4292872548,-0.0800795630,-0.0797017068,0.0039108191,-0.1395003796,0.0836877897,0.0525037348,-0.2400792092,0.0604651123,-0.0172382183,0.1246467754,-0.0595971532,-0.1249475181,0.1628745943,0.0136712976,-0.2257654369,-0.0548502281,0.0601850301,0.2984625101,0.2456685007,-0.0355900191,0.0617162809,-0.1556572467,0.1035860181,-0.2840197086,0.0313589498,0.1375961304,-0.0472516865,0.0710798204,0.0703588277,-0.1416530758,0.0142129119,0.1252412349,-0.1789953858,0.0616762862,0.0968176350,-0.0600109324,-0.0445299558,-0.0046332288,0.2425848395,0.1146084145,-0.1762772799,-0.1145456582,0.2190186977,-0.2486350238,0.0310929473,0.0661114901,-0.0911632478,-0.2228619307,-0.2440826595,-0.0230090637,0.4988882840,0.1411756575,-0.1203328967,0.0481368452,-0.1223653480,0.0056628305,0.0426388755,0.1568056047,-0.0562102832,0.0158994179,-0.1280206740,0.1658304632,0.2312722206,0.0048940871,-0.0361855328,0.3018061221,-0.0023062062,-0.0785254911,0.0652636215,0.1054453477,-0.1897430569,0.0011287141,-0.1597864628,-0.0320469514,0.0275450051,-0.0180051923,-0.0189471394,0.0345953405,-0.1045920551,0.2384432405,0.0140402131,-0.0426682271,0.0165774003,-0.0203141440,-0.1435177326,-0.0468074568,0.1933768690,-0.2504513562,0.2365216911,0.1257449389,0.0514891930,0.2081253380,0.0354265682,0.1349254251,-0.0001529390,-0.0632947236,-0.0830154493,-0.0415140018,0.0232615191,-0.0585669503,0.1144732684,-0.0195595752
n001291/0239_01,-0.0566271320,0.1005743966,0.0932357535,-0.0871929154,-0.1000027433,-0.0379740894,-0.0759680271,-0.1590418518,0.2410506755,-0.1156548709,0.1161444336,-0.0650461689,-0.3335806131,0.0285311006,-0.1445659548,0.1512113959,-0.1688259244,-0.1137534231,-0.1019578725,-0.0870349109,0.0800313801,0.0616282746,0.0330552235,0.1868992597,-0.1251619160,-0.3198256493,-0.0472962223,-0.0842676610,-0.0745197460,-0.1992178708,0.0842775181,0.0627631247,-0.1769784540,0.0325023197,-0.0614009500,0.0609412640,-0.0423637182,-0.1442758888,0.1465620100,0.0470197983,-0.2436846942,-0.0602141581,-0.0153686367,0.2427047789,0.2827653289,-0.0051642749,0.0290608536,-0.1226543859,0.1842117161,-0.3495883942,-0.0828416720,0.1825735867,-0.0987300947,0.0104532121,0.1279667318,-0.2313162386,0.0224361178,0.0738981962,-0.1453872621,0.0531838313,0.0876671523,-0.1480170339,-0.0216274839,-0.0501444899,0.1883055121,0.0758373216,-0.1499002725,-0.1183195934,0.1887749732,-0.2821079791,0.0023335796,0.1349897832,-0.0810415298,-0.1890503317,-0.2639811933,-0.0344748124,0.4904119074,0.1812120825,-0.1362143159,0.0661409795,-0.0920118988,0.0784978420,0.0685930774,0.1903329045,-0.0197103471,0.0485496446,-0.1218422949,0.0481304154,0.1353283525,0.0372881368,0.0011455629,0.3496551216,-0.0196345914,0.0249151811,0.0645302013,0.0279322658,-0.2048342228,0.0045031523,-0.0849935785,0.0223243982,0.0228799190,0.0038896604,0.0603219010,0.0601656474,-0.0634982139,0.1912999004,-0.0757517517,0.0252734050,-0.0217421874,-0.0289725810,-0.0966628045,-0.0038712630,0.2050459683,-0.2749246955,0.1142019555,0.0947481021,0.0250527170,0.1324049383,0.0296863299,0.1525860876,-0.0400540940,-0.0254995339,-0.1289853752,-0.0181444753,-0.0136682829,-0.1028535962,0.0372547731,-0.0577322096
n001291/0322_01,-0.1384872496,0.0981584340,0.1449213177,-0.1118065789,-0.1292523593,-0.0401232317,-0.0617272891,-0.1869810969,0.2443503588,-0.0741078109,0.1341330707,-0.0782745481,-0.2677202821,0.0714902878,-0.2075494528,0.1475207061,-0.1965322644,-0.1700902283,-0.0151837626,-0.0496346205,0.0123936953,0.0365625992,0.0413941965,0.1337069869,-0.1403751969,-0.3510531187,-0.0570813268,-0.1075699404,-0.0336309448,-0.0870600864,0.1100592613,0.0659456998,-0.2615852058,0.0266313925,0.0288514309,0.1398468614,0.0027677368,-0.0950262025,0.2019920647,0.0343338810,-0.2282504886,-0.0440946557,0.0302035175,0.2830580175,0.2387178391,-0.0063326475,0.0369089842,-0.1583200395,0.1601958722,-0.2978576124,0.0077912882,0.1878297180,0.0322982036,-0.0193098951,0.1089801937,-0.1917054802,0.0593489520,0.0894516408,-0.1392922848,0.1097213849,0.1931891888,-0.0998347998,-0.0124633173,-0.0745624006,0.2478085607,0.0354980603,-0.1602681577,-0.1075631604,0.2320023626,-0.1772496998,0.0093299784,0.1039176807,-0.0684456602,-0.1800714880,-0.2241516113,-0.0114442036,0.5356935859,0.1961149573,-0.2008749545,0.0737625733,-0.1629297435,0.0689430386,0.0074317148,0.1507290155,-0.0499268025,0.0525190830,-0.1280483007,0.0254264027,0.1941657960,0.0525706187,0.0149130514,0.2876075804,-0.0495076291,-0.0090350294,0.0212655067,-0.0055903671,-0.2246477008,0.0184656344,-0.1232048422,-0.0491738394,-0.0018420788,0.0117863715,0.0578950532,0.1075652689,-0.1988189816,0.2018559873,-0.0890847743,-0.0312083010,-0.0064025316,-0.0152573753,-0.0558190495,0.0255352184,0.2301109433,-0.2931441367,0.1859216243,0.0675958842,0.0298077352,0.1689976603,0.0710659251,0.1248223782,-0.0015796088,-0.0141543262,-0.1199926883,-0.0806367397,-0.0279086828,-0.1402305812,0.1133223996,0.0058534746
n001291/0102_01,-0.1305760890,0.1511298269,0.1191075668,-0.0776092857,-0.1637479216,-0.0089008678,-0.1039506048,-0.1813283414,0.2402613908,-0.1079156026,0.0884398818,0.0023460826,-0.2862139344,0.0922357887,-0.1703417748,0.1478240788,-0.2364268452,-0.1453907043,-0.0593144335,-0.0572051927,0.0329793803,0.0978416279,0.0873899534,0.1049720198,-0.1130780280,-0.4427066445,-0.0715175346,-0.0820848048,0.0233885739,-0.0759519935,0.1339297593,0.0794239715,-0.2165234536,0.0553563237,-0.0262644924,0.0577088520,-0.0007212055,-0.1476287246,0.1171716005,-0.0040713679,-0.2547526956,-0.0926791504,0.0191792548,0.2885997295,0.2804463804,-0.0508802980,0.0460442752,-0.1175817251,0.1596236229,-0.3499170244,-0.0063710939,0.1641094685,-0.0566119738,0.0221016333,0.1296987236,-0.1684229374,0.0469110981,0.0690439269,-0.1483672410,0.0740255564,0.1025415659,-0.0337307788,0.0126603022,-0.0485725105,0.2297605276,0.0923930705,-0.1620668918,-0.0857499018,0.1801855862,-0.2162039876,0.0359515101,0.0707634017,-0.1286487132,-0.2071183175,-0.2429586351,-0.0283296313,0.5353334546,0.1924241036,-0.1552873105,0.0460803322,-0.0957748592,0.0475190766,0.0356326140,0.1857710183,-0.0670779869,0.0221467726,-0.1145340279,0.1198123991,0.2128345072,0.0168171078,-0.0672265366,0.3627142310,-0.0253064763,-0.0237801205,0.0535620600,0.1125353798,-0.1973376572,-0.0258826856,-0.1722337306,-0.0373843051,0.0702141598,0.0455625542,-0.0001739995,0.1235717535,-0.0823402032,0.2251302749,-0.0378665552,0.0264761485,0.0303673539,-0.0517952517,-0.1010525525,-0.0205866713,0.2244985253,-0.1645292193,0.1943509132,0.0752179697,0.0215623621,0.1849188209,0.0216852874,0.0852620974,-0.0080651855,-0.0499671996,-0.0594675802,-0.0624156147,0.0193827879,-0.1228002608,0.0359534100,-0.0354234986
n001291/0372_01,-0.0542417280,0.0584645495,0.1114568338,-0.0474331565,-0.1062881351,-0.0031956271,0.0359835662,-0.1518171430,0.2331913561,-0.1586633623,0.0944215134,-0.0662342310,-0.2985503674,0.0614244193,-0.1008775830,0.1730984300,-0.1573740840,-0.1571058035,-0.1587138027,-0.1013088077,0.1342411190,0.0279460419,0.0210784394,0.1454132646,-0.1655637771,-0.3521197438,-0.0279743187,-0.0859407634,-0.0062438808,-0.0817588121,0.0976299942,0.1069296375,-0.1899902821,0.0837981179,-0.0320707075,0.0144386981,-0.0730280578,-0.1570784301,0.1839248091,0.0183040798,-0.2470988482,-0.0300553329,0.0183480922,0.2659040391,0.2674023509,-0.0364850685,0.0679009110,-0.1082050055,0.1861497611,-0.4067300558,-0.0523774698,0.1566486657,-0.0441149846,0.0597308949,0.1472940892,-0.2114212066,0.0286253523,0.0566577986,-0.1608873457,0.1586910188,0.0893244669,-0.2048193216,-0.0795330405,-0.1312094629,0.1780049503,0.0468867682,-0.1530387551,-0.1468975097,0.2035551369,-0.2458783388,0.0155495806,0.1340790093,-0.1265518963,-0.1979784966,-0.2518827617,-0.0361856669,0.5351077318,0.2297488600,-0.1675791889,0.0396975689,-0.1451512724,0.1161485612,0.0706893057,0.1456684470,0.0347348526,-0.0569045022,-0.1393846273,0.0609039478,0.2054070830,-0.0538140461,-0.0453923568,0.3526424170,0.0038485974,-0.0735730231,-0.0458348319,-0.0065244706,-0.2223264873,-0.0099171102,-0.1183033288,-0.0475465059,0.0021691723,0.0009537116,0.0418211222,0.0504348092,-0.1386172175,0.2375134528,-0.0798905641,0.0273145810,0.0238827206,-0.0361354798,-0.1900097281,0.0276644044,0.1817136556,-0.2600643635,0.1428794116,0.1430100799,0.0975700393,0.1341024339,0.0151398424,0.1167288795,-0.0162267871,-0.0054099066,-0.1573559940,-0.0482867844,0.0284388587,-0.0520419814,-0.0170525685,-0.0327384695
n001291/0390_01,-0.0828840658,0.0843711719,0.1101545766,-0.0699847639,-0.1243088767,-0.0394432209,-0.0333829336,-0.1304814667,0.2599063516,-0.1191928834,0.1139713973,-0.0748576522,-0.3173279464,0.0856872946,-0.1824540794,0.1558818519,-0.0966510996,-0.1698321402,-0.1596785933,-0.0633122250,0.0934703723,0.0402544588,0.0258556716,0.1215442345,-0.1265701056,-0.3735907376,-0.0520635843,-0.1030572429,-0.0649565235,-0.1331081688,0.1236384436,0.1124303788,-0.2008771449,0.0191606358,-0.0212298818,0.0319211558,-0.0527322255,-0.1652231961,0.2064385265,0.0096015111,-0.2695840001,-0.0390317515,0.0411782004,0.3215640187,0.2581478655,0.0085375868,0.0519803464,-0.1255702823,0.1551850885,-0.3767764270,0.0095981751,0.2005397528,0.0122996680,0.0769022852,0.1160215065,-0.1640925556,0.1083553433,0.0988621563,-0.2080076784,0.1118825227,0.1667749733,-0.1557150036,-0.0512482300,-0.1024069637,0.2558465600,0.0996536463,-0.1518399268,-0.1295565516,0.2195058912,-0.2418429554,-0.0091697313,0.1147790402,-0.1487290710,-0.1924290508,-0.2376312912,-0.0390718877,0.5072523355,0.2468267530,-0.1583828628,0.0398925506,-0.1935331821,0.1006550789,0.0031236575,0.1202350408,0.0009175111,-0.0774014965,-0.1226061732,0.0373962969,0.2450664341,-0.0035250541,-0.0482555963,0.3198599815,0.0206823610,-0.1344602108,-0.0479468666,-0.0000122553,-0.2193836272,-0.0094986968,-0.1011806875,-0.0403174944,0.0008674683,0.0343119875,0.0253043585,0.0961743668,-0.1908302009,0.2521099150,-0.0855741426,0.0229683891,0.0443289503,-0.0466014147,-0.0961944088,0.0043989467,0.2017050087,-0.2363064885,0.1849311292,0.0875334144,0.1301655918,0.1308678687,0.0122531420,0.1315758526,-0.0078287208,-0.0352143571,-0.1913439929,-0.0867410824,0.0208725110,-0.0517537110,0.0448422804,0.0142427944
n001291/0064_01,-0.1144477427,0.1484305859,0.1174522489,-0.0853151008,-0.1697203219,-0.0270783249,-0.0156743024,-0.1537932903,0.2328635603,-0.1314247549,0.1563313305,-0.0601995587,-0.3691617250,0.0200904757,-0.1206671968,0.1769015938,-0.1327463537,-0.1238986924,-0.0524646342,-0.0377930403,0.0746745691,0.0727538243,-0.0224339627,0.0901272148,-0.0621435493,-0.3448388577,-0.0743103772,-0.0150000695,-0.0702621862,-0.1084556431,0.1030227914,0.0277311392,-0.1773924530,0.0057347268,-0.0457777493,-0.0067735668,-0.0779766217,-0.1188787371,0.1429069042,0.0325111933,-0.2620832324,-0.0477150381,0.0582927652,0.2487660050,0.2011199296,0.0109831505,0.0329314284,-0.1162155047,0.1546924412,-0.3643648922,-0.1158660725,0.1923432946,-0.0688546374,-0.0509086289,0.1157541797,-0.1637845188,-0.0167239923,0.1113719270,-0.1437359303,0.0729372054,0.1224135607,-0.1054431796,-0.1169202402,-0.0731832981,0.2084023654,0.0437382422,-0.1879431754,-0.1076799259,0.1842916757,-0.2170544565,-0.0534844920,0.0941783190,-0.0957607627,-0.2047152966,-0.2693253160,0.0039836597,0.5190564990,0.1281010956,-0.1053058058,0.0833252296,-0.1009520516,0.1015558913,0.0519029126,0.1660833806,-0.0057043806,-0.0219682939,-0.1346666217,0.0235272311,0.1649079621,-0.0170607194,0.0249758270,0.3391009569,0.0148455892,0.0364663154,-0.0343459211,0.0551597774,-0.1634789556,-0.0505810529,-0.1128462553,-0.0322450772,0.0895501897,0.0044258479,0.0296890233,0.1117633730,-0.1471031308,0.1852078587,-0.0320068300,0.0366276912,0.0342425518,-0.0463824011,-0.0695259646,0.0239895210,0.1357088834,-0.2392389476,0.1366844773,0.0989202783,-0.0179833435,0.0933094919,0.0823565423,0.0523547456,0.0007963693,-0.0456188880,-0.1417429298,-0.1158467904,0.0006562220,-0.1084017828,0.0204068981,-0.0627844557
n001291/0219_02,-0.0477721021,0.1064850911,0.0745914429,-0.0390709043,-0.1150245741,-0.0796001852,-0.0121792145,-0.1490066797,0.2547191978,-0.0694167688,0.0759505033,-0.0343547948,-0.2563588023,0.0390173011,-0.0683148503,0.1748377085,-0.2528769076,-0.0906421393,-0.0298703983,-0.0696573704,0.0039061625,0.0802823305,0.0844140574,0.1231572405,-0.1254222542,-0.3231400251,-0.0990853608,-0.0200379752,0.0402382836,-0.0401549377,0.0536179915,0.1327152103,-0.1350466907,0.0059801247,0.0839538351,0.0608943850,-0.0489483215,-0.1184216440,0.2239834815,0.0981086493,-0.1930573285,-0.0428713523,0.0320545472,0.2867656946,0.2909191549,0.0050803511,0.0223007947,-0.1329972893,0.1746027917,-0.3472957015,-0.0328733250,0.2149712294,-0.0035730205,-0.0073270397,0.0850290507,-0.1006610394,-0.0368089303,0.1235767379,-0.2410870790,0.0462960415,0.1380893737,-0.0918480754,-0.0311957393,-0.0893731564,0.1526644975,0.0857194513,-0.1937510073,-0.0743640363,0.1539193541,-0.2687488794,-0.0315702185,0.0387343168,-0.0413359851,-0.2272847891,-0.2455131710,-0.0381807983,0.4402158856,0.1912093610,-0.1093452573,0.0325151682,-0.0869213045,-0.0182732586,0.0364707112,0.1533159316,-0.0636049062,-0.0549606495,-0.0486586206,0.0160094462,0.1903204620,-0.0191418603,0.0092316968,0.3151057959,0.0100189820,0.0049724653,-0.0265499800,0.0301922262,-0.1465397328,-0.0073419539,-0.1564480811,-0.0160477553,-0.0459730178,-0.0268810876,0.0654407069,0.0663484111,-0.1804728061,0.2076072097,-0.0037185017,-0.0813777596,0.0081397751,-0.0686601177,-0.1651706249,-0.0116158007,0.1990857124,-0.2821040154,0.1388797313,0.1331909001,-0.0037964527,0.1754334867,0.0164407752,0.1141147912,0.0129803037,-0.0594172701,-0.0090819262,-0.0888874307,0.0244693309,-0.0800178647,0.0425033569,-0.0550970621
n001291/0006_01,-0.0700389817,0.1633662432,0.0889438838,-0.0544709228,-0.1671467274,-0.0207239557,-0.0442461148,-0.1688017249,0.2283620685,-0.1095512286,0.1329141408,-0.0929717049,-0.3316908181,0.0809987411,-0.1290445626,0.1066161916,-0.1840286702,-0.1029443294,-0.0408135653,-0.0883276761,0.0714916661,0.0663110390,-0.0259504635,0.1659070700,-0.1121087372,-0.3396954536,-0.0365003347,-0.0120933522,-0.0403847992,-0.1538583040,0.0612146966,0.0831362307,-0.2071611136,-0.0094808452,-0.0066123176,0.1055308804,0.0115075000,-0.1231266484,0.0938302055,0.0314202383,-0.1969254315,-0.0079911649,0.0300830230,0.2979307771,0.2398381531,0.0332077928,0.0264155511,-0.1573241651,0.1791994870,-0.2987775505,-0.0931095257,0.2103362978,-0.0631349906,-0.0236560460,0.0321847498,-0.1917023659,-0.0367037207,0.0485711619,-0.1485892981,0.0582933314,0.1631739289,-0.1075126305,-0.0367597714,-0.0942287073,0.2077597678,0.0326464958,-0.1705557108,-0.0976713598,0.1483879983,-0.2697772980,-0.0377510972,0.0831454024,-0.0916358903,-0.1970253587,-0.2417578995,0.0289124157,0.5599942207,0.1853519827,-0.1050866246,0.0697793961,-0.1406861395,0.0843886435,0.0572863221,0.1829884350,-0.0021680035,0.0270584598,-0.1050157100,0.1245228350,0.2154080272,0.0181099027,-0.0182642154,0.3183813691,0.0017849468,0.0125732236,0.0098009370,0.0491260141,-0.1911879778,-0.0015738914,-0.1230525672,-0.0199152473,0.0290954113,-0.0007590326,0.0691296607,0.1002490371,-0.1657132059,0.1843348891,-0.0419478565,-0.0060678781,0.0382788181,-0.0298981834,-0.1041482314,-0.0086940760,0.1984609067,-0.3170488477,0.1249235943,0.1073703617,0.0541661531,0.1642245203,0.0281743146,0.1216138229,0.0386674255,-0.0485569574,-0.0652389005,-0.0961115062,-0.0118882563,-0.0677421466,0.0750944018,-0.0740577057
n001291/0227_01,-0.0505597852,0.1178729534,0.0861594900,-0.0279204194,-0.1302657425,-0.0247495025,-0.0085838139,-0.1959458888,0.2201745361,-0.1224400327,0.1233989745,-0.0875245184,-0.3275252581,0.0841714665,-0.1385343522,0.1034641191,-0.1448100060,-0.1540042013,-0.1246735752,-0.0315772071,0.0987675413,0.0420740731,0.0005388052,0.1758354455,-0.0630949512,-0.3610850871,-0.0128950356,-0.0535472780,-0.0409892090,-0.1220733225,0.0788143948,0.0294444114,-0.2177355289,0.0398817733,-0.0674675405,0.0269963704,-0.0320040509,-0.1195719689,0.1608932763,0.0129029313,-0.2853386998,-0.0523579195,-0.0005543828,0.2498949468,0.2095150054,0.0103013562,0.0165265203,-0.1481813043,0.1955707073,-0.3616948426,-0.0265397541,0.2282398045,-0.0355226174,0.0468610674,0.0664239004,-0.2255595177,-0.0130046066,0.0223005153,-0.1272300184,0.1123373285,0.1232021004,-0.0811781585,-0.0084923217,-0.1383132488,0.1842157692,0.0511248037,-0.1633531898,-0.0800377727,0.1303536892,-0.2869729996,-0.0262994096,0.0832651556,-0.0999918804,-0.2309850901,-0.2526746392,-0.0026673842,0.5293639302,0.1903230250,-0.1478400379,0.0145766586,-0.1305350661,0.0584824719,0.0366308466,0.1790980697,0.0012241323,0.0656953007,-0.1099422947,0.0886969641,0.2016846538,-0.0158404429,-0.0130750742,0.3771911860,-0.0288965348,0.0120719988,0.0010181889,0.0791918039,-0.1721260548,0.0196441077,-0.1075852066,0.0425986946,0.0173092782,-0.0061031738,0.0534040630,0.0381332077,-0.1348902583,0.2252525538,-0.0518948510,0.0498499870,0.0356123969,-0.0153320776,-0.1296458542,-0.0308549702,0.2043528855,-0.2244948745,0.1868485063,0.0940907225,0.0816021338,0.1479224116,0.0040796609,0.1358362287,0.0009312453,-0.0354227424,-0.1226865426,-0.0640410557,0.0086355535,-0.0667129904,0.0002012262,-0.0233593937
n001291/0088_01,-0.1387187690,0.1491463333,0.0987531468,-0.0268315524,-0.1584712267,-0.0118248314,-0.0117165819,-0.1634362042,0.1872642338,-0.0996037796,0.1564545184,-0.1187893599,-0.3410129845,0.0501860864,-0.1510140896,0.1797426045,-0.1999397427,-0.1097354591,-0.0633885339,-0.0465885438,0.1130710170,0.0553896800,0.0523411743,0.1406225115,-0.1299900562,-0.3931786716,-0.0987965092,-0.0379037857,-0.0259158704,-0.1197494194,0.1003710032,0.0695281923,-0.2096028924,-0.0022836104,0.0392749906,0.0631799996,0.0172784701,-0.1306662261,0.1426247656,-0.0220892578,-0.2213108838,-0.0694933981,0.1016944721,0.3040251732,0.1850389838,0.0326441526,0.0510286838,-0.1366670430,0.1041211933,-0.3440009952,-0.0054431800,0.1735373586,-0.0174110718,0.0048402986,0.0910558850,-0.1934942156,0.0054037692,0.1169317812,-0.1288552135,0.1282624602,0.1814367175,-0.1001671106,-0.0334215872,-0.1048111245,0.2151946276,0.0417268388,-0.2008954883,-0.1405278295,0.1956212521,-0.2358399332,-0.0007426487,0.0844332129,-0.0873415545,-0.2309682965,-0.2957300544,-0.0212868992,0.5402508974,0.2330392897,-0.1838713139,0.0200685486,-0.1581886858,0.1081466451,0.0261732321,0.1896022558,0.0007484052,0.0102358488,-0.1571042836,0.0538864248,0.2075974643,0.0033185352,-0.0265973937,0.3682734370,0.0156881362,-0.0538797379,0.0045577250,0.0517354831,-0.2098278701,-0.0548288710,-0.1354921013,-0.0237330850,-0.0157224610,-0.0256616417,0.0041767480,0.1365220398,-0.1779739559,0.2161656767,-0.0755210146,-0.0145796705,-0.0039286911,-0.0227287374,-0.1325015128,0.0047388314,0.1948528439,-0.2958263755,0.1183939576,0.1440434009,0.0519845262,0.1797835529,0.0564467832,0.1655362546,0.0351270325,-0.0462949015,-0.1093974113,-0.1190718338,-0.0080183493,-0.1304985136,0.0271607228,-0.0349563695
n001291/0373_01,-0.1323988587,0.1647816896,0.1032334939,-0.1241901666,-0.1968048364,-0.0595642366,-0.0713153780,-0.1413094103,0.2256409228,-0.1013078913,0.1543650180,-0.0501328893,-0.3119019270,0.0092505394,-0.0283206198,0.1785103828,-0.2075455636,-0.1390225887,-0.0722363070,-0.0976841599,0.0523967966,0.0911614299,0.0253938362,0.0855290145,-0.1602651030,-0.3586438298,-0.0338780694,-0.0909554511,-0.0455676839,-0.1187896580,0.1100663394,0.0244943593,-0.2103135437,0.0274531990,0.0188539512,0.0940335318,-0.0495006591,-0.1466745138,0.0901155248,-0.0320591107,-0.2655278444,-0.0977084637,0.0130604431,0.2270011753,0.2371355444,-0.0460200869,0.0314120725,-0.0946118236,0.1457774639,-0.3249547482,-0.0163445529,0.1765948981,-0.0874907225,0.0030858731,0.0905175954,-0.1447517872,0.0354139283,0.1291550696,-0.2302135676,0.0099477805,0.1694224626,-0.1187231392,-0.0594627485,-0.0427924506,0.2110251188,0.0799033195,-0.1934477389,-0.0951605141,0.0849238187,-0.2159325480,0.0117960405,0.0753573403,-0.1198197752,-0.2400179207,-0.2602400780,0.0149549013,0.4535805881,0.1177458391,-0.1373152584,0.0213359278,-0.0743461549,0.0614120662,0.0489533097,0.1291770786,-0.0006919168,0.0026024766,-0.1291217804,0.1210399866,0.2158390582,-0.0791519284,0.0300150830,0.3494502008,-0.0361318775,-0.0674852356,-0.0092957439,0.0956196189,-0.1507405341,-0.0337479487,-0.0629705861,0.0052406043,0.0890662447,-0.0505313575,-0.0263686646,0.0575654618,-0.1562617719,0.1743905246,-0.0177094080,-0.0139293661,-0.0412694179,-0.1404377073,-0.0951228887,-0.0465294607,0.2034866363,-0.2031836957,0.2146755308,0.1478665322,0.0152707072,0.1947396100,0.0067476491,0.0457771271,-0.0004931763,-0.0836279541,-0.0463288762,-0.0718619078,0.0207945853,-0.0512522422,0.0458504260,-0.0579274148
n001291/0009_01,-0.1130915731,0.0834056437,0.1008029357,-0.0499306694,-0.1773786098,-0.0844750032,-0.0465551838,-0.1413992941,0.2189944834,-0.1178786606,0.1295534521,-0.0635233447,-0.2425426990,0.0971003324,-0.1776286811,0.1393700540,-0.1893716305,-0.0937619060,-0.0984712094,-0.1100943610,0.0636581853,0.0704773664,0.0447529256,0.1561734080,-0.0946054682,-0.3619892597,-0.0268435888,-0.0967089757,-0.0156632550,-0.0732367337,0.1011587232,0.0864078030,-0.2384515554,-0.0050186291,0.0028963434,0.1353681386,-0.0431860760,-0.0787379742,0.1111602336,0.0092735449,-0.2423125505,-0.0468696803,0.0405944213,0.3122729659,0.2334250212,0.0316137932,0.0169240050,-0.1599473804,0.1474642307,-0.3339897394,-0.0390218310,0.2160569280,-0.0623528622,0.0008398192,0.1157073006,-0.1334731281,0.0947214738,0.0753208101,-0.1601223052,0.0741695464,0.1929705292,-0.0858532786,0.0016406793,-0.0946927965,0.2585952878,0.0295599643,-0.1732465327,-0.0468715504,0.1560415030,-0.2500024736,-0.0055272575,0.0942868665,-0.0898605511,-0.2382579595,-0.2596026361,-0.0087931342,0.6236193180,0.2382936627,-0.1041605026,0.0784447715,-0.1584065109,0.0404254943,0.1021180227,0.1923184097,-0.0037664343,0.0225061681,-0.1280598342,0.1176942438,0.1719066799,-0.0074352510,0.0101683037,0.3083755970,-0.0100407004,-0.0312416796,-0.0181924999,0.0319227055,-0.2437797785,0.0168003812,-0.1511440575,-0.0323946625,-0.0016138684,0.0240136497,0.0407720841,0.0485150851,-0.1332577169,0.1848382801,-0.0519308150,-0.0220103413,0.0146229817,-0.0497201271,-0.1027535647,-0.0224039033,0.1879038364,-0.2369052619,0.1726353168,0.1053862721,0.0685108900,0.1885786057,0.0589923635,0.1079919860,-0.0025664829,-0.0689842999,-0.1218358129,-0.0482607298,-0.0148514463,-0.1102701873,0.0695483088,-0.0485850386
n001291/0141_02,-0.1024015918,0.1626544595,0.1013241336,-0.0536490344,-0.1114556491,-0.0394595154,-0.0195525698,-0.1995407641,0.2029403001,-0.1028396487,0.1007534564,-0.0506517850,-0.2935543954,0.0887029544,-0.1281136721,0.1339487880,-0.1979858875,-0.1712412387,-0.0824895352,-0.0393028483,0.0528068282,0.0914636701,0.0468105413,0.1397282183,-0.1023375988,-0.3723739088,-0.0412337929,-0.0772714838,0.0162017792,-0.0776025802,0.0668524951,0.0696033686,-0.2379689664,0.0534094423,0.0117107583,0.0939982235,-0.0517750084,-0.1329460591,0.1771571487,0.0247735567,-0.2582374513,-0.0718135834,-0.0418204218,0.2674913704,0.2243725955,-0.0533456542,0.0355433598,-0.1685141623,0.1268538684,-0.3028767109,-0.0094388556,0.2199645936,-0.0699565485,0.0297193918,0.0578369647,-0.1670280248,0.0070175696,0.0590031892,-0.1413085312,0.0572852008,0.1703470200,-0.0907018706,-0.0330755748,-0.1171988994,0.1390905976,0.0580294430,-0.1489291787,-0.1218238845,0.1567941010,-0.2627868056,0.0118232146,0.1398963481,-0.0763854906,-0.1934890151,-0.2032071799,-0.0619185343,0.5128741860,0.1682581306,-0.1334417015,-0.0294024814,-0.1570306122,0.0568360165,0.1028006598,0.1050809696,-0.0208682828,-0.0010663457,-0.1178593561,0.0924552977,0.2466911674,0.0176195167,-0.0559555665,0.2914469242,-0.0345714912,-0.0263224244,0.0199279021,0.0783972368,-0.1313915402,-0.0038965400,-0.1111395508,0.0090645412,-0.0152150160,-0.0333917588,-0.0296316557,0.1061652675,-0.1327484399,0.1921126246,-0.0174265765,0.0225569196,0.0485562533,-0.0398510173,-0.1693297476,-0.0320963450,0.2285840511,-0.2347133756,0.1854892522,0.1211757362,-0.0036306346,0.1201096997,0.0006288337,0.1174075305,-0.0566348881,-0.0981050134,-0.1568432301,-0.0814987198,0.0390955433,-0.0460044406,0.0255440101,-0.0823776871
n001291/0268_01,-0.1416357458,0.1518386453,0.0997508392,-0.0105044302,-0.1611986160,-0.0282517876,-0.0533837900,-0.1508896649,0.2168605328,-0.1075885445,0.0728431940,-0.0761085749,-0.3144801259,0.0786006004,-0.2069472671,0.2122751623,-0.1467245221,-0.1332413554,-0.0240876116,-0.0750542358,0.0209282208,0.0644874275,0.0569730178,0.1592678130,-0.0700460970,-0.3541416824,-0.0835885480,-0.0410193652,-0.1011126935,-0.1490147412,0.0220400207,0.0782940984,-0.2267980725,-0.0197571125,0.0156699922,0.1600463837,-0.0480283611,-0.0675220713,0.1297374964,0.0482810698,-0.2047536522,-0.0166120809,0.0696545988,0.3516941369,0.2008727640,0.0460396186,0.0016296338,-0.1587789059,0.1147851795,-0.3144620359,-0.0348888040,0.1901572943,0.0151366740,0.0410637222,0.0243824422,-0.1483483315,0.0572047085,0.0672739968,-0.1398034841,0.0744064972,0.1535676271,-0.1001503319,0.0105648683,-0.0141086010,0.2831609547,0.0784712285,-0.1529840529,-0.0737001449,0.1461789310,-0.2642825246,0.0210185349,0.0795395821,-0.0517295823,-0.2362613529,-0.2218548357,0.0197602939,0.4819183648,0.1739638895,-0.1194451824,0.0404098816,-0.1252303720,0.0533685759,0.0226584952,0.1908700168,-0.0749126971,0.0580806695,-0.1137119308,0.0913885459,0.2355649769,-0.0291684829,0.0160604864,0.3228850663,0.0310482830,-0.0067939255,0.0376946665,0.0577601232,-0.1635377705,0.0002272422,-0.1537555754,-0.0179572217,0.0008377274,-0.0581214018,0.0251341388,0.0469292253,-0.1925924122,0.1531706005,-0.0631233603,-0.0611769706,-0.0152405296,-0.0304104201,-0.1442392468,-0.0376973189,0.2218868285,-0.2730782926,0.1892943084,0.1503724158,-0.0040754485,0.1712851226,0.0583203100,0.1522160172,0.0162572153,-0.0846381411,-0.0154372435,-0.0595063269,0.0730035827,-0.1037832871,0.0693786442,-0.0445856117
n001291/0316_04,-0.0997723043,0.0602775812,0.1122510955,-0.0538307130,-0.1634914279,-0.0561928749,-0.0503491610,-0.0679248795,0.2628248632,-0.0773717016,0.1138344780,-0.0185325108,-0.2932288945,0.0682567358,-0.1450547427,0.1151371524,-0.1919272244,-0.1144508421,-0.0551400706,-0.0532687753,0.0561532378,0.0452731960,-0.0060695852,0.1097526103,-0.1499596834,-0.4105292261,-0.0425999649,-0.0240693837,-0.0461790785,-0.1084954068,0.0984680504,0.1004332751,-0.2253676057,0.0423798375,-0.0230855122,0.1072283089,-0.0417865478,-0.0957741961,0.1247869730,0.0669573545,-0.2407868505,-0.0142014595,0.0009499732,0.2831111252,0.2848502398,0.0130036557,0.0733143985,-0.1297189146,0.1447302103,-0.3724392056,0.0222104713,0.2229523510,-0.0018962114,-0.0237843134,0.1055104807,-0.1834694147,-0.0360406861,0.1011467278,-0.1625692546,0.1075348705,0.1549599767,-0.0911233276,-0.0509124175,-0.0672679096,0.2120975852,0.1031206250,-0.1894967258,-0.0924616158,0.2352375239,-0.2452205122,0.0095968675,0.0617157258,-0.0678330958,-0.2288110256,-0.2615223527,0.0504784137,0.5148541331,0.1764388233,-0.1450392902,0.0505401492,-0.1561788470,0.0825571939,0.0126862237,0.1636566967,-0.0533422045,-0.0183096323,-0.1451055259,0.1023976207,0.1847263426,0.0452790372,0.0041800453,0.2993040085,0.0202391334,-0.0441511981,0.0019662725,0.0482490286,-0.2104699612,-0.0080097653,-0.1312506795,-0.0262212120,0.0399433710,-0.0066952091,0.0381189808,0.0990654677,-0.1223904863,0.2196105868,-0.0606847927,-0.0300733261,0.0321534425,-0.0550179258,-0.0895196870,-0.0064583570,0.1707323045,-0.2641482055,0.1797058731,0.0539660901,0.0663901120,0.1998279989,0.0316812769,0.1258910298,0.0142370854,-0.0644473508,-0.0958743691,-0.0496005304,-0.0696040913,-0.0783198103,0.0503923446,-0.0048977681
n001291/0346_01,-0.1399902552,0.1360942274,0.0573663674,-0.0576129816,-0.1867031008,-0.0379534289,-0.0898945928,-0.1603002399,0.2267765999,-0.1156076565,0.1359553784,-0.0308283251,-0.2441288531,0.0435345210,-0.2034911662,0.1214211434,-0.1450124085,-0.0980735347,-0.0866073668,-0.0456117503,0.0591002852,0.0576350801,0.0349789262,0.1148320809,-0.0923874080,-0.3334344327,-0.0553442277,-0.0785828829,-0.0769977644,-0.1343838722,0.0967719853,0.0533432104,-0.1961253285,-0.0560645908,-0.0029184259,0.0775948316,-0.0341628306,-0.0547141992,0.1371452063,0.0123585444,-0.2163768411,-0.1040397510,0.0978477895,0.2718821764,0.2532627881,0.0380664878,0.0365677103,-0.1264540702,0.1630400270,-0.3509106338,-0.0217399448,0.1275040954,0.0034000627,-0.0057444405,0.1133643687,-0.1790543646,-0.0095655033,0.0776660666,-0.0893967450,0.1145676970,0.1378186047,-0.0826615840,-0.0850989744,-0.0504333675,0.2916249931,0.0895120054,-0.1599481106,-0.1134042814,0.2320140451,-0.2289847285,-0.0287906826,0.1220602542,-0.0660432279,-0.2116177082,-0.2367436290,-0.0137250591,0.5242937803,0.1693735719,-0.1176934913,0.0132394321,-0.1459216923,0.0519465059,-0.0125334570,0.1426192522,-0.0202780776,0.0302865133,-0.0963491201,0.0405185111,0.2470466197,0.0038278662,-0.0308262706,0.3104429841,0.0037297234,-0.0063045584,0.0268222429,0.0238544717,-0.1782003790,-0.0314145163,-0.1787748635,-0.0332186520,0.0414366275,-0.0018439163,0.0229446553,0.0878701806,-0.1088410839,0.1558109969,-0.0843054131,-0.0038457550,-0.0068568140,-0.0633930713,-0.1392324120,-0.0099435300,0.2372310609,-0.1888628453,0.1769556701,0.0597219095,0.0875364393,0.1517326236,0.0998340026,0.0897049755,0.0635773465,-0.0289670490,-0.0866777152,-0.0803463012,-0.0032200189,-0.1514819711,0.0498174950,-0.0430937111
n001291/0047_01,-0.0567076728,0.1106237322,0.1355274171,-0.0407831222,-0.1331719607,-0.0864774585,-0.0374585912,-0.1789129525,0.1882752180,-0.0975333899,0.1140408441,-0.1076955944,-0.2747943103,0.0939667076,-0.1358948499,0.1711385101,-0.1959941685,-0.1278431267,-0.0645744875,-0.0484088100,0.0436330438,0.0799232572,0.0110630924,0.1684264541,-0.0187499486,-0.3361093700,-0.0628740191,-0.1013161615,-0.0272673592,-0.1242730021,0.0300595276,0.0525986776,-0.1758029908,0.0083479295,-0.0225952864,0.0820147470,-0.0420726724,-0.1157574058,0.1321404129,0.0162427202,-0.2943697870,0.0101872543,0.0412988588,0.3029706776,0.2600063980,0.0149488645,-0.0113452729,-0.1271941364,0.1451540291,-0.3743906915,-0.0523138419,0.1883999705,-0.0248391666,0.0106664104,0.0532340109,-0.1344891787,0.0126426462,0.0287696198,-0.2160994709,0.0948977321,0.2130428702,-0.1046412587,0.0211531371,-0.0857422873,0.2442388684,0.1117739156,-0.1835363358,-0.0902505666,0.0719510764,-0.3218321502,-0.0544658080,0.1153081208,-0.0830461457,-0.1985703558,-0.2506877780,-0.0477269739,0.5345617533,0.1592110842,-0.1000036672,0.0447505601,-0.1476499885,0.0402552113,0.0921387598,0.1673307568,0.0195681509,0.0445060730,-0.1230847463,0.0857157335,0.2255359441,-0.0440354869,-0.0043111811,0.3181848824,-0.0487800203,0.0194877628,-0.0335668847,0.0836942494,-0.1358023584,-0.0015147557,-0.1338625550,0.0010532583,-0.0245512724,0.0340302065,0.0348558240,0.0356627479,-0.1431408972,0.1921096146,-0.0466321632,0.0106401378,0.0083095552,-0.0670234263,-0.1163186207,0.0290262830,0.2324842513,-0.2531490028,0.1941355467,0.1050735712,0.0386399552,0.0851284340,0.0046115252,0.0583986714,-0.0354469419,-0.1180138513,-0.1323572397,-0.0392515175,0.0386465937,-0.0915097594,0.0910538137,-0.0467340052
n001291/0134_01,-0.0680903047,0.1869649887,0.0737175867,-0.0252277851,-0.1940954626,-0.0367762484,-0.0258582290,-0.1627245545,0.2368774414,-0.0629584193,0.1098394841,-0.1379174888,-0.3123583794,0.0888987184,-0.1896726489,0.1567693353,-0.1996866763,-0.1241133958,-0.0467070304,-0.0234839953,0.0533542149,0.0315740108,0.0570588559,0.1658687294,-0.1203702241,-0.4656930268,-0.0654341727,-0.0596949570,-0.0629111454,-0.1465551704,0.1227071434,0.1370966583,-0.2161344588,-0.0087195691,-0.0100703714,0.1149819493,0.0041966196,-0.1094219610,0.1357181817,0.0174888205,-0.2631173134,-0.0381244570,0.0364058912,0.3497115672,0.2102496624,-0.0085546356,0.0470786020,-0.1151093617,0.1133207306,-0.2952317894,-0.0319475234,0.1824482679,-0.0177725069,-0.0162403695,0.0674143136,-0.1268631220,0.0089025144,0.1122893095,-0.1750036776,0.0606239587,0.1823577881,-0.0820613950,-0.0191652942,-0.0886866376,0.2636404932,0.0861314237,-0.1693174541,-0.0889176652,0.1743913442,-0.2349815369,-0.0252829213,0.0323804319,-0.0717065483,-0.2128468752,-0.2717541158,-0.0071232617,0.5239850879,0.2040031403,-0.1849741936,0.0449714586,-0.1478712261,0.0808542147,0.0274028219,0.2034982890,-0.0245888308,0.0681786537,-0.1546851993,0.1004292741,0.1779781133,0.0116093224,-0.0473282225,0.3370917141,-0.0290409401,-0.0136753991,0.0119929258,0.0253755879,-0.2373271137,0.0222272780,-0.1778020710,-0.0466427170,0.0564484037,0.0434004366,0.0039555426,0.1107754260,-0.1573072374,0.2178135365,-0.0505769029,-0.0000039386,0.0341048799,-0.0353145525,-0.1072465181,-0.0022603418,0.2368893325,-0.2794381380,0.1551222056,0.0709508881,0.0211905036,0.1712799072,0.0724229813,0.0872867405,0.0423063450,-0.0787688717,-0.1301893294,-0.0648205206,0.0433034524,-0.1207128167,0.0685830414,-0.0419673771
n001291/0036_01,-0.1403356791,0.1074629873,0.0505264886,-0.0181806032,-0.1283216476,-0.0270144753,-0.0218478870,-0.1773973405,0.1839002967,-0.1483181268,0.1521873474,-0.1267338991,-0.3173370659,0.0136388075,-0.1953860521,0.1660948396,-0.2175890058,-0.1455756128,-0.0680168271,-0.0532626286,0.0617211685,0.0167457145,0.0386328287,0.1466576755,-0.1139740348,-0.4019948840,-0.0609045848,-0.1380061507,-0.0274043567,-0.0914682075,0.0678801090,0.0294520482,-0.2156558037,0.0104571544,0.0228145309,0.0584183782,0.0237908512,-0.1385599822,0.1776279956,-0.0560700558,-0.1782004982,-0.0683837608,0.0070640389,0.2496415675,0.1785331219,-0.0246954821,0.0297976192,-0.1936121732,0.2056876123,-0.2811825573,-0.0270881262,0.1922650039,-0.0281408764,0.0092209643,0.0519935936,-0.1335602552,0.0327989087,0.1230997592,-0.1771562994,0.0535312034,0.0899846628,-0.0256162584,-0.0591578707,-0.0817276239,0.1777278632,0.0304909032,-0.1969339550,-0.0790405422,0.2030945122,-0.2428392023,0.0840567723,0.0552068800,-0.0945111811,-0.2721458673,-0.1946309805,0.0163756460,0.5648896694,0.2134075314,-0.1808369011,0.0205355827,-0.1221701950,0.0179977007,0.0592401326,0.1823887974,-0.0293266177,0.0104570594,-0.1057116315,0.0969795138,0.1777665764,0.0064790221,-0.0245540030,0.3120423555,-0.0287290737,-0.0369920172,0.0624873266,0.0574065410,-0.2082194537,-0.0346714966,-0.1162135452,-0.0059888000,0.0277124606,-0.0184662789,-0.0289486106,0.0564925671,-0.0895136446,0.1782390624,-0.0757867172,-0.0328537822,-0.0035689138,-0.0825375319,-0.1072500423,-0.0190460198,0.1991318911,-0.2090343386,0.1339999288,0.0722550228,0.0392093062,0.2277655452,0.0267589577,0.1181162298,0.0087359389,-0.0579944327,-0.1271398216,-0.1084537134,0.0577490479,-0.0736315399,0.0727133155,-0.1281939894
n001291/0208_01,-0.1839189976,0.1341095418,0.0903512612,-0.0313356183,-0.1481307298,-0.0523428582,-0.0462593511,-0.1673106402,0.2277564853,-0.1665830910,0.1895501167,0.0005000681,-0.3198470771,0.0460489579,-0.1246103346,0.1613542885,-0.1641253531,-0.1449766308,-0.1134855598,-0.0989517868,0.1245250627,0.0504317842,0.0405739695,0.1124150008,-0.0953827202,-0.3148672879,-0.0495119318,-0.0642262250,-0.0473111570,-0.1645608544,0.1298208982,0.0338507816,-0.1974487454,0.0204102919,-0.0527441129,0.0836287290,0.0144922426,-0.0722084492,0.1400545686,-0.0250057746,-0.2670964897,-0.0699808002,0.0904671848,0.2313640118,0.1784698069,0.0374096669,0.0118888114,-0.1195561439,0.0858800858,-0.3398126364,-0.0538945831,0.1849434078,0.0225311648,0.0338139310,0.1263647228,-0.1825483590,0.0461740084,0.0416648388,-0.1308317333,0.0636865050,0.1352076083,-0.0576854199,-0.0395911038,-0.0327931046,0.2339237332,0.0357611664,-0.1936997324,-0.0110153705,0.1778731495,-0.2365429252,-0.0623022318,0.1453727931,-0.0903474167,-0.2651278079,-0.2667939067,-0.0192389004,0.5444746614,0.2024619430,-0.1321336925,0.0296461806,-0.0964079723,0.0491901189,0.0046759611,0.1690280288,-0.0510053262,0.0477401167,-0.1065148115,0.1029946953,0.1767290235,0.0445333049,-0.0054649250,0.3633271158,0.0704721659,-0.0106301811,-0.0036036046,0.1183688492,-0.0820463672,-0.0927127078,-0.1280502677,-0.0151728354,0.0218259823,-0.0126774311,-0.0196991861,0.0435798056,-0.1427806467,0.1499250680,-0.0358512178,-0.0229801834,-0.0479336455,0.0412137546,-0.0804217383,-0.0065706898,0.1485074013,-0.2603449225,0.1406326443,0.2025555968,0.0007045150,0.1455676109,0.0283202194,0.1203769222,0.0200927965,-0.0962494612,-0.0765842795,-0.1391431391,-0.0124203209,-0.1219614446,0.0359567106,-0.0150142033
n001291/0406_01,-0.1898459941,0.0846078098,0.0654221997,-0.0174401291,-0.1750882119,-0.1385553777,-0.0921316370,-0.1686125994,0.2043054253,-0.0906263813,0.1024365872,-0.0287401602,-0.2104225010,0.0880793855,-0.1230217069,0.1965784281,-0.1242150515,-0.1790552288,-0.1298728138,-0.1000836790,0.0568738766,0.1187117472,0.0652922839,0.0973034650,-0.1015853584,-0.3213121891,-0.0747258291,-0.0300021283,0.0635948181,-0.0183271300,0.0326846167,0.0950648934,-0.1779001057,-0.0335535109,0.1158930808,0.0777697340,0.0014645065,-0.1299014390,0.2028696984,0.0431817099,-0.2471765876,-0.0460111089,0.0719301552,0.2356225699,0.2212599367,-0.0172182862,0.0811971202,-0.2055004090,0.1133478060,-0.3207713068,-0.0212024190,0.1776426733,0.0075393338,0.0065719755,0.1331214756,-0.1946032941,0.0260670073,0.1500292867,-0.1979623437,0.0676505268,0.1418376863,-0.0359983072,-0.0808235407,-0.1238334328,0.1949455142,0.1446609795,-0.1362228990,-0.1427271217,0.1691016853,-0.2055550516,0.0010347152,0.1194044128,-0.0784000233,-0.2328997403,-0.2316524535,-0.0547591038,0.4487978220,0.1772450060,-0.1256519258,0.0849558562,-0.0408631302,0.0666131452,0.0483931378,0.0751361400,-0.1085391343,-0.0068718372,-0.0625722781,0.0333795249,0.2142115086,0.0250671655,0.0002247764,0.2750408947,0.0171662029,-0.0069211614,0.0317601487,0.0832158178,-0.1371896416,-0.0584456399,-0.1218893528,-0.0215427317,0.0009239120,0.0066726478,0.0726773441,0.0454268195,-0.1076431125,0.0987766311,-0.0931022242,-0.0108326692,-0.0570065677,-0.0510287397,-0.0842369124,0.0038929633,0.1491152346,-0.2032729834,0.1840923578,0.1183383986,-0.0212829150,0.1736826003,0.0643686876,0.0850715786,0.0030856989,-0.0186631754,-0.0573216304,-0.0531097837,0.0443246327,-0.1076163203,0.0330028832,-0.0090402626
n001291/0376_01,-0.1162927896,0.1007823646,0.1490873396,0.0157106668,-0.0983015075,-0.0439781956,-0.0638121963,-0.1978389919,0.1680244058,-0.0880902186,0.1015816107,-0.0618219264,-0.3002191186,0.0813943744,-0.0827441439,0.1684704125,-0.1538181901,-0.1564517319,-0.0599996075,-0.0928365737,0.0358979180,0.1291948408,-0.0044475244,0.0892527699,-0.0712334439,-0.2848779857,-0.0696332380,-0.0393819995,-0.0124689871,-0.0773448348,-0.0079247355,0.0305273626,-0.1707982570,-0.0036442447,0.0231334753,0.0590519235,-0.0346477702,-0.1250788867,0.1472211182,0.0539643988,-0.2298960239,0.0591162294,0.0667121261,0.2658540308,0.2387471944,0.0073248530,-0.0109884795,-0.1449488699,0.1709497571,-0.3235916793,-0.1032849848,0.2356936634,-0.0089216139,-0.0173907876,0.0550882295,-0.1967344284,-0.0411691815,0.1012704000,-0.2019580603,0.1292896122,0.1332015544,-0.0917990953,0.0113653233,-0.0670509338,0.1331143677,0.0212439857,-0.1753267050,-0.0729632750,0.0933599621,-0.1932039559,0.0266786218,0.1174304411,-0.1450264305,-0.2613845468,-0.2459611893,0.0306653995,0.5338660479,0.0582971945,-0.0481014252,0.0822606981,-0.0869006813,0.0323387831,0.0138342902,0.1213513166,-0.0256517902,-0.0638703257,-0.0971467569,0.0721522197,0.2033846825,-0.0044396650,0.0417617746,0.2908538282,-0.0433386490,-0.0034295763,-0.0316240974,0.1542584896,-0.1624504626,-0.0424558073,-0.0990187526,-0.0241220929,-0.0479556695,-0.0758855417,0.0788377970,0.0657568499,-0.1540608555,0.1038015783,-0.0257971566,-0.0049833031,0.0001533004,-0.0302769132,-0.1033344790,-0.0018829157,0.1772531569,-0.2673146427,0.1342293471,0.1630685925,-0.0039487816,0.1166746840,0.0020782268,0.0885725841,-0.0405378602,-0.0057146298,-0.0761606321,-0.0740524903,0.0022842349,-0.0289668031,0.0156293064,-0.0199934077
n001291/0441_02,-0.1440670043,0.1042547598,0.1229203790,-0.0289576910,-0.1644193381,-0.0185506195,-0.0498989075,-0.2017958015,0.2227193117,-0.0905174613,0.1542315930,-0.0938451216,-0.2113324404,0.0405082852,-0.0751923323,0.1399158686,-0.1270042360,-0.1325452477,0.0171506125,-0.0082794316,0.1186174229,0.1027818248,0.0741637200,0.1050273031,-0.0606404766,-0.4328723550,-0.0871235579,-0.0158033986,0.0185867790,-0.0426856726,0.0674758106,0.0923475176,-0.2323720902,-0.0025510564,-0.0338936672,0.1075560600,-0.1019450203,-0.1231868714,0.2096665651,-0.0081087984,-0.2474082410,-0.0620844960,0.0661209151,0.2132429183,0.1749454737,0.0106287524,0.0121238306,-0.0600873120,0.0790514201,-0.2852325141,-0.0418973789,0.2326583713,0.0046408181,0.0533291399,0.0420405343,-0.1471900642,0.0002786359,0.0454327464,-0.1982578635,0.0603835844,0.0730410218,-0.1203524694,0.0387181267,-0.0645967424,0.2058212012,0.0913081095,-0.0630419403,-0.1025099829,0.1447979510,-0.1824749261,-0.0295928176,0.0828425139,-0.1639524549,-0.2476958930,-0.2644990683,-0.0027784873,0.4174126685,0.1153385267,-0.0681741834,0.0741150454,-0.0634656921,0.0324149467,-0.0018377764,0.1264059991,0.0346649215,-0.0048722904,-0.1085678190,0.0729332715,0.1635753810,-0.0739940926,-0.0192247257,0.3305543363,0.0035294965,0.0316578858,-0.0037695593,0.0967192799,-0.0848151892,0.0311414097,-0.1198465973,0.0136891957,0.0081502534,0.0212622620,0.0855508447,0.0977093577,-0.1704168171,0.1473634243,-0.0259657204,-0.0060617672,0.0085603856,-0.0116951298,-0.1166121960,-0.0758695081,0.1417529732,-0.2308103740,0.1903657615,0.1306539625,-0.0370971300,0.2176898271,0.0061750757,0.1411011219,0.0092739612,-0.0411715917,-0.0695642307,-0.0504167341,0.0170006379,0.0200610645,-0.0271096975,0.0651132092
n001291/0299_01,-0.0838310793,0.1508492529,0.0802598596,-0.0468565971,-0.1817119420,-0.0145071205,-0.0231474973,-0.2385449260,0.1694869846,-0.1234214231,0.1083164066,-0.0862725750,-0.3414732516,0.0407775491,-0.1469551921,0.1512244940,-0.2364465594,-0.2349111885,-0.0676684454,-0.0420802869,0.0890168697,0.0165897738,0.0289673116,0.1710624695,-0.0696198195,-0.3829694390,-0.0681210458,-0.0586142540,0.0700629950,-0.0419688635,0.0546035171,0.0233725365,-0.2351313531,0.0261194985,-0.0637623072,0.0538924336,-0.0551490746,-0.1891354024,0.1183265671,-0.0370397195,-0.2669261396,-0.0318006985,0.0556132197,0.2626954615,0.2305687964,0.0110532576,0.0406689756,-0.1162013188,0.1214501262,-0.3671447039,-0.0251918882,0.2005879432,-0.0495689139,0.0248181596,0.1003112718,-0.2084945589,0.0242077075,0.0862135515,-0.1780977994,0.0979044363,0.1138970703,-0.0798519999,0.0586674437,-0.1298010051,0.1850572228,0.0698729828,-0.0798161775,-0.1087663025,0.2159103751,-0.3080221713,-0.0221169442,0.0862187222,-0.0647274926,-0.1885264218,-0.2593685687,-0.0332263783,0.5091554523,0.2382208258,-0.0427980237,0.0606070384,-0.0757455379,0.0527846999,0.0613258034,0.0841796920,-0.0485678539,-0.0009743422,-0.2108420283,0.0726538748,0.2369103432,-0.0147138443,0.0224589948,0.3653974533,0.0080008758,-0.0729971677,0.0665351227,0.0856621936,-0.1767903268,0.0279530287,-0.1618411839,0.0204377063,-0.0076209269,-0.0512186103,0.0331593789,0.0569863878,-0.1017278358,0.0988544673,-0.0621516369,-0.0020510890,-0.0283069666,-0.0569782741,-0.1608024985,-0.0283054151,0.2017339766,-0.2313738465,0.1601596773,0.1419498920,0.0771032125,0.1396253854,0.0266106613,0.0934352353,-0.0344099998,-0.1391003281,-0.1137557849,-0.0840663910,0.0410348773,-0.1056223139,0.0023634657,0.0262615420
n001291/0355_01,-0.0941091180,0.1566524804,0.1422531009,-0.0964222178,-0.1076043248,0.0075769788,-0.0619864874,-0.1721947342,0.2121112347,-0.1491909921,0.1608780921,-0.0754796118,-0.3155461848,-0.0043540439,-0.0917313918,0.1971527040,-0.1855798811,-0.1738012433,-0.0457576551,-0.0161954351,0.0086683817,0.0567711890,0.0335909128,0.1369146854,-0.0737402290,-0.4018102586,-0.0394739807,-0.0077471919,-0.0049565118,-0.1314624250,0.0231443234,0.0190503225,-0.2110756338,0.0363889188,-0.0278093256,0.1312062889,-0.1012462825,-0.1668279469,0.1280317754,0.0865102634,-0.2394861281,-0.0258630961,-0.0272047296,0.2708899081,0.2626716793,-0.0435500741,0.0341141820,-0.1829456091,0.1216485426,-0.3829112053,-0.0620964728,0.2041242123,-0.1077494249,0.0153977890,0.0833412185,-0.1755248308,0.0109384693,0.0848652571,-0.1911213696,0.0549023636,0.1224837825,-0.0887698084,-0.0070938230,-0.0568327568,0.1546495855,0.1293235123,-0.1187936664,-0.1615628004,0.1473627687,-0.2609272301,-0.0052118311,0.0798688307,-0.0407174006,-0.2178655118,-0.2468132824,0.0023737811,0.4118838608,0.2056883276,-0.1275512576,0.0404155143,-0.0881754532,0.0593209416,0.0867441148,0.1376357526,-0.0361939594,0.0092731202,-0.1458978206,0.0461692065,0.1673001051,0.0080157947,0.0288364477,0.3299301267,-0.0148756960,-0.0183607005,0.0848116651,0.0716043711,-0.2035975158,0.0235597324,-0.1889224648,-0.0600642003,-0.0004180688,-0.0356109738,0.0667708218,0.0826253146,-0.1353109181,0.1867682040,-0.0566517450,-0.0483909659,0.0371108353,-0.0565521084,-0.1099055037,-0.0319413356,0.1849256754,-0.2327338755,0.1546129286,0.1535769701,0.0544091798,0.1563154608,0.1089827120,0.1245591417,-0.0353407376,-0.0566139296,-0.0435966253,-0.0324536450,-0.0405414030,-0.0281481836,0.0192581322,-0.0584110059
n001291/0283_01,-0.1260214150,0.1404545903,0.0853435099,-0.0673842952,-0.1007126793,-0.0654809400,-0.0772392675,-0.1357693076,0.1607290506,-0.1316158175,0.1653959751,-0.0875731856,-0.2785221934,0.0148299597,-0.1825015694,0.2301362008,-0.1416727751,-0.1140073314,-0.0392850041,-0.0218970533,0.0764672086,0.0416839868,0.0299874321,0.1437007338,-0.0815468580,-0.3848677874,-0.0804346353,-0.0880957544,-0.0594636053,-0.0830339044,0.0847871006,0.0139622744,-0.1753628552,0.0149687659,-0.0300135855,0.0774123296,-0.0458690785,-0.0849775597,0.1521565318,0.0730837807,-0.2662643492,-0.0522423387,0.0063459314,0.3193476498,0.2167677283,0.0549001619,0.0720756650,-0.1208239943,0.0703910664,-0.3013133705,-0.0565707535,0.1446388513,-0.0374768451,0.0080287792,0.0526391715,-0.1237592846,0.0214890279,0.1171197370,-0.2058758587,0.0679922104,0.0689595416,-0.0455736145,0.0015563201,-0.0581617132,0.2711776197,0.0766166523,-0.2114625126,-0.0282622296,0.2213077098,-0.2668030858,0.0014856532,0.0666223615,-0.0785460472,-0.2592092454,-0.2720861733,-0.0209914912,0.4618502855,0.2067774683,-0.1201232970,0.0108434977,-0.0634436533,0.0357939787,0.0838667378,0.2206043005,0.0124366190,0.0301842764,-0.0539749190,0.0236080345,0.1912529618,-0.0187959298,-0.0117025012,0.3370562792,-0.0342215970,-0.0114489347,-0.0189934019,0.0730854571,-0.1481400430,-0.0065262346,-0.1022262573,-0.0181890968,-0.0093646385,-0.0027482538,0.0277616214,0.0759424940,-0.1223395467,0.1598718613,-0.0489964411,-0.0021607829,-0.0154155968,0.0162971579,-0.1054288298,-0.0532053746,0.2038256377,-0.1777034104,0.1647803783,0.1974169165,0.0130032813,0.1255586743,0.1071176007,0.0772998855,0.0226123426,-0.0986870825,-0.1362932473,-0.0580426231,0.0204429813,-0.1218506470,0.0889056399,-0.0568795130
n001291/0210_01,-0.1100280583,0.1356771439,0.1191392764,-0.0566427372,-0.2401308417,-0.0296813324,-0.0792521834,-0.1606878340,0.2069268823,-0.1279806793,0.1667649895,-0.0268223099,-0.2573844194,0.0771850944,-0.1920535266,0.2223779112,-0.2590492964,-0.1534225196,-0.0504577346,-0.0740919709,0.0693155080,0.1239016354,0.0059196870,0.1224140897,-0.1068952680,-0.3756493330,-0.0319518596,-0.0534378663,0.0139286686,-0.0714002699,0.0608801842,0.0352819785,-0.2458993793,0.0180874877,0.0377183147,0.1125809476,-0.0100752665,-0.1646455526,0.1255031228,0.0645582154,-0.2129942030,-0.0138706109,0.0864012688,0.2653868198,0.2136184573,-0.0157410968,0.0693156272,-0.1510330439,0.1289690733,-0.3559937477,-0.0569664910,0.1672777236,-0.0040400312,0.0016701762,0.0987750962,-0.1847078800,0.0335529596,0.0465786569,-0.1601575762,0.0918901786,0.1580878347,-0.0714434311,0.0102636591,-0.0605387278,0.2330416590,0.0461739488,-0.1100869030,-0.1086185127,0.1962602288,-0.2672860324,-0.0608701967,0.0344541892,-0.0395181663,-0.1986378729,-0.2700870931,-0.0375603884,0.5369748473,0.2191248387,-0.1717069894,0.0749654546,-0.0816293433,0.0346602052,0.0648424178,0.1582347751,0.0002757516,0.0390113071,-0.1680779904,0.0797494426,0.2796044350,-0.0252287537,0.0469041727,0.3751408458,0.0442999564,-0.0459038764,0.0630973727,0.0323526151,-0.1758389622,-0.0248158760,-0.1345069408,-0.0131863840,-0.0270977132,-0.0167664420,0.0232225396,0.0619839020,-0.1504615247,0.1164827719,-0.0933889896,-0.0880097598,-0.0514553189,-0.0445166864,-0.1423233151,-0.0345846824,0.2095937133,-0.2042971253,0.1786906272,0.1428397000,0.0299171917,0.1981410086,0.0629488900,0.1121732891,0.0062867040,-0.0798249170,-0.0320910364,-0.1278708577,-0.0467681773,-0.1434368640,0.0409308188,-0.0070125381
n001291/0257_01,-0.0230960436,0.1321663558,0.0675251707,-0.0039329026,-0.1915568411,-0.0380177274,-0.0330501944,-0.1647419930,0.2346780300,-0.1146303788,0.0825088918,-0.0426666662,-0.3072002530,0.1062678695,-0.1502103209,0.1427309066,-0.1480589360,-0.1665098071,-0.0727833956,-0.0769322291,0.0712331012,0.0398276486,0.0250180941,0.1860962063,-0.1156623960,-0.3952344358,-0.0457400233,-0.0673192441,-0.0666471273,-0.1789001375,0.0812180191,0.1020209938,-0.2330822796,0.0110924207,-0.0250601955,0.0929089189,-0.0344358012,-0.1446548104,0.0967460349,0.0562048778,-0.2594825923,-0.0278153084,-0.0263522919,0.3293857276,0.2207346857,-0.0161996931,0.0548959598,-0.1698549390,0.1494123489,-0.3227368593,-0.0326987691,0.1707026064,-0.0335815884,-0.0040023588,0.0772466660,-0.1776817590,0.0564869754,0.0459881127,-0.2014773786,0.0779630467,0.1498190612,-0.1049198955,-0.0309864841,-0.0884425119,0.2406477481,0.1010620520,-0.1227902323,-0.1207948327,0.1647692323,-0.2863951027,-0.0391707420,0.0808989555,-0.0622170828,-0.2204200774,-0.2677344382,-0.0329480655,0.5010831356,0.2037107199,-0.1627232730,0.0623225011,-0.1392633468,0.1065670103,0.0563609526,0.1743399352,-0.0369719788,0.0703644976,-0.1628385335,0.1278578192,0.2058579773,0.0011840053,-0.0463209487,0.3447228968,-0.0311962087,-0.0384724811,0.0538374856,0.0677333772,-0.2329625189,0.0361576974,-0.1424764991,-0.0554712415,0.0818709955,0.0124696456,0.0262521375,0.0875302181,-0.1691715866,0.2005468756,-0.1006002352,0.0046656337,0.0383888185,-0.0786494687,-0.1595021188,-0.0020307910,0.2216576487,-0.2932203710,0.1747447699,0.0945017189,0.0328802653,0.1433607638,0.0218311325,0.0805545524,-0.0210159980,-0.1215458363,-0.1636306047,-0.0302688181,0.0419580042,-0.1015449315,0.0270877741,-0.0523935407
n001291/0276_01,-0.1908622682,0.0873289555,0.0963591188,-0.0777906775,-0.1302870065,-0.0209365152,-0.0725528225,-0.1470788270,0.1884667128,-0.1386247873,0.1419286728,-0.0371946171,-0.2752714753,0.0250365529,-0.1212993562,0.1464316547,-0.2343764603,-0.1500404328,-0.0913508683,-0.0208029971,0.0222011358,0.0327841081,0.0424802713,0.0888279229,-0.0948781371,-0.4501194060,-0.0895500034,-0.0463033952,-0.0077413600,-0.0993291810,0.1072747558,0.0163925737,-0.2461215258,0.0152919181,-0.0260159541,0.1301018745,-0.0290087145,-0.1048465893,0.0862699300,-0.0015294449,-0.2246715277,-0.0625698715,0.0411204547,0.2899791300,0.2847541869,0.0399399288,0.0045013186,-0.1415369362,0.0888772383,-0.3688643575,-0.0244202428,0.1586340070,-0.0276781116,0.0278041381,0.1004597545,-0.0997395441,0.0392669514,0.0659671426,-0.1696558297,0.0438787639,0.0961622000,-0.0222434029,0.0130831664,-0.0854004622,0.2712923586,0.0663991123,-0.1934276819,-0.0744786188,0.1847773939,-0.2595175505,-0.0001626965,0.0639984459,-0.0654117838,-0.2464053929,-0.2868351936,-0.0111875962,0.5364019275,0.2295743823,-0.1385658234,0.0246646628,-0.1499463618,-0.0122470669,0.0109149627,0.1581365317,-0.0450557508,0.0252215490,-0.1055944860,0.0966393352,0.2323760390,0.0303327721,-0.0152513301,0.3179248869,0.0076613091,-0.0400609225,0.0365635045,0.0661424920,-0.1635022908,-0.0439565107,-0.1940909624,-0.0700306520,-0.0048396690,0.0204721428,0.0180424284,0.1149396375,-0.1053248197,0.2314179689,-0.0278711636,-0.0472926721,0.0265400149,-0.0377826542,-0.1110034287,-0.0482176282,0.1929975897,-0.2421161532,0.1409064680,0.1616374552,0.0864831060,0.1767254621,0.0479630418,0.1013233960,-0.0221446529,-0.0228210278,-0.0875889063,-0.0617898032,-0.0213070568,-0.0961834192,0.0779927894,-0.0243467726
n001291/0369_01,-0.0912054628,0.1277630925,0.1342523694,-0.0961080194,-0.1406173557,0.0260297470,-0.0896783471,-0.1015773192,0.2167000324,-0.0952288136,0.0818696767,-0.0350409485,-0.3331759572,0.0263117850,-0.1143189594,0.1689843237,-0.1660342067,-0.1402845532,-0.1185334101,-0.0499067903,-0.0187456198,0.0659276769,0.0093465038,0.1316999942,-0.0982960314,-0.4240662754,-0.0611749589,-0.0295306258,-0.0983100682,-0.1579930782,0.0785024241,0.0226250030,-0.2267151177,-0.0233500320,0.0128666526,0.1522870809,-0.0649305433,-0.1354493946,0.0649272650,0.0534977540,-0.2299084514,-0.0419001505,0.0789265707,0.2629133761,0.1970245987,0.0623915382,0.0432121493,-0.1237873435,0.1227186248,-0.3549633920,-0.0328588486,0.1914159060,-0.0162595212,0.0104434323,0.1153554767,-0.1466877311,0.0292578712,0.0926155448,-0.1660285145,0.0703822374,0.1088961363,-0.0765523911,-0.0871745422,-0.0735568926,0.2312531769,0.1010345444,-0.1881480068,-0.1300573200,0.1526627243,-0.2369364202,-0.0237592645,0.0924335495,-0.0487576351,-0.2078544199,-0.2649591863,0.0077404333,0.5007532239,0.1945524812,-0.1397713423,0.0238488726,-0.1405436844,0.0410586931,-0.0489838347,0.1937836707,-0.0573153682,0.0805992410,-0.0777993500,0.1133366004,0.1727592498,0.0383166075,0.0264872219,0.3090168238,0.0146625265,0.0040300302,-0.0086325929,0.0319972970,-0.2021662593,-0.0278015025,-0.1558108479,-0.0767552704,0.0902319029,0.0524173826,0.0519841202,0.0751990080,-0.1460313201,0.1968077719,-0.0442056432,-0.0619211420,0.0719692260,-0.0226175878,-0.1182387695,-0.0499463268,0.2259746641,-0.2815266848,0.1180402562,0.1560899317,0.0392426178,0.1113358587,0.0932613835,0.1031899527,0.0308978558,-0.0656930804,-0.0988824219,-0.0818715021,0.0039494596,-0.1208494008,0.0469543561,-0.0706799477
n001291/0287_01,-0.1521178484,0.0829045996,0.1246086881,-0.0092173750,-0.1724052131,-0.0836077854,-0.0360059068,-0.1194312572,0.2179216146,-0.0658609793,0.1114347056,0.0083218496,-0.3040102720,0.0786540806,-0.2103283405,0.1443575025,-0.2490652055,-0.1268325001,-0.0185060762,-0.0998674929,0.0547426827,0.0965520144,0.0785523281,0.1532923579,-0.0658975840,-0.3799563944,-0.0515083000,-0.0994298682,-0.0049643544,-0.0761220455,0.0636636466,0.0961866751,-0.1997077018,-0.0081746299,0.0437478423,0.1160863489,-0.0204462316,-0.0936231092,0.1497503668,0.0192688815,-0.2251683325,-0.0167816281,0.0178174209,0.3439584970,0.2316658050,0.0240110625,0.0368154347,-0.1898923218,0.1794308573,-0.3495853543,-0.0263952930,0.2675153613,-0.0494819991,-0.0245949253,0.0889487267,-0.2059227377,0.0507678539,0.0583229735,-0.1739697754,0.0841135979,0.1295014024,-0.0586635694,0.0219193473,-0.0722609311,0.1519803256,0.0556633659,-0.1503738314,-0.1275522262,0.1783457994,-0.2810064852,0.0142951570,0.1531925797,-0.1205808148,-0.2455654144,-0.2288262397,-0.0283119474,0.5908561945,0.1841673404,-0.0656930208,0.0596121512,-0.1393599808,0.0379391201,0.0395701937,0.1807783991,-0.0836314261,0.0338060148,-0.1686826199,0.1164396256,0.1685878932,0.0219709277,-0.0400009230,0.2823216617,0.0161017403,-0.0050869826,0.0623640195,0.1164988130,-0.2041659653,0.0176570695,-0.1784314662,-0.0339125246,0.0133230332,-0.0401453152,0.0295845550,0.0634660423,-0.1383482367,0.1535752565,-0.0902155563,-0.0347234234,-0.0416957512,-0.0796277896,-0.1066440269,0.0431265011,0.2102995217,-0.2435529381,0.2225518823,0.1399573535,0.0392239690,0.1916079223,0.0038904818,0.0762330666,-0.0576620772,-0.1209317371,-0.0789399073,-0.0748283193,-0.0321910158,-0.1006217971,0.0639404505,-0.0716950595
n001291/0324_01,-0.1319059432,0.1783296168,0.1145878136,-0.0882427022,-0.1713944972,-0.0282759219,-0.0724607930,-0.1646770537,0.2562767565,-0.1382419765,0.1292976886,-0.0119876331,-0.2649703920,0.0432788543,-0.1330592185,0.1742407084,-0.2325476110,-0.1778374910,-0.1085378006,-0.0706480294,0.0665601194,0.0587339066,0.0339539945,0.1003518850,-0.1414904594,-0.4274279475,-0.0467839129,-0.0880542845,-0.0287910253,-0.1393727660,0.1412438154,0.0680263788,-0.2537366748,0.0339359120,-0.0449825749,0.0920066386,0.0060780989,-0.1202501729,0.1034875512,-0.0029332237,-0.2482138723,-0.0591723435,0.0175629221,0.2524879873,0.2423852682,-0.0266208742,0.0731742680,-0.1606161445,0.1290324777,-0.3499529362,-0.0038356818,0.1707403809,-0.0856531709,0.0463943556,0.1202432141,-0.1813269258,0.0468407311,0.0412182957,-0.1870168895,0.0809914842,0.1754271090,-0.0794107318,-0.0412467495,-0.0882446617,0.2478302717,0.1204251945,-0.1418792903,-0.1458828449,0.1763116419,-0.2335178852,-0.0054756622,0.0958575010,-0.1033134386,-0.2038000822,-0.2890916467,-0.0215033460,0.5145278573,0.2340146899,-0.1364613771,0.0240116715,-0.1541765928,0.0612788089,0.0380105861,0.1437520683,-0.0119705945,0.0302979574,-0.1172898263,0.1675696075,0.2215416878,0.0313267969,-0.0573868454,0.3285028934,-0.0251946896,-0.0293604061,-0.0166431088,0.0549202561,-0.1884888262,-0.0051769414,-0.1363185346,-0.0089622410,0.0221665297,0.0674263239,-0.0000204341,0.0960191861,-0.0697976798,0.2018955052,-0.0747103244,0.0032429164,-0.0483442098,-0.0544603691,-0.1262629330,0.0124006281,0.2159271389,-0.2033487260,0.2441628277,0.1102594435,0.0452220850,0.1596033871,0.0393807814,0.0982179493,-0.0175861251,-0.0846794173,-0.1214165613,-0.0397779606,0.0046016276,-0.1114638969,0.0771057531,-0.0214370992
n001291/0442_01,-0.1758180112,0.1386180520,0.1029985994,-0.0848344415,-0.1935989410,-0.0603791177,-0.0412022769,-0.1207095608,0.1616956145,-0.0039794054,0.1260630190,-0.0046120659,-0.2936962545,-0.0146108158,-0.0396406762,0.1183817834,-0.2618058920,-0.1652255654,-0.0220406801,-0.0078559425,0.0454643741,0.0283803735,0.0412135683,0.1191340983,-0.1360939592,-0.3746877313,-0.0719166324,-0.0716862902,0.0248907302,-0.0615405440,0.0165849198,0.0768437013,-0.2381525338,-0.0615504533,0.0507088266,0.1159501374,0.0071077938,-0.0834472552,0.1532500833,-0.0324175619,-0.1868937612,-0.0493742563,0.0868992805,0.2300018817,0.3021878600,0.0133335525,0.0582978502,-0.1344488114,0.0927482098,-0.3101714253,0.0014045965,0.2406936288,-0.0241996888,0.0239507630,0.0533860885,-0.1655616760,0.0255929474,0.0678226277,-0.2299300283,0.0484933294,0.1382798254,-0.0979045928,-0.0320300907,-0.0578873493,0.2079562992,0.0561780259,-0.1350577325,-0.1373241246,0.1842630506,-0.2385541946,-0.0373224244,0.0538934469,-0.1027025729,-0.1809754223,-0.2852884531,-0.0314731896,0.4036979079,0.1942441911,-0.1650318503,0.0965262949,-0.1588436514,-0.0111493934,0.0093072802,0.1026895940,-0.0430326201,0.0227367319,-0.1527873725,0.1148988605,0.1906068176,0.0264737979,0.0697078109,0.3082993031,0.0678032860,-0.0145263327,0.0977518633,0.1063462719,-0.1326862425,-0.0622647032,-0.1969718486,-0.0231707618,0.0064273654,-0.0218479596,0.0446490645,0.1228921115,-0.1425849795,0.1301253289,-0.0385083929,-0.0434075221,-0.0839540660,-0.1486860663,-0.0715631992,-0.0303348731,0.1758617610,-0.2350647002,0.1774414033,0.1286936849,-0.0142556084,0.1540056467,0.0240865499,0.0793864727,-0.0304695945,-0.1015031412,-0.0589858405,-0.0499425866,0.0082577597,-0.0900746658,0.0891604796,0.0132630533
n001291/0049_01,-0.0986893252,0.1569930166,0.1564525664,-0.0969244465,-0.1768115610,-0.0040176678,-0.0487515591,-0.1725425869,0.2340343744,-0.1443521231,0.1522373408,-0.0559903607,-0.3967241645,0.0341587625,-0.1102229208,0.1188281253,-0.1674212366,-0.1255658716,-0.0279138852,-0.0595727451,0.0621169358,0.0327301025,0.0008321424,0.1035218984,-0.1000271589,-0.3893862665,-0.0689894855,-0.0544821993,-0.0949101076,-0.1290678829,0.0952773094,0.0188831035,-0.1807479709,0.0306563694,-0.0547532961,0.0249297172,-0.0128837451,-0.1119681895,0.1245716587,-0.0069132885,-0.2597391009,-0.0543052815,-0.0264599547,0.2154502273,0.2342276424,0.0162194539,0.0266271420,-0.1079259515,0.1899588257,-0.3445473015,-0.0551820584,0.2060465366,-0.0101379324,-0.0659079254,0.1134206653,-0.1529076993,-0.0376279689,0.1019317359,-0.1485680342,0.0478466488,0.1452236772,-0.1495608687,-0.0391530469,-0.0971911401,0.2351577729,0.0370408297,-0.2248486280,-0.0588234849,0.1682012230,-0.2257802188,-0.0123117147,0.0818869174,-0.0876508728,-0.2180224061,-0.2371450514,0.0522476286,0.5074939728,0.2017379701,-0.1642001420,0.0361133181,-0.1659949720,0.1104413569,0.0228899717,0.1903109998,0.0003157165,0.0206204541,-0.1138218567,0.0285239220,0.1561861634,-0.0072475374,0.0025495056,0.3890630603,-0.0307885818,0.0645259246,-0.0154548977,0.0233094860,-0.1820352972,-0.0481430255,-0.0696044415,0.0111658499,0.0407520682,0.0056477305,0.0314249918,0.0811962336,-0.1434607804,0.1875653565,-0.0895138979,0.0333896615,0.0200796984,-0.0780726820,-0.0592176840,-0.0091500524,0.1817665845,-0.3222798705,0.1254068911,0.0891969725,-0.0080718743,0.1647176296,0.0433115214,0.0699156672,0.0182945542,-0.0871958658,-0.1084383354,-0.1072183177,0.0397160091,-0.1250319630,0.0625155121,-0.0728554130
n001291/0157_02,-0.0488231741,0.1493689120,0.0452797152,-0.0111845946,-0.1330265105,-0.0288276747,-0.0279835574,-0.1446661651,0.2340573967,-0.0924558714,0.0981189534,-0.1153820753,-0.3668028712,0.0380041376,-0.1224777773,0.1788596958,-0.1604941040,-0.1337467879,-0.0653588995,-0.0373914763,0.0820121393,0.0042537861,0.0135611482,0.1586433053,-0.1325090379,-0.4415948093,-0.0641671717,-0.0730030164,-0.0856529027,-0.1829996854,0.0906877890,0.0964525938,-0.1892047375,0.0190507974,-0.0455842800,0.0733580962,-0.0181638803,-0.1227193475,0.1173291132,0.0578388087,-0.2698300481,-0.0483771972,-0.0112540303,0.3410480618,0.2457021773,-0.0422411636,0.0751532540,-0.1259497255,0.1470409632,-0.3286036849,-0.0992621779,0.1605210602,-0.0723433942,-0.0024593063,0.1012448594,-0.1737772971,0.0032539796,0.0783202574,-0.1975444704,0.0768518597,0.1311193854,-0.0895228311,-0.0448911563,-0.0706337988,0.2321952134,0.0512562394,-0.1763043851,-0.1075062081,0.1828563362,-0.2599110603,0.0295630321,0.0986045599,-0.0951560512,-0.2614502311,-0.3142051399,-0.0106199682,0.5101402402,0.2115105391,-0.1724658906,0.0427841544,-0.1384858936,0.1049862131,0.0906695649,0.1785536557,0.0214230064,0.0746560320,-0.1811095178,0.1016805768,0.1851661056,-0.0074153170,-0.0450550355,0.3298456967,-0.0258992296,-0.0097673563,0.0158627182,0.0695796311,-0.2340867370,-0.0255667735,-0.1840425134,-0.0674133301,0.0470446199,0.0123051051,0.0218758117,0.0896412507,-0.1034236029,0.2073505521,-0.0266330503,0.0114647960,-0.0317966267,-0.0395539925,-0.1449311376,0.0225067902,0.2127618939,-0.2830650210,0.1237694100,0.1086634472,0.0419702940,0.1240021959,0.0378605053,0.0619902462,-0.0382917374,-0.0968106762,-0.1263433546,-0.0337356217,-0.0037246654,-0.0527397394,0.0458052680,-0.0829590634
n001291/0357_01,-0.0425069742,0.1053423062,0.0782807022,-0.0418777578,-0.2156933844,-0.0596011281,-0.0024672169,-0.1411281675,0.3105385900,-0.1326276660,0.0872534364,-0.0503435582,-0.3064585924,0.0941658691,-0.1078509241,0.1159482002,-0.2525273561,-0.2121190876,-0.0083912853,-0.0380574316,0.0861009210,-0.0089934962,0.0398719534,0.1395033002,-0.1350945085,-0.4715874195,-0.0577783734,-0.0261523947,0.0303394981,-0.0921169296,0.0723382831,0.1241299361,-0.2677828670,0.0047484525,-0.0404310152,0.0999007076,-0.0360045470,-0.1503530294,0.1154609695,0.0029397290,-0.3030636907,-0.0668765754,-0.0128729418,0.2798800766,0.2883118391,-0.0004357540,0.0288165342,-0.1140370518,0.1382075846,-0.3735520542,-0.0043589342,0.2025792748,-0.0084207198,0.0183649957,0.0644468069,-0.1796413660,-0.0094562648,0.0728075206,-0.1865388304,0.0304679703,0.1628057957,-0.0762475803,0.0209088251,-0.1164835244,0.2295923531,0.0836496726,-0.1442406178,-0.0695140809,0.1629223078,-0.3004232049,-0.0094959736,0.0452360846,-0.0821025744,-0.2310494781,-0.2657188177,-0.0054168273,0.4595857263,0.1986158490,-0.0913756564,0.0219856203,-0.0752970502,0.1117798463,0.0362390652,0.1475305855,-0.0648993999,0.0424296260,-0.1550497413,0.1317741722,0.2126135081,-0.0087008020,-0.0384785011,0.3189338446,-0.0376197696,-0.0108366115,0.0283918288,0.0909107700,-0.1597476155,0.0519247167,-0.1982253194,0.0339148790,0.0478154868,0.0185197294,-0.0057596043,0.0967023596,-0.1339986473,0.1656191051,-0.0760978982,-0.0225655790,-0.0022619772,-0.1135355458,-0.1470260620,-0.0174832754,0.1809530556,-0.2706381381,0.1982970238,0.1314311624,0.0406691246,0.2057636082,-0.0166019872,0.0434941649,0.0028360672,-0.1281149536,-0.1176914498,-0.0385952443,0.0423784703,-0.0974983051,0.0328048244,-0.0407243446
n001291/0229_01,-0.1004826725,0.1482936740,0.0948685184,-0.0231997520,-0.1485698670,-0.0147874597,-0.0213729888,-0.1289767921,0.2009472847,-0.0958579257,0.1738208383,-0.0580393523,-0.3239926994,0.0840000808,-0.1213332787,0.1608578116,-0.1309787631,-0.1344126910,-0.0937262923,-0.0829130784,0.1117454395,-0.0063887537,-0.0040066913,0.1653025895,-0.1401902735,-0.3590330184,-0.0555071197,-0.0051649483,-0.0011197748,-0.1565192640,0.0945842043,0.0887318924,-0.2279996276,0.0590894520,-0.0413981453,0.1049906313,-0.0566661768,-0.1445440352,0.1385006011,0.0029041255,-0.2455125600,-0.0117072714,0.0437158048,0.2842684388,0.2014734596,-0.0296422131,0.0890462548,-0.0728867054,0.1265528053,-0.3390983641,-0.0657145530,0.2112113237,-0.0060822493,0.0159725044,0.1078846827,-0.2086171806,0.0286376234,0.0820272714,-0.1634028852,0.0748086497,0.1048763022,-0.1112519801,-0.0644649863,-0.0871521756,0.1790656447,0.0774161667,-0.1732508987,-0.0980085433,0.1972777992,-0.2173833549,0.0392917916,0.1343711913,-0.1070619822,-0.2324450612,-0.2700073123,0.0381526202,0.5638988614,0.1816723198,-0.1172301471,0.0907681659,-0.0800273865,0.0780862272,-0.0188645869,0.1480492353,-0.0774706975,0.0474194512,-0.1804379374,0.1529986858,0.1599818766,0.0322455466,0.0050225696,0.3023908734,0.0164936595,-0.0535637848,0.0144782867,0.1171907336,-0.2108205110,-0.0636471361,-0.1020498052,-0.0342065021,0.0442995057,-0.0641737357,-0.0009690570,0.0712734386,-0.1537063867,0.2117772996,-0.0666149855,0.0035949554,-0.0364990644,0.0076123406,-0.1073030308,0.0400654972,0.1477985978,-0.2972299457,0.1119107604,0.1200269908,-0.0019315651,0.1300261766,0.0414991155,0.1179090738,-0.0094085950,-0.0667504445,-0.0935296193,-0.1141667590,-0.0367768072,-0.0985428244,0.0241579041,-0.0379156359
n001291/0383_01,-0.1286500990,0.1464362293,0.0531419516,-0.0973511562,-0.1674070209,-0.0161398239,-0.0132063963,-0.1730782092,0.2408618629,-0.1193436235,0.2111892700,-0.0691153407,-0.3450560272,0.0689803511,-0.1684710681,0.1127968282,-0.2158074975,-0.0975871757,-0.0746818557,-0.1122601777,0.0837497190,0.0469939336,0.0089442963,0.1454008371,-0.0770791918,-0.3142809868,-0.0384247750,-0.0665754378,-0.0292140283,-0.2005269229,0.1242585480,0.0872732252,-0.1739389747,0.0050850194,-0.0477689989,0.0484761298,0.0149362087,-0.0833922327,0.1388090551,-0.0588029996,-0.1888989359,-0.0791855454,0.0271078721,0.2741516531,0.1963979453,0.0117914006,-0.0098117571,-0.1321865171,0.0904701725,-0.2971744835,-0.0843802989,0.2069393396,-0.0147443712,-0.0130782267,0.0864210650,-0.1795990914,-0.0415480509,0.0803684369,-0.1161376312,0.0874500349,0.1077810898,-0.1233344078,-0.0030301698,-0.1292221993,0.2464924604,0.0288395546,-0.1944119185,-0.1087892354,0.1634816527,-0.2379706651,-0.0844831765,0.1213077828,-0.0870729759,-0.2281176746,-0.2489367276,-0.0348523594,0.4511332512,0.2244505286,-0.1554358453,0.0426494591,-0.1769092232,0.0350938141,0.0187950041,0.1628563106,0.0046507753,0.0307690538,-0.1363276839,0.0645430833,0.1689732522,0.0039040437,-0.0600775443,0.3577331603,-0.0334086642,-0.0019490728,-0.0281043407,0.0606551133,-0.1817281842,-0.0148470383,-0.1003204286,-0.0367407799,0.0408541486,0.0071098725,0.0273211673,0.1151002795,-0.1151506454,0.1663977951,-0.0851911977,0.0433652475,-0.0155604817,-0.0261181798,-0.0682605579,-0.0006300336,0.2331942767,-0.3117011487,0.1662310213,0.1389816701,0.0305574201,0.1494850814,0.0295793749,0.0899824947,0.0185258724,-0.0742061883,-0.1113713458,-0.0843954906,-0.0141344704,-0.1161728129,0.0662600622,-0.0318393074
n001291/0430_02,-0.1021616980,0.0100816013,0.0917150080,-0.0498989038,-0.0511220694,-0.0351063088,0.0189060308,-0.0804350153,0.0967406183,-0.0231986716,0.2799846530,-0.0143153798,-0.2256115973,-0.0857245624,-0.0131046567,0.1391685903,-0.0977558494,-0.0588193461,-0.0828400627,-0.0824930668,0.0640376359,0.0026404699,0.0371533446,0.0519614145,-0.1018280983,-0.2866587043,-0.0294196010,-0.1147589833,0.0990958363,-0.0786506832,-0.0019001449,0.0684683025,-0.1789937019,0.0004911926,-0.0096357679,0.0425932556,-0.0527303554,-0.0489418916,0.1441905200,0.0159842484,-0.1974744350,-0.0094000157,0.0063614221,0.2419135571,0.1741317511,0.0136239585,0.0664002150,-0.0434953310,0.0533484705,-0.2794072330,0.0286750887,0.0771438330,0.1004241183,0.0288581736,0.0567846708,-0.2252797633,-0.0040618218,0.0848807469,-0.1678134352,0.0949413851,0.0539794266,-0.0307974704,-0.0666041002,-0.0984957665,0.2258767635,0.0771192163,-0.1880022585,-0.0929415971,0.1643757224,-0.1033448279,-0.0244163647,0.0917837396,-0.1442575753,-0.1873945147,-0.2854893208,0.0716447756,0.3730471730,0.1458423883,-0.1796417534,0.0094070248,-0.1183510497,0.0755532011,0.0278661735,0.0598920770,-0.0633279681,0.0379962064,-0.0731996000,0.0067273527,0.1015962586,-0.0290369280,-0.0255417414,0.2488249540,-0.0179435015,0.0633461028,-0.0560701787,0.0305107944,-0.0716076866,0.0098306034,-0.1154594868,-0.0078337900,0.0050179251,-0.0706110820,0.0659240708,0.1071116775,-0.1968178898,0.1926240474,0.0060952604,0.0429972745,0.0196868088,0.0391487889,-0.0858973861,0.0254374444,0.1052026674,-0.2787589133,0.2180418670,0.2389537543,0.1596812308,0.0938099548,0.1125742048,-0.0082470058,0.0250676367,-0.0227975268,-0.2015076131,-0.0089476956,0.0416983515,-0.1248792559,-0.0209149830,0.0576261841
n001291/0378_01,-0.1805385947,0.2214465886,0.0608439259,-0.0011846782,-0.1837128848,-0.0604312941,-0.0654280931,-0.1472546756,0.1768448502,-0.0854570046,0.1028931141,-0.1335261166,-0.3019971251,0.0865533352,-0.1609631777,0.1339984387,-0.1264089495,-0.1290193945,-0.0603898801,-0.0478396788,0.0708344281,0.0453264304,0.0380961522,0.1570652574,-0.0803992748,-0.3720104992,-0.0777687728,-0.0202599019,0.0091587268,-0.0855104700,0.0240947567,0.0462694317,-0.2171751261,-0.0706507415,0.0208508372,0.0909494013,0.0110046342,-0.0633471310,0.0988854915,-0.0856951550,-0.2227919996,-0.0735882074,0.1271338463,0.3142907917,0.1716683358,0.0837161988,0.0111434208,-0.1239355579,0.0800824761,-0.2325343639,-0.0308032464,0.1994392127,-0.0343570188,0.0180295072,0.0320403241,-0.1684434116,0.0187601075,0.1188249961,-0.1520396769,0.0879692063,0.1449771821,-0.0443441570,-0.0157860443,-0.0752638429,0.2579103708,0.0750408620,-0.1577664614,-0.1149936318,0.1547459811,-0.2879166901,0.0250817910,0.0535550825,-0.0871107429,-0.2119907886,-0.2721046209,-0.0107133240,0.4840568900,0.2025032490,-0.0915906727,0.0513158739,-0.0541967377,0.0408071876,0.0354202427,0.1799429804,-0.1007004157,0.0438377410,-0.1307114810,0.0913821384,0.2106553614,0.0261256583,-0.0149618378,0.2833045125,0.0226449780,-0.0361658782,0.0274287425,0.0986824110,-0.2253480852,-0.0631427467,-0.1763968617,-0.0124907661,0.0097544463,-0.0222748443,0.0021897680,0.1324708462,-0.1089108735,0.1263945848,-0.0505029112,0.0103090946,-0.0448818468,0.0218338519,-0.0981402174,-0.0879847333,0.1675969809,-0.1611498296,0.1323467791,0.1113165766,0.0428843796,0.1591629386,0.0857409537,0.1194097325,0.0673027933,-0.0120778568,-0.0481026359,-0.0977445915,0.0394860692,-0.1425438225,0.0991777182,-0.0283646509
n001291/0433_04,-0.0973327532,0.1370096952,0.1001320854,-0.0417951755,-0.1626398116,0.0191627927,-0.0149847548,-0.1152900830,0.2534954548,-0.1391527802,0.1370859593,-0.0631211624,-0.2795376778,-0.0128495852,-0.1344681829,0.2344562858,-0.1836043745,-0.1955748796,-0.0969408229,-0.0823433697,0.0356027000,0.1120503396,0.0503320806,0.0493131019,-0.1447875500,-0.3870454133,-0.0068357177,-0.0625819117,-0.0274274908,-0.1315181851,0.0799546987,0.1658231467,-0.1829289645,-0.0130206309,-0.0167340524,0.0874877125,-0.0454236679,-0.1306611300,0.2081306577,-0.0084629022,-0.2978629172,-0.1076892167,0.1011256427,0.3437439501,0.2463911027,-0.0194414221,0.0111471992,-0.0603601299,0.1172167361,-0.4229400754,-0.0253200289,0.1583790183,0.0012789206,0.0619122013,0.0601287223,-0.1646409482,0.0204830877,0.1275953352,-0.1880101413,0.0209557135,0.0969138816,-0.1348014921,-0.0105239516,-0.0689522475,0.2702855468,0.0859025046,-0.1221872941,-0.1093659848,0.1710587293,-0.2169488817,-0.0623634979,0.0680254847,-0.0881215185,-0.2239827216,-0.3018635511,-0.0266608857,0.4560030699,0.1966486424,-0.1088223681,0.0822541267,-0.0677692145,0.0351855867,0.0298898425,0.1687011421,-0.0219488535,0.0075780647,-0.1019404605,0.0502338111,0.2359307855,-0.0563417561,-0.0476360731,0.3037818968,0.0181351285,-0.0716241524,-0.0125297857,0.0429338925,-0.1163095608,0.0649490952,-0.1579225659,-0.0007037343,0.0620945469,0.0061810599,0.0394430459,0.1097743586,-0.1847035587,0.2232445478,-0.0504456498,0.0033194842,0.0425076038,-0.0794760510,-0.0719355866,-0.0115719223,0.2120192945,-0.2321890444,0.1538581997,0.1602089703,0.0128148850,0.2360548228,0.0872303098,0.1175292283,0.0430745073,-0.0469073132,-0.1555312425,-0.0832374766,0.0876292959,-0.0828774646,0.0492080189,0.0527254120
n001291/0493_02,-0.1278714538,0.1690638959,0.0699924827,-0.0973620936,-0.1803557575,0.0202293787,-0.0821751133,-0.1634534597,0.2190939933,-0.0967866927,0.1714860350,-0.0325859077,-0.3457620144,0.0696219131,-0.1242103353,0.1526541412,-0.2230710387,-0.1200060397,-0.1085493639,-0.0278299116,0.0389019027,0.1037617028,0.0628239214,0.1287291348,-0.1492909789,-0.4086600244,-0.0272425935,-0.0599355474,-0.0274099223,-0.0919385999,0.0885089710,0.0386770852,-0.2333921194,0.0353747979,0.0189305730,0.0721708685,-0.0150859654,-0.1501138806,0.1332671493,0.0140129421,-0.2426942587,-0.0892359987,0.0562810153,0.2369938046,0.2459223717,-0.0566697940,0.0674185455,-0.1078623906,0.1186114699,-0.3670130372,0.0500902496,0.1815392524,-0.0002799560,0.0168167017,0.0904309601,-0.2052554339,0.0202985704,0.1081101596,-0.1506557465,0.0653098375,0.2072954625,-0.0298426859,-0.0236724168,-0.0145113682,0.2344559431,0.1444644779,-0.1746037006,-0.1276871264,0.1331720352,-0.2092823535,0.0255209003,0.0461279787,-0.1216903031,-0.2150218040,-0.2159151286,0.0049273223,0.4703138173,0.1962651610,-0.1449637860,0.0310196914,-0.1319433749,0.0751089752,0.0082444493,0.1120705456,-0.0670339465,0.0180451926,-0.1152285263,0.1553612500,0.2106816322,0.0300453696,-0.0148505475,0.3943699002,-0.0149400346,-0.0791980028,0.0714167953,0.0612469055,-0.1762997806,-0.0386172868,-0.0895813406,0.0202571638,0.0505995192,-0.0160188004,0.0463974327,0.0938539058,-0.1362969428,0.1956557631,-0.0897935927,0.0272843055,0.0512841195,-0.0703697056,-0.1098760962,-0.0258855373,0.2094967067,-0.1870372146,0.2058853358,0.0284762364,0.0473353490,0.1723468304,0.0574024394,0.1126070321,0.0393700972,-0.0253732130,-0.0685887858,-0.0665697902,0.0076341047,-0.1294167042,0.0857232064,-0.0272721350
n001291/0196_01,-0.1345488876,0.1856004149,0.1069201082,-0.0781312957,-0.1143722385,-0.0457178280,-0.0268530436,-0.2368241400,0.2606864870,-0.1503153145,0.1580089331,-0.0419759452,-0.2882000506,0.0264316406,-0.0414292365,0.1449865401,-0.1124225557,-0.1700964123,-0.0950250179,-0.0623567849,0.0778438598,0.0492372215,0.1094244197,0.1546029001,-0.1616581231,-0.3834240437,-0.0575852506,-0.0713239759,-0.0104539599,-0.0784206837,0.1216842383,0.0474087633,-0.2261266708,0.0484366007,-0.0467823669,0.1008255631,-0.0522087812,-0.1107078120,0.1497415602,-0.0220199265,-0.3081485629,-0.0450875685,0.0106674219,0.2096971571,0.2119696289,-0.0150157455,0.0732288063,-0.1336454302,0.0981587097,-0.2755091190,0.0207789727,0.1501693726,-0.0705806017,-0.0108003048,0.1607640535,-0.1726524234,-0.0014306400,0.0816450119,-0.1310082972,0.0486730449,0.1196400523,-0.0431945100,-0.0520149246,-0.0786861405,0.2176311463,0.1040631756,-0.1636007130,-0.0418701209,0.1857043207,-0.2049231529,-0.0398249999,0.1252749413,-0.1114893705,-0.1897617579,-0.2613789737,-0.0168736670,0.5370815992,0.1390841603,-0.1553156078,0.0325796977,-0.0800025612,0.0849663317,0.0208548177,0.1481489986,-0.0573424771,0.0061022844,-0.0973831490,0.0734972209,0.2035038918,0.0437607095,-0.0499441586,0.3305470049,-0.0099618230,-0.0220488403,0.0129951611,0.0787452981,-0.1601760685,-0.0633513927,-0.1369354129,-0.0684057921,0.0550396070,0.0010187859,-0.0418124013,0.0944725126,-0.1992751509,0.2242860198,-0.0029833019,-0.0017121797,0.0365126356,0.0679458976,-0.1027473211,-0.0038638928,0.1585451663,-0.2334071249,0.1944462210,0.1189457327,0.0097531565,0.1464885473,0.0431087390,0.1039801836,0.0082708094,-0.0212865546,-0.0978039578,-0.1184236556,0.0444822982,-0.0910308361,0.0721491277,-0.0018240865
n001291/0095_01,-0.1464242786,0.1014059111,0.1462131888,-0.0371799842,-0.1394427866,-0.0285668895,-0.0181115456,-0.1986296177,0.2147185951,-0.0937021002,0.0938453525,-0.0494115651,-0.2747748792,0.0585730001,-0.1214636862,0.1368902624,-0.2060959637,-0.2050094754,0.0310617574,-0.0619511083,0.0708052292,0.0217582732,0.0275159609,0.1247506142,-0.1334658861,-0.2558960021,-0.0855837166,-0.0187392421,-0.0143585661,-0.0677604973,0.1239099428,0.0802978799,-0.2197131813,0.0189286359,0.0052553471,0.1081955880,0.0036267582,-0.1449913681,0.1790427119,0.0239743553,-0.2581019104,-0.0621095151,0.0749043748,0.2998387516,0.1848489046,-0.0268021151,-0.0179843977,-0.1215756387,0.1549318284,-0.3399493694,-0.0693697631,0.2339009196,0.0093884189,-0.0302448906,0.0754605383,-0.1690226197,0.0503137708,0.0763581693,-0.1189827323,0.0606550761,0.1479470879,-0.0869077668,0.0591255724,-0.1081088856,0.1633177996,0.0188980401,-0.1410735250,-0.0778145492,0.1256804168,-0.1637073606,-0.0481581986,0.1321092099,-0.1093932390,-0.2170747072,-0.2644796073,-0.0162945576,0.5789826512,0.1395985037,-0.1002041548,0.0729061216,-0.1049724743,0.0461033843,0.0391224436,0.1947616786,-0.0275154188,0.0099940738,-0.1269153506,0.0493912660,0.2145425975,-0.0053698234,-0.0062884977,0.2383231670,0.0161400679,0.0003493605,-0.0164437909,0.0493751876,-0.1320003718,0.0407758430,-0.1602320075,-0.0048895143,-0.0665674657,0.0227438286,0.0430292450,0.1028199121,-0.1760916114,0.1245181710,0.0259229243,-0.0791751817,-0.0404434502,-0.0230843201,-0.1191009730,0.0125418492,0.1429649144,-0.3018383384,0.1104456782,0.1452024877,-0.0051740520,0.1470141858,0.0485004447,0.1177600846,0.0012886394,-0.0267287344,-0.0293684900,-0.0790081695,0.0135287046,-0.0915138423,0.0329893529,-0.0403983183
n001291/0253_02,-0.1228820384,0.1165933907,0.1413664818,-0.0281448029,-0.1294337064,-0.0322463401,-0.0323511660,-0.1660005599,0.2367755175,-0.1132478267,0.1193875521,-0.0302202944,-0.2517411113,0.0698026642,-0.1652639359,0.1447449028,-0.1779135317,-0.1185865849,-0.0916312858,-0.0920849890,0.0863243639,0.1148120537,0.0655840859,0.1348451972,-0.1295519322,-0.3950355947,-0.0649734214,-0.1115215570,0.0118426066,-0.1080280170,0.1179793403,0.0287497193,-0.2278786749,0.0091821328,0.0056847017,0.0930360928,0.0092386995,-0.0963006914,0.1756233126,-0.0022500940,-0.2550846636,-0.0311488807,0.0661357641,0.2748424709,0.2045835555,0.0354376435,0.0555760525,-0.1829434633,0.1673750877,-0.3264805973,0.0050881132,0.1520819962,-0.0287169144,0.0144420816,0.1119582504,-0.2243355066,0.0349221379,0.0508160442,-0.2001667172,0.1192540973,0.1554471403,-0.0768311620,-0.0350739472,-0.0322974883,0.2355464101,0.0665039867,-0.1673171371,-0.1329366267,0.1834001839,-0.2761321664,0.0346428826,0.1271858066,-0.0551839694,-0.2110033929,-0.2596184909,0.0032438599,0.5590910316,0.1961782575,-0.1555855423,0.0657005012,-0.1446704566,0.0708494410,0.0407736562,0.1830799580,-0.0589683168,0.0838247612,-0.1171657443,0.1070102155,0.1802342236,0.0310113598,-0.0074731344,0.3552060425,-0.0049875416,-0.0004034974,0.0266164988,0.0804410949,-0.2600920200,-0.0035824468,-0.1437556297,-0.0268844925,0.0667118728,0.0548245460,0.0761084631,0.0761267021,-0.1626498997,0.2432680726,-0.1181558967,-0.0449940041,0.0019788062,-0.0511642173,-0.1210234165,0.0233387295,0.2351476401,-0.2481455803,0.1865656376,0.0844061673,0.0189613849,0.2079457194,0.0826396346,0.1245366335,0.0068313507,-0.0437239334,-0.1415196508,-0.0504079424,0.0192281716,-0.1642503738,0.0928408951,-0.0375959203
n001291/0051_01,-0.0854190513,0.2256031185,0.1034976020,-0.0963629559,-0.1644610465,0.0339937620,-0.0329121947,-0.1787904501,0.2137942016,-0.1470113993,0.1499757171,-0.0665312409,-0.3176125884,0.0600027554,-0.1046598479,0.1366536319,-0.1982270330,-0.1286095828,-0.1047910303,-0.0884311944,0.0823516995,0.0466902256,0.0182056800,0.1375852823,-0.0966229439,-0.3763188422,-0.0449802950,-0.0058141882,-0.0388553962,-0.1316808611,0.0789113492,0.0335335732,-0.2240930349,0.0405915268,-0.0772451907,0.0562020987,-0.0397279225,-0.1384016871,0.1152615473,-0.0162385404,-0.2049866915,-0.0167218484,0.0478569046,0.2604310513,0.2301583886,0.0091195349,0.0147269676,-0.0649793595,0.1019871533,-0.3740838766,-0.0683028996,0.2039400786,-0.0587251261,-0.0281094015,0.0901029110,-0.1569389552,-0.0176882055,0.0212382693,-0.1315972954,0.0581910424,0.1172686219,-0.1421116590,-0.0667284876,-0.1125980690,0.2479018569,0.0856388137,-0.1687106490,-0.1041243151,0.1053520218,-0.2397617251,-0.0159181226,0.0911385566,-0.0917874053,-0.2056389749,-0.2413638085,0.0268263295,0.5402379632,0.2121419311,-0.1370365918,0.0571921878,-0.1476889551,0.0600378178,0.0574009120,0.1518107653,0.0006310232,0.0064173490,-0.1582862735,0.1384640634,0.2005715519,-0.0348443426,-0.0546282530,0.3690782487,0.0064827800,-0.0123752141,-0.0298923384,0.0368115790,-0.1656349301,-0.0297799427,-0.1155633032,0.0060319547,0.0613929145,0.0146910548,-0.0228719711,0.0748462230,-0.1348442137,0.1642369330,-0.0563222468,-0.0119644795,0.0208826847,-0.0598027706,-0.1594138145,-0.0259515326,0.1992909312,-0.2926319838,0.1097132042,0.1401064247,-0.0028286185,0.1502832174,0.0609743968,0.0979935005,0.0460467227,-0.0427727774,-0.0860768333,-0.1055607870,0.0333211720,-0.0986364633,0.0587692112,-0.0503827184
n001291/0213_05,-0.1022109762,0.1180641055,0.0557828993,-0.0262497924,-0.1582058817,-0.0595262945,0.0299662203,-0.1627230942,0.2366144806,-0.0951383710,0.1004055217,-0.1021417230,-0.3147207499,0.1158102602,-0.1828423291,0.1507448852,-0.2146880329,-0.1337777972,-0.0782001913,-0.0740871876,0.0266711786,0.0583315417,-0.0089302482,0.1870964319,-0.0917390808,-0.3351413906,-0.0885796919,-0.0683755726,-0.0009313412,-0.0900866389,0.0861270055,0.0780911446,-0.1886886805,0.0112605970,0.0227673575,0.0404931419,-0.0134172803,-0.1068385839,0.1989166141,0.0200882815,-0.2602039874,-0.0574549362,0.0724549741,0.3131141067,0.1957113594,0.0119856354,-0.0002305135,-0.0995210111,0.1722835749,-0.3492335677,-0.0475385524,0.2320290208,0.0141912587,-0.0048726732,0.0627382547,-0.1856989712,-0.0099180788,0.1127742007,-0.1834982634,0.1122629941,0.1480497718,-0.1115776449,-0.0315570980,-0.0359427407,0.1637535989,0.0480168536,-0.1781378686,-0.1016655266,0.1913373619,-0.2937813997,0.0347336307,0.1012013108,-0.0668750033,-0.2839412093,-0.2218260169,0.0486866608,0.5344132185,0.2116815001,-0.0892138034,0.0564195476,-0.0956344754,0.0599023327,0.0618344843,0.1594045609,-0.0554390810,-0.0007858006,-0.1463827342,0.0889290720,0.1869419217,-0.0191072617,-0.0012852061,0.3243158758,-0.0302398037,-0.0391998217,-0.0179640576,0.0916299447,-0.1910654306,0.0075861057,-0.1222220436,0.0316158347,0.0880920738,0.0046558585,0.0364315435,0.0602470823,-0.1357523501,0.1443141401,-0.0709619224,-0.0540982485,-0.0281212106,-0.0544069670,-0.1467309892,-0.0060959123,0.2218221128,-0.2545398474,0.1764841974,0.1038236916,-0.0367881060,0.1667627692,0.0410884470,0.0769929588,0.0552918129,-0.1005631536,-0.0730331019,-0.1176537722,0.0572766550,-0.1065732092,0.0417976342,-0.0929490700
n001291/0393_01,-0.0322657377,0.1277308762,0.1440277994,-0.0343026482,-0.1583632678,-0.0055867992,-0.0317054912,-0.1253676862,0.2104130536,-0.1479431987,0.0965471566,-0.0433919504,-0.2758327425,0.1479535848,-0.0673171431,0.1193982214,-0.1515869349,-0.1756241024,-0.0389089882,-0.0718481392,0.0761120990,0.0565457940,-0.0411703549,0.1161290705,-0.1267649978,-0.3311719596,-0.0220985785,-0.0500218943,-0.0009389566,-0.1082396284,0.0504371636,0.0441329889,-0.2238842249,0.0553021953,-0.0305719636,0.0708231628,-0.0477970541,-0.1462278962,0.1822139919,0.0476962365,-0.3005169630,-0.0320752934,-0.0569695979,0.2996614873,0.2141471058,-0.0546827726,0.0002334900,-0.0718564391,0.1954449266,-0.3592401743,0.0044015404,0.2010506094,-0.0002015624,0.0348038599,0.0038118940,-0.1702181399,0.0303493943,0.0462968871,-0.1739027947,0.0631034970,0.2153330743,-0.1343120635,0.0384535044,-0.0724868476,0.2137201875,0.0545298494,-0.1635853499,-0.0526710227,0.1274817586,-0.2190009356,0.0145275202,0.0578137413,-0.1101025194,-0.1862161905,-0.2267709374,0.0371679515,0.5131461620,0.1423436254,-0.1347950697,-0.0219470523,-0.1158097163,0.0863543749,0.0940520614,0.1674742103,-0.0075959824,0.0109379264,-0.0971985012,0.1384802610,0.2570222616,-0.0166775361,-0.0223332513,0.3259231150,-0.0106319357,0.0104484539,-0.0043229037,0.0931702256,-0.1321906000,-0.0050441632,-0.1089481339,0.0907510370,-0.0272503737,-0.0099542271,0.0065354556,0.1464639455,-0.1740120351,0.2265620828,-0.0377621651,0.0186477825,0.0156917796,-0.0434335247,-0.1459861100,-0.0455111973,0.1795194298,-0.2112823278,0.1283612996,0.1113569811,0.0546284467,0.1195528805,0.0031316699,0.0478354543,0.0096935211,-0.0956704617,-0.1986662894,-0.0431674942,0.0433535501,-0.0655650795,0.0004234044,-0.0198813342
n001291/0424_01,-0.1231055409,0.1620517075,0.0902125314,-0.0586958937,-0.1497084796,-0.0515500978,-0.0289469734,-0.1323507875,0.2279141098,-0.1056385487,0.0997914597,-0.0368102714,-0.2844823301,0.1271556765,-0.1352417469,0.1283651143,-0.1544028968,-0.1658348888,-0.0267086066,-0.0692426190,0.0727615133,0.0312859081,0.0169455558,0.1215066537,-0.0359701514,-0.3269327283,-0.0674512014,-0.0598383322,-0.0091077117,-0.1588420123,0.0800038725,0.0161072481,-0.2397901118,0.0379387215,-0.0212179422,0.1225645468,-0.0112706665,-0.1224429235,0.1466764361,-0.0028411574,-0.2725807726,-0.0534334444,-0.0354057997,0.3345195055,0.2530615032,-0.0286163166,-0.0266926978,-0.1685464382,0.1738379151,-0.2913401127,0.0112342592,0.1923043877,-0.0363578275,0.0142813865,-0.0086286096,-0.1476664245,0.0525069423,0.0930752009,-0.1946603805,0.0519856662,0.2120481282,-0.1190957651,-0.0110850874,-0.1091412157,0.2473656684,0.0649141520,-0.1995786428,-0.1119252741,0.1610702723,-0.2423173934,0.0193089787,0.1019298211,-0.1169885322,-0.2345213145,-0.2223654240,0.0577241182,0.5501456857,0.1729870588,-0.1085628718,0.0195027553,-0.1382923722,0.0605825558,0.0526497476,0.2107983381,-0.0348100513,0.0354182981,-0.1329991519,0.1311297864,0.2415028512,-0.0092582237,-0.0572812222,0.2762643695,-0.0560436212,0.0146382321,-0.0193952825,0.1236930192,-0.1537987292,0.0174085330,-0.1698753834,-0.0012278678,-0.0213212147,-0.0399267897,-0.0304511916,0.1369438469,-0.1414312273,0.2028426528,-0.0342319459,0.0062114112,-0.0334266834,-0.0922482386,-0.0937354714,-0.0089804018,0.2017834485,-0.2351338714,0.2115652859,0.1226763651,0.0974103883,0.1537890434,0.0217097718,0.0973721072,0.0270620547,-0.1175732911,-0.1784249097,-0.0146064050,0.0315791368,-0.0507601649,0.0726664960,-0.0314148031
n001291/0055_01,-0.0610756539,0.1247867048,0.0855105817,-0.1167331636,-0.1272206604,-0.0492280312,0.0067387791,-0.1816075742,0.2525622249,-0.1297462434,0.1271559000,-0.1139337048,-0.3477074504,0.0790001154,-0.1442621797,0.1397177130,-0.1964012086,-0.1087537259,-0.0873107165,-0.0835679173,0.0443274193,0.0407571979,0.0237622373,0.1824209988,-0.1222377717,-0.3625156283,-0.0743791014,-0.0344267227,-0.0244354401,-0.1191653013,0.1267399490,0.0921912938,-0.2288510650,0.0093543390,0.0020739939,0.1122340709,-0.0625541806,-0.0711478963,0.1578486264,0.0220757090,-0.2155616432,-0.0654705986,0.0237471461,0.3059428632,0.2273831666,-0.0104765603,0.0176239721,-0.1119341105,0.1352336258,-0.3197415173,-0.0611674599,0.1860093325,-0.0174978916,0.0123067750,0.1171323135,-0.1663158089,-0.0031252196,0.1453113407,-0.1230565310,0.1270055622,0.1426445693,-0.1520291269,-0.0248039681,-0.0602247156,0.2454587221,0.0076489532,-0.2151325047,-0.0885604322,0.2016045898,-0.2482301891,0.0166914966,0.1039114371,-0.0589924119,-0.1810357720,-0.2482823431,-0.0297104996,0.5247763991,0.1704030037,-0.1681004018,0.0272909757,-0.1570661962,0.0726768151,0.0612661019,0.1752873659,-0.0179590918,0.0336369164,-0.1261139363,0.0827636197,0.1738607287,0.0081741596,-0.0061201304,0.3708054423,-0.0366546661,0.0309134778,-0.0040210187,-0.0025910398,-0.2290915251,-0.0309367366,-0.1343193501,-0.0259287991,0.0187913999,-0.0181035548,0.0329894871,0.1007334739,-0.1293259859,0.2197356671,-0.0356119759,0.0297012106,0.0280349124,0.0149226096,-0.1353745162,-0.0410664827,0.2346275896,-0.3140038848,0.1489678770,0.1185753420,0.0023922171,0.1092844456,0.0431895219,0.0898986012,0.0295893066,-0.0482830405,-0.1031803042,-0.0453334562,-0.0064850422,-0.1350840926,0.0538406000,-0.0745787248
n001291/0445_01,-0.1046267599,0.0745497048,0.0789945498,-0.0901470035,-0.1692725718,-0.0255035963,-0.0976497978,-0.1951314956,0.1463750303,-0.0735862628,0.1130225360,-0.0676074997,-0.2506928146,0.0614678562,-0.1140320748,0.1433185488,-0.1815707982,-0.1789068878,-0.0479860827,-0.0850223526,0.0653024167,0.0749340802,-0.0504915118,0.1580559909,-0.1125031635,-0.3230948150,-0.0436127372,-0.0660405830,-0.0234013163,-0.1387610286,0.0960109234,0.0452847183,-0.2192670703,0.0670251846,-0.0376305692,0.0642271340,-0.0282238442,-0.2054378241,0.1234210879,0.0347760953,-0.2414157391,-0.0079206834,0.0238639116,0.2469901741,0.2306767702,-0.0322029889,0.0318024866,-0.0889956281,0.1673022360,-0.3261069655,-0.0319883376,0.1995049864,-0.0858979523,-0.0307214633,0.0807327032,-0.1825266182,-0.0216741785,0.0469611250,-0.1825814694,0.0718848929,0.0905695036,-0.0863695145,-0.0147257317,-0.1710317284,0.1764589995,0.0781128258,-0.1305450052,-0.1077520251,0.1478889883,-0.2192184180,-0.0455248356,0.0708334371,-0.1377878487,-0.2080173790,-0.2870106101,0.0375072211,0.4729549885,0.1392980367,-0.0950698107,0.1062838510,-0.0391728356,0.0370331779,0.0305180904,0.1606500149,0.0421835184,0.0079653282,-0.0837323293,0.1065290868,0.2077175677,0.0030153971,-0.0047928886,0.3103986979,-0.0681245103,-0.0496503897,0.0041168164,0.0931715295,-0.1480890065,-0.0034661046,-0.0485881716,0.0211721715,0.0380529612,0.0296870656,0.0556756333,0.1112683862,-0.0947414562,0.1357964575,-0.0601770692,0.0015871357,-0.0177142974,-0.0601711608,-0.1160338670,-0.0282445233,0.1784094274,-0.2396764159,0.1537029743,0.0979740396,0.0476766676,0.1223685965,0.0000320436,0.0810135826,-0.0185317304,-0.0219937786,-0.1345532835,-0.0480725542,0.0160482973,-0.0525411069,-0.0034937197,0.0049199532
n001291/0431_01,-0.0278614722,0.1819950640,0.0834695697,-0.0291415546,-0.2338448018,0.0088204388,-0.1003199145,-0.1215898320,0.2227974087,-0.0861476585,0.1104184389,-0.0732109398,-0.2480958849,0.0405790471,-0.0844315886,0.1799622029,-0.1821517199,-0.1781154275,-0.0306679402,-0.0621741824,0.0563173555,0.0249737836,0.0638789535,0.1569655836,-0.2300550044,-0.4287814200,0.0070978072,-0.0542498007,-0.0663975477,-0.2000343502,0.0326617286,0.1156054065,-0.2214898765,0.0332836062,-0.0107505871,0.1661547422,-0.0772594959,-0.1322419494,0.1157026142,0.0896334350,-0.2893602550,-0.0250644442,0.0586962402,0.3312487304,0.2672389746,-0.0357299075,0.0516781062,-0.0661165565,0.1683568656,-0.2984181941,0.0122390920,0.1665425003,-0.0398213491,0.0243155770,0.0934484378,-0.1656785458,-0.0060963677,0.0807305798,-0.1439962536,0.0546282977,0.1384488642,-0.0980152786,-0.0524189994,-0.0728827268,0.2480953336,0.1451966465,-0.1081987768,-0.0858927220,0.1513636559,-0.1804152727,-0.0577763878,0.0497156158,-0.0954820290,-0.1670671999,-0.2664019465,-0.0307012983,0.4360948503,0.1011081561,-0.1846512854,-0.0004800390,-0.0335130505,0.0849741101,0.0129885171,0.1821785867,-0.0441683158,0.0703660101,-0.1486282349,0.1244181320,0.2105189711,-0.0198389255,0.0046863691,0.3085489273,0.0064582061,-0.0549303740,0.0818670318,0.0744494274,-0.2418866009,0.0095342603,-0.2069786638,-0.1005983800,0.0771827176,-0.0514258966,-0.0141650084,0.0825315043,-0.1975751817,0.1808675379,-0.0058596204,-0.0173379276,0.0236773845,-0.0198455118,-0.1398613155,-0.0443814136,0.1921305060,-0.2317938209,0.1628047824,0.1074711233,0.0545778647,0.1569258422,0.0669396222,0.0877095237,-0.0026913425,-0.0606210418,-0.0469158702,-0.0440698788,-0.0075548487,-0.0558860227,0.0061354963,-0.0111252386
