n000129,-0.1312145293,0.1022652090,0.0050364197,-0.0573404171,-0.0786651224,-0.0541635714,-0.0426836610,-0.0853343531,0.1015531570,-0.0211350638,0.2899885476,-0.0343907624,-0.2222207785,-0.1189895198,0.0031629577,0.1137187853,-0.1553937495,-0.1176504493,-0.1939283162,-0.1281858236,-0.0290081222,0.0042946823,0.0063070124,0.0034830119,-0.1409837008,-0.3372327685,-0.0682002753,-0.1397308707,0.1736744046,-0.1337669939,0.0014207255,-0.0276432503,-0.1836525351,-0.1234504804,0.0566859096,0.0441766344,-0.1090365425,-0.0960084274,0.2260937989,0.0876185298,-0.1370179653,0.0151283545,0.0370039493,0.2603197396,0.3311335444,0.0656628162,0.0432891548,-0.1829834282,0.1448863447,-0.2491715252,0.0809912533,0.1974035800,0.1447829455,0.0975167155,0.1202763245,-0.0648919418,0.0417081490,0.0833153352,-0.2228480577,0.0613392703,0.0923645571,-0.0495070815,-0.0911476240,-0.0735070780,0.1184096038,0.0659706816,-0.0956115052,-0.1057328060,0.2102968991,-0.1884628087,-0.0783768520,0.0840678364,-0.0625565723,-0.2005724162,-0.2809160650,0.0677796528,0.4432550967,0.2335884422,-0.1871491522,0.0070759221,-0.0356955826,-0.1237317994,0.0865583569,0.1115475968,-0.0880260020,-0.1518182009,-0.0329111628,0.0303377975,0.1713427007,-0.0244390834,0.0166725479,0.1852487624,-0.0078307018,0.0443322137,0.0457802787,0.0736167058,-0.1894373894,-0.0005499841,-0.0328540355,-0.1005218178,0.0966230035,-0.0501399711,0.0781331584,0.0813932195,-0.0791474655,0.2005726695,-0.0179387983,-0.0155042391,0.0476290770,-0.0699868500,0.0398678668,-0.0414026827,0.1431926936,-0.1684429944,0.2211851031,0.1931577176,-0.0146896150,0.0850832015,0.1141454875,0.0825512186,0.0094691897,0.0167424157,-0.1663355529,-0.0894957930,-0.0803058594,-0.0225765631,0.0333109163,-0.0266029220
n000129,-0.1407039762,0.0483840816,0.0316416286,-0.0766453221,-0.1000024155,-0.0816792697,-0.0441113785,-0.0799163580,0.1235399619,-0.0380649790,0.1915985793,-0.0516902953,-0.2349584401,-0.0614299364,0.0512356088,0.1011675671,-0.1791996360,-0.1306094378,-0.1727023870,-0.1219545379,-0.0440230817,-0.0008394438,0.0244031977,0.0013780213,-0.1397572756,-0.3839574158,-0.0567497127,-0.1389118582,0.1768713593,-0.0834824815,-0.0285161864,0.0002208027,-0.1642156243,-0.0713751912,0.0616020039,0.0209879372,-0.0184842553,-0.0708149374,0.2560229599,0.0633427948,-0.1664542109,0.0470931605,0.0312972926,0.1793224365,0.3149690032,0.0994505584,0.0378091894,-0.1569736153,0.1675057709,-0.2876506746,0.0872728080,0.1782176942,0.1279196590,0.0174947307,0.1781990528,-0.0934757367,0.0037394671,0.0279928185,-0.2129916996,0.0922707170,0.0877753422,-0.0508990139,-0.0703510940,-0.0825683698,0.1440318078,0.0596473515,-0.0871867910,-0.0507309996,0.1988180429,-0.1944540292,-0.0460808575,0.0490124077,-0.0303349290,-0.1642189920,-0.2493804693,0.0431123674,0.4126449823,0.2267577797,-0.2495312691,0.0197751485,-0.0481710620,-0.1085804179,0.1213359237,0.0677840188,-0.1028133258,-0.1693392396,-0.0446223617,-0.0157182273,0.2127721012,-0.0168319046,0.0455283895,0.1984154582,0.0195201281,0.0850082710,0.0260796007,0.0418554097,-0.1856272221,-0.0720587820,-0.0477694571,-0.0789071172,0.0961474627,-0.0346475095,0.0552159250,0.0797701254,-0.1290209442,0.1476442367,-0.0467697568,-0.0810139477,0.0255283937,-0.0087589202,0.0356769636,-0.0503908694,0.1186268777,-0.1863832921,0.2102413028,0.1999485493,-0.0583457798,0.1072675139,0.0438140929,0.0604901090,0.0100586629,0.0556207262,-0.1044521108,-0.1348154843,-0.0389379263,-0.0231060609,0.0271413811,0.0073265452
n000129,-0.1494871527,0.1472431272,0.0148619702,-0.0026981577,-0.0993400440,-0.0499524698,-0.0071863639,-0.1086057052,0.1819087565,0.0122389514,0.2401497215,-0.0234316811,-0.2189128995,-0.0595032759,-0.0476504229,0.1149914786,-0.1581202149,-0.1274795979,-0.1495921165,-0.1130471602,0.0476398505,-0.0147160077,-0.0061831451,0.0300118551,-0.1595152766,-0.3271557987,-0.1066746041,-0.1492977589,0.1140559763,-0.1270869076,0.0299679190,-0.0299983639,-0.1708106846,-0.1145323887,0.0481791943,0.0086866915,-0.1201956421,-0.0565502793,0.2141811252,0.0462188870,-0.1700699329,0.0392194167,0.0627173632,0.2666965723,0.2796228230,0.0651202202,0.0211187322,-0.1163186878,0.1460489184,-0.2513237000,0.0660995841,0.2430524081,0.1811052710,0.1011146903,0.1567710340,-0.0499465391,0.0075662304,0.0893264040,-0.1946352720,0.0908903554,0.1275699288,-0.1052188426,-0.0681845844,-0.0638304427,0.0547785051,0.0463113673,-0.1022513211,-0.0576529093,0.1479381472,-0.1737601459,-0.0503241234,0.0472418144,-0.0692126453,-0.2659824193,-0.2766835093,0.0900372416,0.4413352907,0.2241504490,-0.1742392778,0.0242357515,-0.0386515930,-0.0392506905,0.0516948923,0.0572351068,-0.0808058381,-0.1305583864,-0.0862786770,0.0230511744,0.1455145925,-0.0694346130,0.0412848964,0.1949227750,-0.0341862701,0.0122078639,0.0004458674,0.0927952304,-0.1848855317,-0.0152082844,-0.0386358276,-0.0445424505,0.0592905097,-0.0467458293,0.0366579443,-0.0092428979,-0.1045720950,0.1460867971,0.0102843856,-0.0290328283,-0.0527863540,-0.0591692030,-0.0612827279,-0.0038692190,0.1468165964,-0.1884772331,0.2680330575,0.1788312346,-0.0890101418,0.1241447777,0.1019687206,0.0481009483,0.0004858604,-0.0269376766,-0.0672185421,-0.1399570554,-0.0240549576,-0.0023422393,0.0100276526,-0.0468791537
n000129,-0.1198383421,0.0698846206,-0.0377340540,-0.0409868099,-0.0581687726,-0.0185807329,-0.0088003492,-0.0744135529,0.1318068951,0.0057804552,0.2507285178,-0.0663336217,-0.2882549167,-0.1399631500,0.0233084671,0.1106363013,-0.1532472372,-0.1225226149,-0.1893349439,-0.0921159759,-0.0361637846,0.0229727514,0.0480251350,0.0264390241,-0.1216461360,-0.4073300660,-0.0923997760,-0.1553859115,0.1252786219,-0.1495475024,-0.0421452671,-0.0127779711,-0.1599019170,-0.0955619216,0.0710823387,0.0277656671,-0.0351743288,-0.1180269718,0.2397678196,0.0633175448,-0.1573873311,0.0181986578,0.0868103132,0.2217911780,0.2973238230,0.0613523051,0.0078684781,-0.1184806228,0.1404712200,-0.2576925159,0.1180036142,0.2157138288,0.1349727064,0.0336518809,0.1761652976,-0.0442375019,-0.0018890558,0.0604195371,-0.1803006828,0.0610023960,0.0930885226,-0.0392836519,-0.0721888021,-0.0753637031,0.0550923608,0.0397501737,-0.0690421686,-0.1087516397,0.1330115497,-0.2213000059,-0.0564095303,0.0547596775,-0.0800093561,-0.2229666412,-0.2731478810,0.0786551535,0.4350019395,0.2612102032,-0.1837218851,0.0803557932,-0.0453735106,-0.1335029453,0.0944220647,0.0662470609,-0.0591336377,-0.1315696090,-0.0993471593,0.0204194691,0.1961474866,-0.0210790914,0.0268847197,0.2031116784,-0.0473565720,0.0463972054,0.0474548750,0.0370999165,-0.1556045264,-0.0321439467,-0.0242733136,-0.0664655119,0.1002540067,-0.0713571683,0.0442025885,0.0304259937,-0.1249932945,0.1043195426,-0.0125438254,-0.0498348512,0.0603982694,-0.0341838375,-0.0182061158,-0.0404499508,0.1369575411,-0.2082554400,0.2031886280,0.1626506746,-0.0329192840,0.0997591168,0.0870992690,0.1014309824,0.0191929452,0.0181659516,-0.1166014373,-0.1394732445,-0.0455821380,0.0280041508,0.0381035656,-0.0181083512
n000129,-0.1008745432,0.1032866165,0.0258389972,-0.0738261864,-0.0964296386,-0.0249008369,-0.0678147897,-0.0911742821,0.1299774051,-0.0318797752,0.2677051425,-0.0094436221,-0.2705224156,-0.0989993438,0.0121641923,0.1017334089,-0.1703071743,-0.1116721928,-0.1932950467,-0.1111179441,-0.0265627299,0.0307838209,0.0336802825,-0.0131508233,-0.1324167103,-0.3622732162,-0.0750266388,-0.1302971244,0.1456640214,-0.1641131490,-0.0329808705,-0.0374306999,-0.1435919553,-0.0776541978,0.0150104826,0.0432157479,-0.0798383877,-0.0929181799,0.1942081898,0.1045780852,-0.1741791219,0.0202642847,0.0277402587,0.2415337414,0.3100242019,0.0774476230,0.0645398796,-0.1355111748,0.1316235363,-0.2614320219,0.0818925425,0.1901426166,0.1537558585,0.0155984852,0.1952510327,-0.0656384528,0.0110964375,0.0536974408,-0.1901064664,0.1160503700,0.1220136210,-0.0707364455,-0.0564739108,-0.0606542639,0.0975706950,0.0394821540,-0.0738111362,-0.0904676616,0.1535403281,-0.2191336453,-0.1140691489,0.0879418328,-0.0434895046,-0.2232267708,-0.2951190770,0.0248370022,0.4481152594,0.2568354905,-0.2146852463,0.0443088673,-0.0159089286,-0.1358425468,0.1328842640,0.1135419905,-0.0779997408,-0.0719452873,-0.1254334301,0.0048704324,0.2164262235,-0.0437836461,0.0265287962,0.2238228321,0.0027459569,0.0533863269,0.0473079011,0.0455573611,-0.1735745072,-0.0363750048,-0.0390275158,-0.1045852080,0.0920988098,-0.0744047165,0.0271602273,0.0078423619,-0.0786040276,0.1561152935,-0.0180359203,-0.0430256501,0.0044790376,-0.0646986142,-0.0037844814,-0.0405806638,0.1769937575,-0.1993742138,0.1646095216,0.2196934074,-0.0201781970,0.0859377310,0.1105014607,0.0730027407,0.0081191184,0.0102945976,-0.1039526761,-0.1363679767,-0.0932881832,-0.0312284753,0.0616784506,-0.0046986011
n000129,-0.1153542772,0.0537775531,-0.0211225208,-0.0795484632,-0.0648060963,-0.0426272601,0.0278870557,-0.0686542541,0.1340839416,-0.0153769376,0.2464180887,-0.0557448529,-0.2289523184,-0.1244069934,0.0527578890,0.0928125679,-0.1780721992,-0.1185730100,-0.1898332983,-0.0995814502,0.0024437611,0.0076498324,0.0550854094,0.0013378008,-0.1507437527,-0.3589724600,-0.0852049366,-0.1348970979,0.1359229237,-0.0807394832,0.0179106668,-0.0150098549,-0.1733839214,-0.0917977318,0.0299770180,0.0426812284,-0.0333482102,-0.0784116462,0.2224466503,0.0716124624,-0.1835386753,0.0511455759,0.0909392983,0.1932994574,0.3239736557,0.0504611656,0.0044863811,-0.1131025180,0.1050350517,-0.2903439999,0.1106503382,0.1921348274,0.1171921641,0.0546123348,0.1393678188,-0.0137874614,0.0049015610,0.0848044306,-0.1691220254,0.0756250992,0.1297103018,-0.0336758643,-0.0723181367,-0.0645708218,0.0802256688,0.0827262253,-0.0854507163,-0.0968702808,0.1111936793,-0.2147952020,-0.1076069325,0.0672976896,-0.0779205635,-0.1753044128,-0.2642942369,0.0724400431,0.4397328198,0.2264719605,-0.1905439645,0.0264288653,-0.0710814521,-0.0803480670,0.1225196049,0.0664338097,-0.0506892204,-0.1487405300,-0.0925607085,0.0103541762,0.1892841011,-0.0239862911,0.0172786396,0.2260875553,-0.0072800219,0.0687157139,0.0334298126,0.0538126640,-0.1370320767,-0.0311603881,-0.0534542091,-0.0890967846,0.1000823304,-0.0515956618,0.0422017314,0.0479709655,-0.1119896770,0.1549097896,-0.0222121757,-0.0279856529,0.0829545856,-0.0236788783,0.0400504395,-0.0311036725,0.1250733882,-0.1453088075,0.1929358393,0.1798691005,-0.0556269363,0.0794358924,0.1085588187,0.1107761562,-0.0059269224,0.0459403060,-0.1276612729,-0.0883662030,-0.0727144331,0.0083482740,0.0482523739,-0.0080718249
n000129,-0.0913858190,0.0236240104,-0.0130897667,-0.0162188187,-0.0827987790,-0.0364644416,0.0084514469,-0.0594684035,0.1348000914,0.0082524493,0.2559636533,-0.0588818043,-0.2585781813,-0.0997411013,-0.0402520187,0.1154434159,-0.1412578076,-0.1310892850,-0.2117122412,-0.1113393381,-0.0414350778,-0.0028299023,0.0459131971,0.0173198227,-0.1452850699,-0.3580367565,-0.0797646865,-0.1226220280,0.0918383896,-0.1052776724,-0.0004880503,0.0334348120,-0.1485965848,-0.0709076971,0.0847223923,0.0217155926,-0.0020571502,-0.0824280232,0.2571899295,0.0612806641,-0.1748023778,0.0405455120,0.0699383244,0.2076550573,0.2720844746,0.0691616237,0.0020802147,-0.1333130151,0.1463632286,-0.2272695452,0.0933389738,0.2124112099,0.1566821933,0.0219725296,0.1311547905,-0.0296174921,0.0146377422,0.1757310033,-0.1886605322,0.0538752526,0.0417251587,-0.0897673443,-0.0502102673,-0.0686816499,0.0919756815,0.0631752089,-0.0881957859,-0.0854663104,0.1932397634,-0.1844301522,-0.0656856745,0.0615977831,-0.0608925335,-0.1980250627,-0.2685963213,0.0622400157,0.5009675622,0.2043531239,-0.2244313508,0.0410047360,-0.0361412726,-0.1219038442,0.0713473335,0.1018530354,-0.1236255020,-0.1418240964,-0.1052203178,-0.0278043635,0.2070199102,0.0252142251,0.0185533818,0.2012382895,-0.0166332163,0.0482202917,0.0538821295,0.0199908894,-0.1566319764,-0.0323089547,-0.0271065664,-0.0917028785,0.0605206937,-0.0645575300,0.0340910479,0.0319779031,-0.1164742112,0.1134041399,-0.0375209078,-0.0488830246,0.0424641147,-0.0255386811,0.0709589720,-0.0322803222,0.1361093521,-0.2158832848,0.1674023420,0.1388864219,-0.0076122899,0.1193270311,0.0705477521,0.0990414321,0.0048439046,0.0111287581,-0.1332587004,-0.1122624874,-0.0274017435,-0.0399456508,0.0808035880,-0.0018078359
n000129,-0.1070010439,0.0617357381,0.0297427587,-0.0428078324,-0.0928702801,-0.0585298203,-0.0182007197,-0.0383757614,0.0705557615,-0.0178415738,0.2452725917,-0.0736154690,-0.2108012140,-0.0507075191,-0.0474132560,0.0765250325,-0.1277234852,-0.0897365734,-0.1997491419,-0.1269830763,-0.0359201953,0.0140838334,-0.0277992859,0.0131112970,-0.1584237069,-0.2625842094,-0.0959041193,-0.1034034118,0.1305520684,-0.0661251098,0.0475411639,0.0215523466,-0.1107430980,-0.0648591891,0.0790575296,0.0460928008,-0.0589943267,-0.0706138313,0.2726444900,0.0585374907,-0.1382055134,0.0081285276,0.0844325647,0.2807693183,0.2674243748,0.0104790153,0.0257003922,-0.1172783002,0.1174917892,-0.2707657814,0.0735614896,0.2347903252,0.1658074260,0.0918964893,0.1188283116,-0.0506705679,0.0450131260,0.1703126580,-0.1393079013,0.0805588141,0.0962917134,-0.0857815072,-0.1028685048,-0.0786847621,0.0800014436,0.0837002248,-0.1081655622,-0.1257916987,0.1690030843,-0.2035510391,-0.0788587853,0.0959481895,-0.0622799918,-0.1601690203,-0.2541428506,0.0648075342,0.4441468716,0.2567121387,-0.2095620781,0.0087928399,-0.0435400009,-0.0779305473,0.1037026048,0.0865399837,-0.1406225115,-0.1297870278,-0.0666067302,0.0250907652,0.1563896984,-0.0145516545,0.0478022136,0.1754049361,0.0377353616,0.0336246043,0.0330405757,0.0041798488,-0.1552633196,-0.0387504548,-0.0337920487,-0.0577908643,0.1205636635,-0.0673129484,0.0880883336,0.0773173422,-0.1178687960,0.1808296740,-0.0280121323,-0.0277382843,0.0694635808,-0.0339948796,0.0454338677,-0.0131904194,0.1969363689,-0.1410427541,0.1181404740,0.1416950375,-0.0465354659,0.0751277879,0.1607013792,0.1132472605,-0.0149760386,0.0132260397,-0.1347956508,-0.0697912946,-0.0818245709,-0.0474883839,0.0278165154,-0.0410563238
n000129,-0.0891843811,0.0539516807,0.0039079241,-0.0731678307,-0.0943977907,-0.0458997265,0.0157542601,-0.0458398983,0.1201536059,-0.0160611235,0.2254243195,-0.0620447472,-0.2745762467,-0.0842225254,-0.0061521251,0.1036110967,-0.1906092316,-0.0716293752,-0.2097881287,-0.1398478895,-0.0191625319,0.0533779003,0.0347494744,-0.0117905075,-0.1221271604,-0.3619236350,-0.0975693017,-0.1244634092,0.1275981814,-0.0846654326,0.0375708267,0.0187596306,-0.1343794167,-0.0768920407,0.0615270250,0.0172408074,-0.0222745575,-0.0815044865,0.2022778988,0.0979280621,-0.1417320669,0.0333382525,0.0741787702,0.2122219652,0.2851463854,0.0960318819,0.0155860065,-0.1104869992,0.1348334104,-0.2554865479,0.0561257489,0.1900284588,0.1233466715,0.0359272920,0.1533381343,-0.0380707867,0.0151775312,0.1104186326,-0.1812682748,0.0629867390,0.0751703158,-0.0828471705,-0.0764148533,-0.0680454448,0.0633080527,0.0440333523,-0.0831436515,-0.1029547974,0.1536101401,-0.2315357774,-0.0958256274,0.0788232088,-0.0704098195,-0.1481595039,-0.2581710517,0.0369566940,0.4670575261,0.2235460728,-0.1808988750,-0.0116794147,-0.0336251743,-0.1065986082,0.1151557267,0.1022912487,-0.0776544213,-0.1615874618,-0.0882000253,-0.0013070754,0.1862592995,-0.0371781327,0.0075777797,0.2043231428,-0.0016907719,0.0801992491,-0.0022380238,-0.0021077711,-0.1697043478,-0.0344207212,-0.0144444220,-0.0924254581,0.0908207968,-0.0459558479,0.0198420491,0.0404787660,-0.0960744247,0.1489332765,-0.0376322232,-0.0615013130,0.0330511965,-0.0540695339,0.0448334962,-0.0002428374,0.1636646539,-0.1603252441,0.1685847342,0.2108189762,-0.0615385883,0.0837169960,0.0692484453,0.0766688064,-0.0074825017,0.0170276426,-0.1361050010,-0.1363245994,-0.0622721165,-0.0421387292,0.0405537523,-0.0629296303
n000129,-0.1391299367,0.0797946528,0.0210049208,-0.0340840593,-0.0599593297,-0.0577212088,-0.0547885038,-0.0556399338,0.1152727306,-0.0335789509,0.2657509744,-0.0267804302,-0.2668325603,-0.1069467142,0.0051624919,0.0753458738,-0.1605690569,-0.1242483556,-0.1487613171,-0.0857351273,0.0061437078,0.0210529771,0.0401719622,0.0076506664,-0.1640162766,-0.3955932260,-0.0997516811,-0.1252354234,0.0916666165,-0.1123486683,0.0444027670,-0.0158411320,-0.1406312883,-0.0708138645,0.0429858081,0.0067914627,-0.0277109258,-0.0756787285,0.2632959783,0.1482692808,-0.2020919025,0.0626638979,0.0417627357,0.2854602039,0.2629356980,0.0690343156,0.0087449066,-0.1147949919,0.1321230978,-0.2825697958,0.0608012676,0.2281027883,0.1324125826,0.0253095571,0.1587691307,-0.0594979040,0.0326569229,0.0657363981,-0.2274435461,0.0549612455,0.0522648618,-0.0503189415,-0.0465726107,-0.0615069419,0.0974654183,0.0796065107,-0.0912511572,-0.0917729884,0.1483083516,-0.2006969005,-0.0787184015,0.1213185340,-0.0647840276,-0.2105919421,-0.2552437484,0.0921069235,0.4809021354,0.2415881604,-0.2034267187,0.0273551960,-0.0370008610,-0.1391234845,0.0659765974,0.1226437092,-0.1177193820,-0.0858994201,-0.0633511171,-0.0125546781,0.1639600247,0.0312636495,-0.0003349123,0.2372843176,0.0268116295,0.0793133974,0.0897249132,0.0152522698,-0.1927638650,-0.0682106093,-0.0706452355,-0.1235538796,0.0676169693,-0.0673885122,0.0514015146,0.0517920069,-0.1301344782,0.1673129350,-0.0216222052,-0.1029365137,0.0250739604,0.0234564040,0.0429050326,-0.0341100954,0.1123407483,-0.2048471570,0.1595668644,0.1825574934,0.0182254948,0.1153016388,0.1166530773,0.0584723279,-0.0321866423,0.0518697947,-0.0857513174,-0.1282801926,-0.0690666735,-0.0191796236,0.0677619204,-0.0597349852
n000129,-0.1337244958,0.0559633076,-0.0327632651,-0.0675571710,-0.1032614559,-0.0316669643,-0.0244740266,-0.0526633114,0.1465593278,-0.0315263607,0.2788088024,-0.0097137531,-0.2753643692,-0.0839553550,0.0029976787,0.0935069472,-0.1933261454,-0.0741700977,-0.2038172632,-0.1271574348,-0.0288367216,-0.0004112266,0.0378715210,0.0233373679,-0.1323136091,-0.3563794196,-0.0737333372,-0.1576644480,0.1023618057,-0.0954986587,0.0529438257,0.0086741112,-0.1167356819,-0.0775458291,0.0291092675,0.0478273742,-0.0565343425,-0.0439885780,0.2254114151,0.0805953965,-0.1568169147,0.0352593288,0.0266245827,0.2405209243,0.2536923289,0.0624310300,0.0573542081,-0.1615617126,0.1690951437,-0.2433340847,0.0682752803,0.2082395107,0.1480421871,0.0510653295,0.1786160171,-0.0743634254,0.0760754272,0.0824266076,-0.1743764132,0.0698842779,0.0652371794,-0.0560540743,-0.0354050063,-0.0489258654,0.0981502011,0.0537466891,-0.0547761284,-0.1096498370,0.1906081438,-0.1743638068,-0.1138689369,0.1042503417,-0.0754579976,-0.2133235633,-0.2525252104,0.0323161967,0.4796955585,0.2255679369,-0.2006410807,0.0537158847,-0.0626034662,-0.1677415371,0.0978650004,0.1175328791,-0.0858654827,-0.1183370203,-0.1021291539,0.0159927756,0.1864719242,-0.0412937291,0.0352168567,0.2180734575,0.0434380583,0.0776067972,0.0701623783,0.0232040342,-0.1877096742,0.0118630966,-0.0369111449,-0.0970928818,0.1068063080,-0.0870447978,0.0453090668,-0.0390040278,-0.1242383420,0.2018693388,-0.0078038191,-0.0272040758,0.0155093232,-0.0327514857,0.0444777310,0.0193540826,0.1888288409,-0.1987717152,0.2251758277,0.1815775782,-0.0031576836,0.1278509647,0.0922240093,0.0795806721,-0.0205714069,0.0038200745,-0.1369443089,-0.1043056995,-0.0890331119,-0.0363596380,0.0280507319,0.0016343779
n000129,-0.1114136651,0.0889171660,0.0190408807,-0.0477526188,-0.0362189971,-0.0603744723,-0.0345817134,-0.1063422486,0.1465653926,-0.0465486459,0.2471148223,-0.0684512109,-0.2329256386,-0.1049610600,0.0006605007,0.1011536568,-0.2041325569,-0.0761913359,-0.1756756455,-0.1438293904,0.0093102157,0.0465483181,0.0520390794,0.0015991809,-0.1817010194,-0.3814199865,-0.0696044415,-0.1084167585,0.0885702968,-0.0289669763,0.0665490031,0.0442341752,-0.1417149603,-0.0624357499,0.0412110649,0.0784460828,-0.0397320576,-0.0276144929,0.1974087209,0.0855787247,-0.1065780371,0.0864513293,0.0250999331,0.2541726530,0.2895995080,0.0756294280,0.0482949279,-0.1646595746,0.1238140240,-0.3053719103,0.0272147395,0.2048055381,0.0986077189,0.0258977022,0.1880982667,-0.0384283438,0.0103753814,0.0612576008,-0.1875002235,0.0807894915,0.0653694645,-0.0348434821,-0.0487380214,-0.0795620903,0.0844657719,0.0759893432,-0.0795997232,-0.0547473617,0.1608867794,-0.2101391405,-0.0953136459,0.0564913750,-0.0377439633,-0.2006946206,-0.2874387801,0.0146333193,0.4762792885,0.2179327160,-0.2021331787,0.0416385531,-0.0480800420,-0.0924875215,0.1114885658,0.0476562418,-0.1166906059,-0.1290565431,-0.0717767179,0.0361366756,0.1993185878,-0.0229236577,0.0126085579,0.2576286197,0.0205044672,0.0694055036,0.0511170365,-0.0070274896,-0.1548221111,-0.0172047615,-0.0690838173,-0.0807790533,0.0942711160,-0.0870978907,0.0735098720,0.0067460337,-0.1536165029,0.1945338994,-0.0231268108,-0.0534731820,0.0664284676,0.0132115101,-0.0202006679,0.0170989204,0.2038154453,-0.1988771111,0.1753647029,0.2049552202,-0.0361383483,0.1401288360,0.0928635523,0.0934693441,-0.0364896059,0.0489214845,-0.0883849710,-0.1190632880,-0.0974282250,-0.0181181524,0.0308338292,-0.0007422551
n000129,-0.0977055579,0.0485935099,-0.0079595251,-0.0927540213,-0.0763204694,-0.0701170787,-0.0304153450,-0.0948512927,0.0891479701,-0.0197117887,0.2711926997,-0.0981414989,-0.2791973352,-0.1197310239,-0.0212521721,0.1034965739,-0.1697129458,-0.1160190105,-0.1879407167,-0.1605716050,-0.0451153480,-0.0019748083,0.0308540706,0.0258736555,-0.1532155126,-0.3551180065,-0.0780526549,-0.1523207128,0.0910438299,-0.1344588548,0.0213607885,0.0168660153,-0.1605584323,-0.0697294101,0.0431370176,0.0478152931,-0.0208480004,-0.0559506081,0.2316895276,0.0784756839,-0.1399822235,0.0694135576,0.0566568077,0.2271258682,0.2976995707,0.0666700229,0.0039370693,-0.1220580041,0.1599787772,-0.2554084361,0.0689687356,0.2112811208,0.1391951442,0.0515722074,0.1344635934,-0.0229783356,0.0417389609,0.0951191783,-0.1686992198,0.0410319977,0.0964513198,-0.0872261226,-0.0376197547,-0.0477734283,0.0992788598,0.0317270793,-0.0913916081,-0.0343066268,0.1452375054,-0.2008354962,-0.0819621310,0.0497140102,-0.0646093860,-0.1558961123,-0.2881103456,0.0849362984,0.4325225055,0.2236527354,-0.2179750502,0.0190792326,-0.0449693538,-0.0818109885,0.1099462956,0.0533664450,-0.1150847524,-0.1373225451,-0.1001016721,0.0079095373,0.1870630533,-0.0186606217,0.0377501808,0.2068669647,-0.0079252562,0.1058477610,0.0692293197,0.0405503772,-0.1823478639,-0.0599162318,-0.0222384389,-0.0434418432,0.0761633366,-0.0699701235,0.0364516340,0.0291847847,-0.1092298403,0.1516615450,-0.0369090997,-0.0685500726,0.0013856780,-0.0080900779,0.0701037496,-0.0333809704,0.1363323182,-0.1811338812,0.1846266687,0.1962149739,-0.0275671296,0.0996520221,0.0920947567,0.0630470440,-0.0517713130,0.0175893679,-0.0917960405,-0.1338017136,-0.0478128195,-0.0037192593,0.0610743165,-0.0285441410
n000129,-0.1076487675,0.0346146822,0.0207577124,-0.0444784611,-0.0574316159,-0.0709035322,-0.0160063356,-0.0996138901,0.1201057062,-0.0188667290,0.2842234671,-0.0301847495,-0.2230735570,-0.1069319770,-0.0426706895,0.1084072664,-0.1444187313,-0.1218530089,-0.1851392388,-0.1389352381,-0.0202374998,0.0034925698,0.0147704091,-0.0197240897,-0.1853323877,-0.3071613908,-0.0805727467,-0.1112597436,0.1325768828,-0.0505816676,0.0263758637,0.0684478432,-0.1454370022,-0.0691429228,0.0728764907,0.0415015891,-0.0191162508,-0.0887019187,0.2511721253,0.0391390733,-0.1620635092,0.0867220163,0.0919142887,0.2298035622,0.3185518086,-0.0092828833,0.0116926115,-0.1106787473,0.1245495752,-0.2868395150,0.0758461878,0.2082497478,0.1771243364,0.0742169619,0.1319778264,-0.0414136425,0.0301959068,0.1385881156,-0.1620372981,0.0652371123,0.0791366771,-0.0700413883,-0.0516683683,-0.0495073199,0.0655362681,0.0680540279,-0.1051267982,-0.0800888538,0.1402810514,-0.1877969056,-0.0587332025,0.0799783617,-0.0944241062,-0.1967523247,-0.2539064586,0.0923127905,0.4316477180,0.2539304197,-0.2366829365,0.0498170145,-0.0452508330,-0.0710323155,0.0983812213,0.0409520417,-0.0878669769,-0.1730468720,-0.0955143347,-0.0193236079,0.2182316184,0.0018276746,0.0094111823,0.2499474883,0.0133402897,0.0355399027,0.0312073156,0.0322540291,-0.1443990171,-0.0572074279,-0.0491042808,-0.0920564979,0.0888836011,-0.0466309413,0.0513838567,0.0654848292,-0.1195294932,0.1599979997,-0.0384759977,0.0003383306,0.0780349672,-0.0231150258,0.0652524978,-0.0204553846,0.1428269595,-0.1436799169,0.1859579831,0.1560415030,-0.0058609573,0.0940956995,0.1317045242,0.0608693287,-0.0037046608,0.0256687887,-0.0898065343,-0.1028129682,-0.0545873083,-0.0491835959,0.0551888719,-0.0104940282
n000129,-0.1116284579,0.0806683078,0.0247614421,-0.0748628154,-0.0495490283,-0.0611056201,0.0016448849,-0.0789455101,0.1593673676,-0.0284204576,0.2798487842,-0.0438014865,-0.1912530810,-0.1440341324,0.0037743310,0.1239139810,-0.1833434403,-0.0721200034,-0.1594299972,-0.0880130827,0.0290494673,-0.0124214729,0.0090628350,-0.0212823190,-0.1439766735,-0.3602767289,-0.1031651720,-0.0464741178,0.1240050197,-0.0802461132,0.0436043963,-0.0053235199,-0.1792130023,-0.1131701916,0.0256302189,0.0596188419,-0.0292878021,-0.0661137849,0.1867218316,0.0837128684,-0.1311268806,0.0345550440,0.0600393265,0.2223291248,0.2857820690,0.0672203898,0.0357744843,-0.1409999877,0.0954753608,-0.2559043765,0.0070375563,0.1594974101,0.0824538469,0.0488663614,0.1138365343,-0.0287469868,0.0120852711,0.0845573843,-0.2072563767,0.0556124039,0.0572342798,-0.0598890744,-0.0870752558,-0.0629169792,0.0761048868,0.0833879337,-0.0753446668,-0.1325453669,0.1542303115,-0.2107315063,-0.0746581852,0.0524527691,-0.0403535180,-0.1739117950,-0.3208938539,0.0149316918,0.4760912657,0.1981244534,-0.1889807433,0.0087658456,-0.0519876108,-0.1173534691,0.1084677726,0.0799044073,-0.0686706901,-0.0811101198,-0.0778599009,0.0386247262,0.1869099289,-0.0082444744,0.0244169757,0.2256626934,0.0103221601,0.0803738311,0.0102101108,0.0337774232,-0.1391749829,0.0151519533,-0.0501036867,-0.0923649520,0.1056659147,-0.0557603016,0.0948363841,0.0755473524,-0.1287999451,0.1866711378,-0.0042633046,-0.0250518639,0.0598740317,-0.0111194979,0.0175249819,-0.0220128223,0.1546998024,-0.1616513133,0.1519273072,0.2289724350,-0.0468535908,0.0838045403,0.0981628746,0.0977753699,-0.0114492103,0.0416591428,-0.1031882912,-0.0621812269,-0.1447324455,-0.0438450575,0.0631591827,-0.0161920749
n000129,-0.1014021561,0.1079966575,-0.0258058161,-0.0769404471,-0.0554305725,-0.0520769060,0.0048227208,-0.0658110902,0.1354536712,0.0128224753,0.2632514238,-0.0428238921,-0.2571088374,-0.1383062005,0.0051194108,0.0905477703,-0.1596735120,-0.1191358045,-0.1774471253,-0.0909955800,0.0110878283,-0.0194382705,0.0053492426,-0.0005206654,-0.1792853773,-0.3368303478,-0.0755001083,-0.1413368732,0.1104798242,-0.1142724827,-0.0044519422,0.0079651671,-0.1614243388,-0.1026696190,0.0539498627,0.0717205703,-0.0237088893,-0.0683168694,0.1959347427,0.0935412273,-0.1608811766,0.0567574017,0.0723570883,0.2269963622,0.3141877353,0.0790036395,0.0309485830,-0.1563228965,0.1503509879,-0.2693597376,0.0938118920,0.1986244619,0.1404978633,0.0871660188,0.1473015249,-0.0592220537,0.0246905386,0.0546951406,-0.2045088559,0.0383365080,0.0834170580,-0.0404788442,-0.0726066381,-0.0829093829,0.0726425424,0.0624947920,-0.0914045125,-0.0367368683,0.1799989045,-0.2182613909,-0.0895310566,0.0483707972,-0.0502569824,-0.1945797652,-0.2812243700,0.0922239423,0.4432735145,0.2869210541,-0.2056620568,0.0314270779,-0.0495944470,-0.0929085910,0.0908897445,0.0748352334,-0.0942403004,-0.0917978212,-0.0713563189,0.0106781833,0.1996078044,-0.0269454475,0.0509268083,0.2176238596,0.0067183836,0.0812825561,0.0519472659,0.0431784168,-0.1537419111,-0.0415793210,-0.0543613508,-0.0851516798,0.0843530074,-0.0961932316,0.0491022542,0.0461525060,-0.1291462183,0.1339660436,0.0036468976,-0.0604360439,0.0255816784,-0.0169588793,0.0637724251,-0.0419762284,0.1271054894,-0.1738687158,0.2022283375,0.1963836253,-0.0441508666,0.1038859040,0.1083831564,0.1056553051,-0.0018360327,-0.0120458752,-0.0793150067,-0.1297660619,-0.0675549433,0.0168592501,0.0415242612,-0.0224692505
n000129,-0.1712212861,0.0502310246,-0.0362520590,-0.0551894568,-0.0888156369,-0.0433198176,-0.0127384281,-0.0376542732,0.1203893721,0.0325061567,0.2427576780,-0.0533897579,-0.2528336942,-0.0941693336,-0.0325402282,0.1166927218,-0.1531470418,-0.0525295511,-0.2044742405,-0.1285244524,-0.0336019062,0.0059997286,0.0289475918,0.0086737974,-0.1357819587,-0.3456486166,-0.1048709229,-0.1283550411,0.0960657075,-0.1502460092,0.0265253577,0.0120749958,-0.1706573367,-0.1197972670,0.0543734059,0.0636511147,-0.0661124513,-0.0909156054,0.2397675514,0.0787093043,-0.1354621053,0.0455065519,0.0916153416,0.2446050346,0.2755022943,0.0650579631,0.0132065210,-0.1274600625,0.1559459269,-0.2517232895,0.0755810216,0.1790511906,0.1424510628,0.0470963605,0.1057199985,-0.0358397737,0.0621395260,0.1067540571,-0.1764498204,0.0577973090,0.1171894819,-0.1358799189,-0.1083425805,-0.0536072962,0.0845176280,0.0644204095,-0.0763019174,-0.1058596894,0.1838942021,-0.1788009256,-0.0390197784,0.0785677880,-0.0479852930,-0.1952472776,-0.2941038907,0.1075830609,0.4698238373,0.2204825431,-0.1833051443,0.0289669074,-0.0594112650,-0.1016661823,0.0647728145,0.1121269092,-0.1112859249,-0.1440679133,-0.1039907709,0.0095469253,0.1926504374,-0.0061324611,0.0382691324,0.1819906682,0.0351688527,0.0681155771,0.0517911389,0.0325646177,-0.1949773133,-0.0640629306,-0.0162475109,-0.0681029111,0.1108859777,-0.1006869003,0.0411993116,0.0530087687,-0.1080261916,0.1796516627,-0.0296593532,-0.0676933751,0.0402289480,-0.0594022125,0.0571960583,-0.0181830637,0.1480189711,-0.1697849184,0.1673984528,0.1662222743,-0.0176228825,0.1178107113,0.1194128096,0.1300740093,-0.0304043796,0.0555954464,-0.1473322809,-0.1087059677,-0.0575105660,-0.0164424051,0.0531102009,-0.0185984336
n000129,-0.1217349544,0.0624034964,0.0208363086,-0.0394118018,-0.0649886131,-0.0680261478,-0.0217541195,-0.0294520780,0.1129862890,0.0252845567,0.1912043989,-0.0447184816,-0.2939903736,-0.0862044170,0.0135961967,0.1039505601,-0.1838834882,-0.1174828783,-0.1764788032,-0.1529537588,0.0063253311,-0.0030038212,0.0228329003,-0.0255867466,-0.1817906797,-0.3893365264,-0.0913846642,-0.1249632835,0.1020639092,-0.0944935679,0.0559984632,-0.0005435779,-0.1467632502,-0.0674290881,0.0678756759,0.0100338347,-0.0302363187,-0.0916996375,0.2208852917,0.0789727643,-0.1476388574,0.0847732648,0.0456557572,0.2140343338,0.2829452157,0.1159045771,0.0300186966,-0.1791456491,0.1303144544,-0.2454908937,0.0725522488,0.2336356789,0.0964314416,0.0638161674,0.1555474997,-0.0741051212,0.0551578850,0.0526447184,-0.2355648875,0.0472596809,0.0480308644,-0.0442777574,-0.0593513027,-0.0787193328,0.0619889721,0.0563636683,-0.0751197413,-0.0843513012,0.2143023759,-0.2010464668,-0.0613093860,0.0616153143,-0.0640812591,-0.2004069835,-0.2662216127,0.0655801296,0.4779071212,0.2488549650,-0.2201191038,0.0167086367,-0.0336170495,-0.1035993621,0.0984691530,0.0926219895,-0.1434090734,-0.1567339599,-0.0582216717,0.0250915531,0.1743973941,0.0072658821,-0.0091017587,0.1944322288,0.0452245250,0.0922760442,0.0586739965,0.0280831903,-0.1827886105,-0.0275526028,-0.0537128560,-0.1095656902,0.1163837388,-0.0604184642,0.0617313348,0.0759666637,-0.0925647467,0.1765663624,-0.0031248233,-0.0798571110,0.0059696487,0.0298869535,0.0411431529,-0.0124588506,0.1356230676,-0.1881142408,0.2155144662,0.2247140110,-0.0264817867,0.1024320573,0.0702932402,0.0927478746,-0.0286201742,0.0214009956,-0.1298331618,-0.1121121794,-0.0712847263,0.0021455626,0.0528745577,-0.0042254142
n000129,-0.1027352884,0.0955664814,-0.0013874611,-0.0500591211,-0.0847492367,-0.0703351796,-0.0203803405,-0.0620084479,0.1170602888,-0.0185144097,0.3011451066,-0.0731054991,-0.3145806789,-0.1288139820,-0.0062138792,0.1253183484,-0.1465642154,-0.0854492486,-0.1510183960,-0.0928843990,0.0452907085,-0.0222620796,0.0559391603,-0.0007024392,-0.1298827380,-0.3585097194,-0.0944950730,-0.1477595419,0.0625285283,-0.1286678314,0.0310135856,-0.0118417833,-0.1097285300,-0.0949583724,0.0228040610,-0.0019353594,-0.0266898591,-0.0812617540,0.2095123529,0.0493412167,-0.1655880064,0.0370091908,0.0906232297,0.1976794600,0.2873540819,0.0661664084,0.0420252606,-0.1236399040,0.1157192439,-0.2846075594,0.0603131987,0.1732045412,0.1507370919,0.0436585546,0.1903339177,-0.0424316749,0.0089847231,0.0736097619,-0.1959558278,0.0666164234,0.0820940733,-0.0296091363,-0.0440788381,-0.0554555096,0.1053837761,0.0738522187,-0.0971734077,-0.0541095696,0.1923766583,-0.1920271069,-0.1002102122,0.0697513446,-0.0813893899,-0.2078200430,-0.2654847503,0.0530481786,0.4295181632,0.2397516519,-0.1878873706,0.0296841878,-0.0596948676,-0.0866528600,0.0615235195,0.0633100048,-0.0416676775,-0.1440681815,-0.1099531427,-0.0035348265,0.1659379303,-0.0720091611,0.0214645322,0.2439798862,0.0048174346,0.0818244815,0.0412056036,0.0534534790,-0.1640176326,-0.0356965363,-0.0568793714,-0.0741907880,0.0694223419,-0.0817471296,0.0406107679,0.0138655920,-0.0828722566,0.0915621519,-0.0254499428,-0.0417697616,-0.0055161496,0.0087592481,0.0295907762,-0.0116284685,0.1132694185,-0.1751177460,0.2096246779,0.1705245227,-0.0393151231,0.0817236900,0.0938625410,0.0818147659,0.0195957404,-0.0313415639,-0.0758996978,-0.1382591426,-0.0885393545,0.0090910401,0.0273605250,-0.0064448784
n000129,-0.1122695506,0.0679084808,-0.0096046645,-0.0210061297,-0.0696036369,-0.0588985234,-0.0591242090,-0.0277790260,0.0999205858,-0.0177424811,0.2997188866,-0.0816039294,-0.2396496534,-0.0606203638,-0.0217960216,0.0956759229,-0.1309064329,-0.0605757497,-0.2180359215,-0.1078265458,-0.0090129282,0.0043561449,0.0590241440,0.0271006674,-0.1688942164,-0.3685625792,-0.1074629650,-0.1365797818,0.0825723037,-0.1277681291,0.0240508076,-0.0023263304,-0.1456123739,-0.0895019993,0.0414949730,-0.0040674233,-0.0651390553,-0.0736691430,0.2482780814,0.0640550777,-0.1473918557,0.0574196875,0.0676842406,0.2340005338,0.2757287621,0.0781886503,0.0210480392,-0.1319545209,0.1182736233,-0.3003318608,0.0927956104,0.2115875930,0.1593500823,0.0739854723,0.1453449279,-0.0031436069,0.0412442014,0.1312282979,-0.1650994122,0.0583845638,0.0742050707,-0.0328135453,-0.0567719452,-0.0779566094,0.1192069724,0.0905375034,-0.1100250110,-0.0519748405,0.1230378896,-0.1841694862,-0.0458475314,0.1134732738,-0.0761669874,-0.2454838604,-0.2838359475,0.1055224761,0.4736138284,0.2436403781,-0.2029163837,0.0037798490,-0.0572414547,-0.0849566981,0.0831824616,0.0577084459,-0.1124699414,-0.1916147470,-0.0711141303,0.0150520783,0.1924664974,-0.0380934551,-0.0001103374,0.1906377524,0.0199032910,0.0631111041,0.0454479866,0.0425438434,-0.1669045985,-0.0790294632,-0.0249211304,-0.0273954831,0.0499269478,-0.0439121760,-0.0008666523,0.0132525153,-0.0842890516,0.1444428861,-0.0246744361,-0.0920005143,0.0485803373,0.0122280940,0.0086297346,-0.0664102435,0.1310989112,-0.1972326189,0.1593864709,0.1559215337,-0.0236262642,0.1233249828,0.1008700803,0.1253610998,-0.0369528234,0.0547370911,-0.0936056525,-0.1142416596,-0.0202901717,0.0034811532,0.0347520560,-0.0682821497
n000129,-0.1657881290,0.0574905239,0.0492669679,-0.0143438568,-0.0451999232,-0.1097099259,-0.0360644311,-0.1377741843,0.1261068583,-0.0566328429,0.2316427529,-0.0705939680,-0.2364239693,-0.1312499344,-0.0256342012,0.1472169161,-0.1987813264,-0.1500973254,-0.1453638077,-0.1207524538,-0.0013346958,-0.0260903686,0.0444841050,-0.0173724778,-0.1436235905,-0.3570453227,-0.0916914195,-0.1306381524,0.1751956642,-0.0655683577,-0.0123308115,-0.0253622159,-0.1822595149,-0.1049710438,0.0558077879,0.0897533372,-0.0120605584,-0.0839440972,0.2774898708,0.0426298566,-0.1471070349,0.0557991900,0.0355233289,0.2441184968,0.2936392725,0.1114234626,0.0063864589,-0.1613655686,0.2020303011,-0.2856304049,0.0863321945,0.1687020957,0.1246513426,0.0532100610,0.1461917311,-0.1052513868,0.0520580932,0.0693799183,-0.2303214073,0.0514960364,0.0612868071,-0.0809706002,-0.0045595537,-0.0521022528,0.1350888610,0.0602093972,-0.0703800470,-0.0243792236,0.2092045993,-0.2017654479,0.0008603273,0.0157523323,-0.0317481272,-0.1372215450,-0.3139374554,0.0244150702,0.4912165701,0.1875358373,-0.1782482415,0.0474340133,-0.0200735759,-0.1242138445,0.0885057896,0.0881812871,-0.1377730966,-0.0977619961,-0.0783761218,-0.0118703777,0.2016246170,-0.0115062259,0.0574191101,0.2108864784,-0.0071306969,0.0797626227,0.0726364553,0.0224393606,-0.1935543269,-0.0540363453,-0.0259598214,-0.0752657056,0.0783414170,-0.0996689796,0.0944011956,0.0580866598,-0.1529547423,0.1349737048,-0.0433758572,-0.0434220582,0.0200931393,-0.0177523997,0.0370280109,-0.0278854650,0.1345061213,-0.1776700914,0.2125372589,0.2037812918,-0.0578668192,0.1424141824,0.0699024498,0.0941280574,-0.0406444818,0.0645018220,-0.0983456150,-0.1160183847,-0.0702700764,-0.0156331696,0.0859648511,0.0429034755
n000129,-0.1007917747,0.0841575786,-0.0459472537,-0.0521038398,-0.1077238619,-0.0684050545,-0.0418468826,-0.0909569860,0.1090427116,-0.0150670102,0.2338625193,-0.0648297444,-0.2694510221,-0.1362468749,-0.0385249481,0.1082559302,-0.1663390994,-0.1213546768,-0.1972098500,-0.1236617416,-0.0347205773,0.0043327352,0.0347428359,0.0194960367,-0.1250354797,-0.3938219845,-0.0599669330,-0.1254673451,0.0859278068,-0.1236359254,0.0024251160,0.0203657430,-0.1664810628,-0.0955169648,0.0972425342,0.0063891504,-0.0249824785,-0.0843380690,0.2564130425,0.0572953857,-0.1129953936,0.0489291549,0.0832059309,0.2044472694,0.3225490451,0.0627973378,0.0285506323,-0.1652201712,0.1924920827,-0.2474480122,0.0328319557,0.2183736265,0.1451929659,0.0315699652,0.1102912501,-0.0664293021,0.0119499899,0.1276782304,-0.2014626265,0.0539226979,0.0382016823,-0.0854759887,-0.1066632494,-0.0406827852,0.1177013591,0.0525071584,-0.1030169800,-0.0730212480,0.2027290612,-0.2096249759,-0.0296536703,0.0340097360,-0.0730306730,-0.1988260895,-0.2544795573,0.0470434017,0.4594053030,0.2300275415,-0.1999426782,0.0178563055,-0.0690549165,-0.0826918632,0.0514289103,0.0665581152,-0.1471874416,-0.1847430021,-0.0657205582,0.0285581257,0.2074361145,0.0142606897,0.0129852872,0.2199905962,0.0067802137,0.0969185159,0.0459483713,0.0007722896,-0.1701391935,-0.0669773817,-0.0229527820,-0.0620652474,0.0623524860,-0.0950890109,0.0700609833,0.0722631216,-0.1190924793,0.1026053131,-0.0489721373,-0.0372309312,0.0351292677,-0.0268910974,0.0549045131,-0.0445243381,0.1240751594,-0.1814077348,0.2092255652,0.1764221787,0.0065649580,0.1293938309,0.0748620257,0.0624287575,0.0130312908,0.0052250200,-0.1014809310,-0.1139692664,-0.0528030396,-0.0102635901,0.0656865388,-0.0415826589
n000129,-0.1007156819,0.0867331102,0.0355679505,-0.0745324120,-0.0641522706,-0.0886738822,-0.0275556613,-0.0985414386,0.1388891935,-0.0387054831,0.3001609743,-0.1080223918,-0.2469778806,-0.0915443450,0.0061006364,0.1269573867,-0.1779107153,-0.1108298749,-0.1469675750,-0.1317172050,0.0127683552,-0.0158228073,0.0191079807,0.0073890272,-0.1194217652,-0.3403759599,-0.0789686888,-0.1320266724,0.1824683696,-0.0962808877,-0.0458645709,-0.0256829318,-0.1742283702,-0.0915424228,0.0422917008,0.0580267310,-0.0569128990,-0.1350508779,0.2296407521,0.0192297529,-0.1492490023,0.0311888047,0.0847496539,0.1656803787,0.2710025311,0.0518097430,0.0079722013,-0.1495095789,0.1475217342,-0.2433313727,0.1049220935,0.2162784636,0.1626779735,0.0807828307,0.1596702933,-0.0862728357,0.0333210528,0.0845174640,-0.1898134798,0.0562305376,0.1167829856,0.0143004144,-0.0456247404,-0.0856323764,0.0862846971,0.0675198957,-0.0825930610,-0.0780362412,0.1348299235,-0.1963495612,-0.0625088736,0.0646300539,-0.0880228058,-0.2025743723,-0.2549509406,0.0662151650,0.4081086218,0.2354620993,-0.1820770353,0.0405812599,-0.0109297102,-0.1301659048,0.1007020995,0.0558752455,-0.0956681296,-0.1038531587,-0.0880488455,0.0133521240,0.1792486012,-0.0409789085,0.0468596816,0.2245288342,-0.0325931907,0.0820640177,0.0077369995,0.0352654718,-0.1643189192,-0.0232113265,-0.0384447277,-0.0760390833,0.0937875733,-0.0743803605,0.0120347440,0.0497500189,-0.1396068782,0.1064212397,-0.0219472609,-0.0292260107,0.0202059690,-0.0192160811,0.0159419812,-0.0377248377,0.1399938315,-0.1537634283,0.1956617981,0.1904094964,-0.0113366246,0.0826735049,0.1062467024,0.0732046142,0.0304028112,-0.0044578263,-0.1239088029,-0.0979261324,-0.0639743283,-0.0181330685,0.0239677597,0.0032430545
n000129,-0.1023084223,0.0858497098,0.0473642759,-0.0474481061,-0.0616514832,-0.0658182651,-0.0377792940,-0.0989873782,0.1692851782,-0.0375851206,0.1967971325,-0.0300371982,-0.1956239492,-0.0843005627,0.0122369984,0.1183023751,-0.2359560281,-0.0811456889,-0.1327303499,-0.0916930214,-0.0153418863,0.0048226789,0.0792079791,0.0020639247,-0.1147219539,-0.3427079618,-0.0811222568,-0.1417789310,0.1691241115,-0.0581576377,-0.0006346782,0.0041049500,-0.1668617278,-0.1070167571,0.0267823413,0.0918776393,-0.0157026630,-0.0605719909,0.2549292743,0.0872444957,-0.1856721640,0.0496823154,0.0450678095,0.2142757028,0.2941346467,0.0550029650,0.0235818028,-0.1074569821,0.2040509284,-0.2567677796,0.1058904901,0.1779947728,0.1421089023,0.0539865270,0.1095868051,-0.0757876337,0.0364305824,0.0931055248,-0.2097732872,0.0859119520,0.1452373862,-0.0706012174,-0.0409126133,0.0073627904,0.0896348730,0.0857381448,-0.0791375935,-0.1088822111,0.1387103647,-0.1674830616,-0.0643175840,0.0671943203,-0.0707566440,-0.1330333203,-0.2722448111,0.0444561280,0.4983812571,0.1553856432,-0.1655641794,0.0232480746,-0.0806115419,-0.1494684964,0.0758713782,0.1379765272,-0.0584711879,-0.0962010771,-0.0717416778,0.0018488314,0.1604880989,-0.0160495341,0.0224151891,0.2035525441,0.0055922489,0.0991303697,0.0036604607,0.0553989746,-0.1851933300,-0.0029598640,-0.0682018772,-0.1061403975,0.0722230524,-0.0500402376,0.0349966921,0.0286625568,-0.1614982486,0.2027759999,-0.0028472366,-0.0307309087,0.0569317341,-0.0265349466,0.0251868330,-0.0042771501,0.1651099622,-0.1633763611,0.2027611881,0.1842108518,-0.0341621973,0.1129889265,0.0946469754,0.0958557650,0.0263489224,0.0379171558,-0.1228785440,-0.1121118143,-0.0775549635,-0.0148456609,0.0484558493,0.0196767524
n000129,-0.0949260965,0.0697878748,-0.0010211772,-0.0259032492,-0.0976049975,-0.0449078567,-0.0166138895,-0.1063548326,0.0860445648,-0.0380602330,0.2942846715,-0.0664127842,-0.2741279304,-0.1092551425,-0.0350250304,0.0758907944,-0.1642950475,-0.0881965533,-0.1829178184,-0.1093714237,0.0194494631,0.0189623591,0.0402712524,0.0022056072,-0.1605112106,-0.3387947083,-0.1224817261,-0.1487674415,0.1135577708,-0.1256390959,0.0321961753,0.0118228514,-0.1313132048,-0.0937796384,0.0373619832,-0.0055305287,-0.0451994874,-0.0897082314,0.2142380625,0.0539897345,-0.1112830937,0.0518756323,0.0669728667,0.2243541926,0.3063260615,0.0854180604,-0.0007604248,-0.1495842636,0.1075719967,-0.2778613269,0.0535233207,0.2054487765,0.1625579000,0.0779145733,0.1431698650,-0.0696755871,0.0523791425,0.0783335492,-0.1978413016,0.0568230450,0.0341692381,-0.0725507587,-0.0072418349,-0.0389464311,0.1041315049,0.0387333743,-0.0798439533,-0.0192882810,0.2065343112,-0.2142922878,-0.0669710562,0.0536970533,-0.0832480192,-0.2045158297,-0.2640570998,0.0433013998,0.4742506742,0.2619196773,-0.2047464997,0.0156210698,-0.0688483343,-0.1050041988,0.0528952964,0.0734781921,-0.1049987003,-0.1962602288,-0.0915720388,0.0181616042,0.1653063744,-0.0413719639,0.0369311869,0.2618540227,0.0202184673,0.0575497523,0.0861405283,0.0156665724,-0.1759968847,-0.0524677895,-0.0077533852,-0.0588094220,0.0433381312,-0.1052514166,0.0508175008,0.0731895790,-0.1048315614,0.1536161751,-0.0333604924,-0.0704639703,0.0299928840,-0.0497071408,0.0557878576,-0.0248409770,0.1586217731,-0.1894156039,0.1719988286,0.1851779670,-0.0303082969,0.1371264160,0.0635313839,0.1158393547,-0.0379701778,0.0007700680,-0.1217803210,-0.1112749651,-0.0732067674,-0.0475633703,0.0161710009,-0.0185197908
n000129,-0.1037148982,0.0639304444,-0.0249980949,-0.0688559785,-0.0824522302,-0.0422240458,-0.0371401869,-0.0335204341,0.0952187926,-0.0040055085,0.2624553144,-0.0946188942,-0.2547349632,-0.1059403270,0.0348546691,0.0995388851,-0.1388014406,-0.1015054882,-0.2134536952,-0.0905745625,-0.0275182500,-0.0023962727,0.0462519601,0.0201302040,-0.1398504972,-0.3763083816,-0.0754478946,-0.1487891674,0.1355642825,-0.1344734132,-0.0114393793,0.0203169342,-0.1421926916,-0.0962936431,0.0785003155,0.0113246841,-0.0258564539,-0.1105762497,0.2865051329,0.0682216808,-0.1847122312,0.0559985749,0.0748086870,0.2116569579,0.2952337563,0.0726467445,0.0131766479,-0.1193908453,0.1732244790,-0.2490978241,0.1053507179,0.1961550862,0.1485098451,0.0464134254,0.1426621377,-0.0678168312,0.0444291048,0.1011555195,-0.2292190641,0.0251178630,0.0601024069,-0.0462827832,-0.0981124267,-0.0688763782,0.0917193070,0.0831200853,-0.0851302743,-0.1140559986,0.1588755697,-0.1853616685,-0.0408482179,0.1131511256,-0.0970039293,-0.1927638501,-0.2482272089,0.0978546515,0.4179693460,0.2294885218,-0.2397423536,0.0205627829,0.0087385625,-0.1153912842,0.1072726920,0.1084639728,-0.0934385061,-0.1590529829,-0.0514400825,-0.0234526098,0.1686938256,-0.0167786144,-0.0003415481,0.1941974908,0.0259274449,0.0581284054,0.0651611388,0.0323334187,-0.1598129421,-0.0683909059,-0.0559368208,-0.0720420480,0.0995260477,-0.0405243114,0.0041063698,0.0533743948,-0.1089073867,0.1325276494,-0.0357157476,-0.0799693614,0.0239847023,-0.0381142795,0.0639000088,-0.0522635803,0.1102012843,-0.1977883130,0.1558491737,0.1678957045,-0.0202555303,0.1001285687,0.0968337134,0.0859640315,0.0311038289,0.0587335564,-0.1322357506,-0.1316654086,-0.0042328867,0.0131283542,0.0358588174,-0.0552942641
n000129,-0.0921011046,0.0966419727,0.0286085159,-0.0360456258,-0.0790713206,-0.0070947744,-0.0646701306,-0.0902655870,0.0884299800,-0.0193111487,0.2613716424,-0.0805575326,-0.2898006737,-0.0749532506,-0.0382944159,0.0969149619,-0.1932811886,-0.0984485224,-0.2207611948,-0.0944693089,-0.0429495648,0.0145105394,0.0374331325,0.0112688970,-0.1590063870,-0.3666788340,-0.0734026879,-0.1231532246,0.0966130868,-0.0894250125,0.0322374292,-0.0421022773,-0.1338955909,-0.0656995550,0.0357066914,0.0415685363,-0.0759896487,-0.0880069435,0.2529697418,0.0828666911,-0.1589425355,0.0152552780,0.0571433082,0.2258695513,0.2665674090,0.0542956032,0.0481533632,-0.1093882844,0.1278606504,-0.3161534071,0.0449959785,0.2223503441,0.1884392649,0.0621524528,0.1529960632,-0.0658368543,0.0174482167,0.1611006856,-0.1613933891,0.1216349900,0.0558899716,-0.0557124391,-0.0478086099,-0.0495505035,0.1269833893,0.0834464580,-0.1286238730,-0.0918505043,0.1740608066,-0.1911843270,-0.1002834141,0.1066358835,-0.0391120836,-0.2153865695,-0.2913525105,0.0406897627,0.5073660612,0.1978897601,-0.2381652594,-0.0423204899,-0.0349365324,-0.1370255202,0.0544587709,0.1193658412,-0.1310383528,-0.1229123250,-0.0856347084,-0.0070469915,0.2088610679,-0.0096805422,0.0137919718,0.2314324826,0.0189830568,0.0839875862,0.0480893143,0.0341018289,-0.1601977497,-0.0388042852,-0.0241500530,-0.0458887741,0.0928758755,-0.0884079188,0.0320080332,0.0252885707,-0.0873446092,0.1815825999,-0.0327254832,-0.0620756634,0.0539757125,-0.0217571650,0.0055482327,-0.0145498477,0.2370424420,-0.2138439119,0.1557538509,0.2068280727,-0.0103592230,0.0820842758,0.1161576137,0.0801814869,0.0103727030,0.0522715673,-0.1355063468,-0.1385584474,-0.0912169889,-0.0974579826,0.0180258024,-0.0310251303
n000129,-0.0979080349,0.0669790730,-0.0187019967,-0.0511395074,-0.1294721514,-0.0531823635,0.0003084296,-0.0275440365,0.1464291960,0.0020991955,0.2819672227,-0.0979067832,-0.2011183500,-0.1152840257,-0.0278693028,0.1073696837,-0.1838642508,-0.0523302630,-0.1835473627,-0.1284645647,0.0217172150,0.0204767380,0.0300591644,0.0384247825,-0.1520412266,-0.3548970819,-0.0736773610,-0.1221902594,0.1406270266,-0.1121400818,0.0197091363,0.0562727749,-0.1667426378,-0.1600640416,0.0761964768,0.0814334229,-0.0328086615,-0.0525708646,0.1860788912,0.0572324879,-0.1405624300,0.0503237993,0.0544604734,0.2511359751,0.2726363540,0.0943490267,0.0056450088,-0.1406795681,0.1181935370,-0.2707162201,0.0541937910,0.2154022455,0.1184104308,0.0440900959,0.1118506566,-0.0323311612,0.0225380119,0.1080084592,-0.2111260146,0.0374099538,0.0739338323,-0.0672816858,-0.0402946025,-0.0976423174,0.0981513634,0.0880772769,-0.0748194978,-0.0903056562,0.1971980184,-0.1952460259,-0.0709775761,0.0694650039,-0.0690071136,-0.1711844504,-0.2993880808,0.0432500727,0.5350643992,0.2188026458,-0.1676982790,-0.0000224196,-0.0745802522,-0.1046490595,0.0510333069,0.0976594016,-0.0956567228,-0.1266136467,-0.0569569618,0.0707737803,0.1469236314,-0.0376938544,0.0237055793,0.2023249567,0.0165759828,0.0784582421,0.0417637490,0.0204505324,-0.1669111848,-0.0033330263,-0.0363893993,-0.0532130338,0.0736796558,-0.0836854726,0.0822519362,0.0757503361,-0.1179063469,0.1606363952,-0.0292539634,-0.0631705374,0.0373865776,-0.0140826190,0.0564981028,-0.0204244796,0.1729276776,-0.1793842465,0.1868339181,0.1895136684,-0.0170556717,0.1289266795,0.0728284568,0.1108660176,-0.0000053757,-0.0035652262,-0.1203247383,-0.0889528915,-0.0965174139,-0.0533779934,0.0339943320,-0.0182255059
n000129,-0.1068680659,0.0844736323,-0.0171141718,-0.0813448727,-0.0977933183,-0.0657604858,0.0109970793,-0.0702802166,0.1204572693,-0.0122262482,0.2653293908,-0.1037949026,-0.2762522995,-0.0966020599,0.0127158174,0.1143214852,-0.1480678022,-0.0768438131,-0.1569495201,-0.0810503513,0.0155917667,0.0068659270,0.0262066126,0.0284644328,-0.1150727272,-0.3500657678,-0.1079737842,-0.1103499606,0.1145453826,-0.0891382992,-0.0183340423,0.0090019749,-0.1483552605,-0.1211107820,0.0551209562,0.0445368290,-0.0440442711,-0.0957039297,0.1978671998,0.0610991158,-0.1664829552,0.0481796339,0.0981851444,0.2233779877,0.2926976085,0.0810304582,0.0213976558,-0.1370043010,0.1100174412,-0.2718045712,0.0826275945,0.1754407287,0.1187459379,0.0360415652,0.1438912004,-0.0407353938,0.0052317432,0.0838005468,-0.1805035025,0.0446513891,0.1269675046,-0.0508421138,-0.0556743480,-0.0970939100,0.1148445606,0.0599026345,-0.1037160307,-0.0759740695,0.1345806867,-0.2151309848,-0.0869302228,0.0611875616,-0.0789769664,-0.1735309958,-0.2931514978,0.0947170705,0.4445279539,0.2438907921,-0.1628223658,0.0342980772,-0.0476721153,-0.0797294900,0.1059740260,0.0916578323,-0.0512461513,-0.1418042630,-0.1007829234,0.0117574977,0.1823121309,-0.0678904727,0.0399595276,0.2184146494,-0.0058119902,0.0738456398,0.0140003944,0.0507861860,-0.1767273396,-0.0435358062,-0.0444539040,-0.0670122132,0.0944341421,-0.0578916520,0.0473035686,0.0801962540,-0.1159032509,0.1062614098,-0.0380807146,-0.0604057312,0.0436169691,-0.0427351333,0.0348393880,-0.0443591177,0.1081951559,-0.1678039730,0.1592506915,0.1626894325,-0.0416243114,0.0771243870,0.1030211151,0.0966979712,0.0104913227,0.0152901588,-0.1094140336,-0.1092816144,-0.0395517610,0.0096390052,0.0487377644,-0.0312965624
n000129,-0.1251331717,0.0512362868,-0.0206949133,-0.0825802386,-0.0757684782,-0.0638834611,-0.0191502962,-0.0684666112,0.1597573906,-0.0400295816,0.2509813607,-0.0374268629,-0.2300143838,-0.1187466010,-0.0118346382,0.1019392908,-0.2143907398,-0.1056105494,-0.1596318185,-0.1229380965,-0.0296943896,-0.0392617770,0.0605568811,-0.0296150837,-0.1448209882,-0.3794794381,-0.0616462268,-0.1679040790,0.1408004314,-0.0862114206,0.0478172675,0.0000854622,-0.1702362597,-0.0852639526,0.0386488400,0.0352396443,-0.0164999589,-0.0312398169,0.2720308006,0.0987631753,-0.1734534204,0.0767931491,0.0197671317,0.2488051504,0.2777840197,0.0664881095,0.0205988213,-0.1434961706,0.1870802641,-0.2694950104,0.0558139607,0.1975767910,0.1098982170,0.0170386657,0.1371480376,-0.0203826036,0.0541539602,0.0705725551,-0.2219520956,0.0662524179,0.0912395120,-0.0612363666,-0.0779836774,-0.0377665423,0.1292538196,0.0635454431,-0.0810171887,-0.0621372052,0.1836862564,-0.1745763719,-0.0442386530,0.0623716675,-0.0550334342,-0.1743516475,-0.2416165024,0.0571726933,0.4624987841,0.1965944022,-0.1832263023,0.0477062762,-0.0726718679,-0.1218877509,0.0961131081,0.1084777936,-0.1033859849,-0.0919855908,-0.0451847687,0.0050435173,0.1820837855,-0.0334241614,0.0372839086,0.2234631181,0.0095801065,0.0853217766,0.0470576957,0.0124929808,-0.1792051196,-0.0519132242,-0.0618531257,-0.1079299971,0.1136429012,-0.0879024491,0.0624178164,0.0164806191,-0.1643349975,0.1506330967,-0.0353917293,-0.0675157607,0.0482297204,-0.0195830502,0.0971444547,-0.0262059178,0.1358629763,-0.1840405613,0.2333777696,0.2124799639,-0.0127594694,0.1134918630,0.0886560977,0.0333932079,-0.0128082214,0.0490313061,-0.0934918895,-0.1144487336,-0.0934025571,-0.0053554927,0.0478602275,-0.0318102501
n000009,-0.1073812321,0.0747909695,0.0375714898,-0.0955671817,-0.1560253501,-0.0504637249,-0.0370425098,-0.0438537598,0.1769244969,-0.1363825798,0.2823919356,-0.0721445307,-0.2174985856,-0.0559846759,-0.1113083735,0.2646619081,-0.1836755723,-0.1460178643,-0.0492330864,0.0446464941,0.1082283109,0.0249213073,-0.0645761266,0.0452567339,-0.1124443337,-0.3533548117,-0.0735176653,-0.0360577479,-0.0506460778,-0.1008135751,0.0494636185,0.0476967655,-0.1507830769,-0.0048955274,0.0674390644,0.0975229815,0.0081790052,-0.0801269338,0.1388105899,0.0080065904,-0.3328846991,0.0184923764,0.1105047390,0.2480366975,0.1258420944,0.0055777500,0.0202584565,-0.1954680979,0.1303047389,-0.1426697373,-0.0144765470,0.0944154710,0.0763918608,0.0386808775,0.0267266128,-0.1204332635,0.0216377806,0.1447495073,-0.1584099382,-0.0314003490,0.1044601128,-0.0688184798,-0.0223337505,-0.1525147259,0.2132163793,0.0146058444,-0.1657187194,-0.2002449781,0.1637795120,-0.1551301926,-0.0983579308,0.0715179145,-0.1304544806,-0.1876462698,-0.3509433270,-0.0166911501,0.3759233952,0.1036413163,-0.1475024074,0.0666917488,-0.0043325233,0.0189231224,0.0553477295,0.2090329975,0.0144472448,0.0722656548,-0.0627901405,0.0061653838,0.2480653673,-0.0691779628,0.0164569169,0.2120609879,-0.0219589509,0.0582773983,-0.0320699885,-0.0226737335,-0.0788524523,0.0396953039,-0.1093827635,0.0033952305,-0.0317006744,-0.0235686786,0.0113765262,0.0979339480,-0.1383690983,0.0858127996,0.0057571568,0.0386525765,-0.0070693898,0.0713292211,-0.0910937563,-0.0856627077,0.1162556037,-0.2080790102,0.2160763592,0.1568285078,0.1389724612,0.0813402012,0.1747009158,0.0705672055,-0.0061015994,-0.0419922769,-0.1966124922,0.0131074628,0.0701403320,-0.0904851407,0.1170354709,-0.0169497244
n000009,0.0047440422,-0.0618104078,-0.0132845929,-0.1021470875,-0.1045139581,0.0158549715,-0.0723537281,-0.0318174735,0.1886401772,-0.1483034492,0.2032941282,-0.0673838407,-0.2322120965,0.0292467866,-0.0917723328,0.1815962046,-0.1430082172,-0.1410947144,-0.0138719976,0.0066566211,0.0575701259,0.0464509688,-0.0337343663,0.0938556641,-0.0980275795,-0.2843215764,-0.1306923777,-0.0774413571,-0.0570266545,-0.1055399776,0.0038354993,0.0090442458,-0.1341807842,0.0443598777,0.0520796366,0.0774620175,0.0021939920,-0.1334168464,0.0833827481,0.0520463027,-0.3128583133,0.0628524423,0.0792162865,0.2241975665,0.1461111307,0.0723780170,-0.0536255389,-0.1744410396,0.0857124254,-0.2185584307,0.0286761783,0.1300884634,0.0363620706,0.0661934763,0.0090819988,-0.1095246524,0.0720482022,0.1218638122,-0.1787513644,-0.0131472731,0.0748065412,0.0002607483,0.0549938306,-0.1050919965,0.2339540720,0.0809365064,-0.1673163921,-0.1928864866,0.1180278733,-0.2316714078,-0.1259065717,0.1240998507,-0.1202524602,-0.2354540229,-0.2385737151,0.0147171486,0.3781507611,0.1686644107,-0.1113868132,0.1247086450,-0.0542473868,0.0327543616,0.0697489753,0.1762373149,0.0647768751,0.0358462855,-0.0621605553,-0.0366683751,0.2536616027,-0.0806493908,0.0166882928,0.2407114506,-0.0390905179,0.0385480709,0.0072747432,0.0707118064,-0.0604437999,0.0651174113,-0.1014966890,-0.0243684128,-0.0142630385,0.0198220853,0.0177803989,0.0658998489,-0.1830628663,0.1585419029,-0.0092897592,-0.0459858663,0.0567871295,0.0571036488,-0.0364196226,-0.0495511182,0.1365917772,-0.3442103565,0.2047151625,0.1446688771,0.1761159599,0.1123821214,0.0726840273,0.1123024374,-0.0254733302,-0.0992168039,-0.2207455337,-0.0248971749,0.0192075856,-0.0517449416,0.0493856296,0.0055808774
n000009,0.0175583828,-0.0618371181,-0.0253467970,-0.0828220323,-0.1549398899,-0.0395289212,-0.0756194964,-0.0124709429,0.1558259279,-0.0553060919,0.1912766993,-0.0610285923,-0.2241711468,0.0022912559,-0.1397771835,0.1952803433,-0.1691866368,-0.1344667673,-0.0095370188,0.0571676008,0.0078216540,0.0090651633,-0.0206059422,0.1228006333,-0.0686500147,-0.3248930871,-0.0968666300,-0.0919710472,-0.0552749559,-0.0938013792,-0.0012676410,0.1005692109,-0.1564580947,0.0156948771,0.0564222448,0.0869912654,-0.0174462888,-0.1266459823,0.1318025738,0.0464951955,-0.3276844621,0.0726265758,0.0753179118,0.2486625314,0.1541912705,0.0511198789,-0.0030682010,-0.1545761824,0.0867300928,-0.2110438794,0.0556280799,0.1442289054,0.0489067174,0.0410629213,-0.0031080253,-0.1277906001,0.0713595748,0.1128233597,-0.2056836635,-0.0447910018,0.0691975355,0.0157873649,0.0492781028,-0.1316508651,0.2317271531,0.0889784396,-0.1399279237,-0.1672396809,0.1771629155,-0.2243956923,-0.1044676900,0.1031823531,-0.1011442393,-0.2187104523,-0.2704590261,0.0224860255,0.3928523660,0.1922531277,-0.1171946675,0.1120410860,-0.0543423072,-0.0236157570,0.0341934822,0.1698490530,0.0235794038,0.0571886376,-0.0892437622,-0.0139953187,0.2146779001,-0.0452063382,0.0261250697,0.2133846432,0.0080517065,0.0258572977,0.0170925744,0.0513423346,-0.0622997135,0.0859701782,-0.1379594356,0.0001043579,-0.0107670138,0.0220077969,0.0242730360,0.0869788826,-0.1454747170,0.1321064979,0.0028313496,-0.0532642640,0.0273383781,0.0597298257,-0.0258183181,-0.0695303157,0.1213852465,-0.3093529344,0.2065690309,0.0899326652,0.1877197325,0.1083970293,0.0704520494,0.0990615338,-0.0385517068,-0.1511045247,-0.2294815928,-0.0192748178,0.0486985147,-0.0523199812,0.0761223361,0.0474593490
n000009,-0.0973419920,0.0029618163,0.0048425714,-0.1307682246,-0.1116319150,-0.0425716192,-0.0912886411,-0.0316430926,0.1703827232,-0.1508023292,0.1734648645,-0.0714004338,-0.2245163023,0.0197683536,-0.1237024218,0.2433255315,-0.1638236195,-0.1597841531,-0.0435775258,0.0056838961,0.0903035477,0.0445786417,-0.0868042335,0.0458104722,-0.1352269053,-0.3007100224,-0.0832723007,0.0134732453,-0.1090095788,-0.0516981073,0.0355103873,0.0380202234,-0.1584908068,0.0543823354,0.0614057444,0.1220265031,0.0162294954,-0.0995278955,0.1307833791,0.0654417202,-0.3052052557,0.0761195645,0.0979466066,0.2266660631,0.1438832730,0.0003560128,0.0072872872,-0.1926180124,0.1332182288,-0.2015803009,-0.0359465033,0.1249669492,0.0668466613,0.0057195928,0.0332730263,-0.1144142970,0.0156191811,0.1444421858,-0.1521257460,-0.0336286649,0.0649509653,-0.0117096873,-0.0436753072,-0.1724816412,0.2028320432,0.0832750201,-0.1860669106,-0.2342376113,0.1467893720,-0.1663425565,-0.1083406135,0.0856308043,-0.1044635773,-0.2162001431,-0.2911112905,-0.0002569923,0.3502401710,0.1162760034,-0.1683787704,0.1277508587,0.0049526952,0.0143250665,0.0752437785,0.1811219454,0.0155258477,0.0862465873,-0.0579258427,-0.0070553203,0.2750500143,-0.0540600158,-0.0068025417,0.1883839220,-0.0003142681,0.0738272518,-0.0249314606,0.0024324530,-0.0980688035,0.0351250991,-0.1362046152,-0.0286094192,0.0051079947,0.0335585624,0.0119256647,0.0945704281,-0.0985099450,0.1420140117,-0.0210736338,-0.0073227137,-0.0194218159,0.0761630014,-0.0813623071,-0.0442080908,0.1060890779,-0.2278478295,0.1665192842,0.1169359684,0.1045945138,0.0771382973,0.1758531779,0.0719481930,-0.0039593768,0.0212661885,-0.2120442986,-0.0205448009,0.0491222553,-0.0656952560,0.1259269863,-0.0081560332
n000009,-0.0314975269,0.0656275004,0.0086749569,-0.1458970159,-0.1595889777,0.0531078093,-0.0924028382,-0.0445264615,0.1784717441,-0.1788563281,0.2360415906,-0.1029356420,-0.2476604432,0.0328659266,-0.1115415096,0.2717358470,-0.2085466683,-0.1198033988,-0.0203746557,0.0232150685,0.0340707451,0.0816076547,-0.0189611595,0.0680316538,-0.0827529281,-0.3341665864,-0.0911693648,-0.0572727583,-0.0616034344,-0.1244853809,-0.0037894936,0.0579125509,-0.1179932803,0.0873299912,0.0290722828,0.1052291915,-0.0915096775,-0.1263141483,0.1128125712,0.0950861275,-0.2979025245,-0.0017030956,0.0734283850,0.2232225537,0.1573383361,0.0026824812,-0.0174073726,-0.1590255797,0.1171018258,-0.1970289797,0.0131942835,0.1372026652,0.0748627484,0.0869441852,-0.0123007437,-0.1027749777,0.0213978495,0.1327536404,-0.1497523487,-0.0215601511,0.1430578232,-0.0418259688,0.0124310069,-0.1305382103,0.2008810192,0.1081283242,-0.1825181842,-0.2116290778,0.1235857606,-0.1672786027,-0.1238282248,0.0874975473,-0.1470137388,-0.2141574025,-0.2481799573,-0.0033971232,0.2969266474,0.1307915449,-0.0476094969,-0.0045723040,0.0178247131,-0.0265342332,0.0023063761,0.2275099009,0.0158875622,-0.0056388541,-0.0421110280,0.0307618380,0.2074386775,-0.1257300079,0.0236823745,0.2398288548,-0.0696526170,0.0805130377,-0.0838155821,0.0542668812,-0.1065760925,0.1010326520,-0.0647902936,0.0154687995,-0.0578582920,-0.0165370088,-0.0049007069,0.1008027941,-0.0881308094,0.1604124904,-0.0376607776,0.0181610491,0.0187257063,0.0288775526,-0.0820870772,-0.0705809593,0.1483159512,-0.1920246631,0.1708803177,0.1435801089,0.1484085768,0.0613938533,0.1520089656,0.1149541810,-0.0007109595,-0.0843841881,-0.2651906908,0.0099991746,0.0469083302,-0.0574983954,0.0098563405,-0.0142136142
n000009,-0.0508011617,0.0425716937,0.0405163728,-0.1152631268,-0.1363984495,-0.0555023551,-0.0794794858,-0.0506122783,0.1145010963,-0.1814586073,0.1956891119,-0.0905972347,-0.2474574000,-0.0605681129,-0.0979018137,0.2587897480,-0.1861244291,-0.1564125270,-0.0227081254,-0.0016117326,0.0662271678,0.0368477441,-0.0277488586,0.0481601134,-0.1292558014,-0.3563822806,-0.0918048397,-0.0227811076,-0.0888672844,-0.0431784578,0.0448231325,0.0364180431,-0.1645369828,0.0558800958,0.0413643420,0.0715469792,0.0070722643,-0.1067131832,0.1542744488,0.0357771590,-0.3212424517,0.0640162304,0.0937172920,0.2500325441,0.1274912059,0.0014212322,0.0192100871,-0.1557209790,0.1480817050,-0.1615826786,0.0361793377,0.1030090675,0.0012479278,0.0116613619,0.0228344109,-0.0779122561,0.0407173634,0.2083799243,-0.2144772112,-0.0107776960,0.0917581022,-0.0499437861,-0.0455557741,-0.1385668069,0.1917715818,0.0795715675,-0.1486585885,-0.2725780010,0.1462332010,-0.2000163347,-0.0963845327,0.1143556014,-0.1243488044,-0.1808221042,-0.3197163045,0.0398869775,0.3654300570,0.1565296054,-0.1048915535,0.0712465346,0.0416732952,-0.0015385334,0.1321210712,0.1886903495,0.0257631186,0.0389636755,-0.0638267547,0.0248103756,0.2408099025,-0.0386442021,-0.0611626022,0.2263124883,-0.0135653215,0.0321724638,-0.0313852318,-0.0142869037,-0.1048427522,0.0654607192,-0.1324780136,-0.0189023670,0.0434809513,-0.0004515910,-0.0043797838,0.1021737531,-0.1064730957,0.1187177971,-0.0419286340,0.0026864505,0.0019493951,0.0694574341,-0.1167514622,-0.0591800921,0.0989801288,-0.2265502214,0.2001673281,0.1324954629,0.1583870947,0.0690360144,0.1687926203,0.0496283770,0.0029426636,-0.0625096262,-0.2248201370,-0.0248600170,0.1131319478,-0.0542733856,0.1789598167,-0.0200018883
n000009,-0.0527909733,0.0847480521,0.0541281700,-0.1327631027,-0.1574421078,0.0081532607,-0.0475262403,-0.0644548610,0.1019918844,-0.1370263696,0.2407292277,-0.1428543478,-0.2151217461,0.0298487153,-0.0842510238,0.2505540848,-0.1750689894,-0.2259977758,-0.0422989540,0.0155981248,0.0481073074,0.0823051259,-0.0851247311,0.0778441653,-0.1809131354,-0.3025503755,-0.1294926256,-0.0294771362,-0.0632531717,-0.0886019468,-0.0236475412,0.0779475868,-0.1430857182,0.0412753113,0.0903280452,0.1122885868,0.0049163117,-0.1074133664,0.1256601363,0.0485891402,-0.3195507824,0.1262605190,0.2135892957,0.2793075740,0.1814318597,0.0476109162,-0.0349391997,-0.1224941909,0.0859911665,-0.1878612936,0.0001741806,0.1369806379,0.1301320642,0.0743457228,-0.0009499678,-0.1200749055,0.0351815037,0.1191960424,-0.1779341400,-0.0399904363,0.0965303406,-0.0457538888,0.0197288804,-0.1403958499,0.2303030044,0.0921892449,-0.1380423158,-0.2264147252,0.1258885562,-0.1973749697,-0.1770868003,0.0853341222,-0.1633101851,-0.1379653364,-0.2958990335,-0.0238684751,0.2912846506,0.1321974248,-0.1431960613,0.1336277127,0.0502993055,0.0399937257,0.0147490632,0.1514266580,-0.0358376801,0.0567008443,-0.0951177180,0.0123674674,0.2929103673,-0.0739997551,0.0338222496,0.2133274227,-0.0166736133,0.0437585153,0.0167266205,0.0123721166,-0.0956910774,0.0023471296,-0.1385588646,-0.0396515056,-0.0330509879,0.0372405946,-0.0140415644,0.1582620144,-0.1867918223,0.1471238583,-0.0556361824,-0.0127079068,-0.0530984364,0.0644709691,-0.0213650484,-0.0240281299,0.1282388419,-0.2287417501,0.1344829202,0.1398065090,0.0574202426,0.0227733273,0.1765706688,0.0461106896,-0.0426357910,-0.0180903692,-0.2470467240,-0.0458473042,0.1166955382,-0.1263215989,0.1375616342,0.0247820765
n000009,-0.1157967970,0.0239915047,0.0629980862,-0.0559411347,-0.1377995312,0.0293620303,-0.0390249602,-0.0154211270,0.1445196718,-0.1248518229,0.2226629108,-0.0393142700,-0.2019067109,0.0502448417,-0.0847133398,0.2123488933,-0.1260026246,-0.1969747543,-0.0456885919,0.0070063286,0.0693377629,0.0253302492,-0.0649220943,0.1131919175,-0.1911926717,-0.3343532979,-0.1160770431,-0.0583635867,-0.0563598275,-0.0415567942,-0.0268784501,0.0061788517,-0.1427493691,0.0373408459,0.0553454794,0.0548038594,-0.0277205799,-0.0961696506,0.2406400144,0.0671321154,-0.2504064143,0.1025766805,0.0951459482,0.2814821899,0.1248756126,0.0770810321,0.0398109443,-0.1315177977,0.0989705697,-0.1972483099,0.0806946382,0.1788122505,0.1183161438,0.0909782574,0.0263250284,-0.1181522757,0.0087394817,0.1518098414,-0.1780430228,0.0520115681,0.0046315142,-0.0132579720,0.0376434661,-0.1424775869,0.2254742980,0.1115012020,-0.1547087133,-0.1729037464,0.1348431706,-0.1616698354,-0.1204073951,0.0523508675,-0.1591255963,-0.2125991881,-0.2970103323,0.0667416453,0.3967221379,0.1825034767,-0.1831281781,0.0615785196,-0.0045123617,-0.0256542359,0.0638477877,0.1607168168,-0.0327141248,-0.0312091932,-0.0492104702,0.0141964946,0.2483351678,-0.0210555680,-0.0080454266,0.2111596465,0.0280093774,0.0218915977,-0.0125701353,0.0678931028,-0.1109019518,0.0373479351,-0.0696980953,0.0004440772,-0.0242477115,0.0576029904,0.0542071946,0.1132428721,-0.1679932475,0.1169041991,-0.0482711606,-0.0318728797,-0.0242030974,0.1407508552,-0.1353708357,-0.0938954875,0.0915053710,-0.2561632693,0.1590066552,0.1441564560,0.0294509307,0.0950587764,0.1406673491,0.0968564674,-0.0087560648,0.0117849056,-0.1924859136,-0.0349263400,0.1080001667,-0.0203277543,0.1282088757,0.0487191491
n000009,0.0174380261,0.0685144961,0.0208916068,-0.0821522847,-0.1105217263,-0.0062169787,-0.1026589572,-0.0344479010,0.2063990384,-0.1230095327,0.1994352341,-0.0180753171,-0.2258287817,-0.0214649066,-0.1278787702,0.2874430716,-0.2173207849,-0.1726368368,-0.0067470102,0.0264173150,0.0306551978,0.0445695743,0.0133010438,0.0956683531,-0.1855017692,-0.3283455372,-0.0793035999,-0.0723945200,-0.0655261949,-0.0546290614,-0.0045287185,0.0531831682,-0.1818768829,0.0300130118,0.0627400726,0.0755294561,-0.0158648752,-0.1701826006,0.2252400368,0.0934473723,-0.3208167851,0.1075348929,0.0697459951,0.2798620760,0.1189837530,-0.0390271544,0.0472001284,-0.1355561167,0.1428367943,-0.2107146531,0.0122427586,0.1532517076,0.0578025803,0.0208594296,0.0242200308,-0.0962813571,0.0603794903,0.1916720271,-0.1804107577,-0.0207515694,0.0731445327,-0.0136454236,0.0132677648,-0.1259438843,0.2186575383,0.0906998143,-0.1386826038,-0.1802028567,0.1531371176,-0.1259587854,-0.1031635180,0.0736094862,-0.1303335428,-0.2087167650,-0.2986061573,0.0131918397,0.3726802766,0.1787398905,-0.1613191515,0.1264851987,0.0075346096,0.0176661965,0.0670212507,0.2060858607,0.0086629512,0.0574881881,-0.0705107450,0.0262156334,0.2562712729,-0.0403243266,-0.0131894490,0.2237895876,0.0024991618,0.0389511734,-0.0164852552,-0.0164994299,-0.1079332903,0.0544921122,-0.1369553655,0.0053925063,0.0295084827,0.0534791872,0.0062555587,0.1136203855,-0.1509068161,0.0909300372,-0.0091699688,-0.0573477149,0.0378821082,0.1187245473,-0.0941802710,-0.0672709122,0.1131245196,-0.2417732477,0.2188875377,0.1126953438,0.0857438967,0.0765966922,0.1577678025,0.0762590840,-0.0303696059,-0.0574256591,-0.2178044766,-0.0673804656,0.1086370498,-0.0674282461,0.1604697853,-0.0101177562
n000009,-0.0488233566,0.0327709168,0.0538950637,-0.1176570430,-0.1703365147,-0.0294476189,-0.1127639636,-0.0494783409,0.1350425184,-0.1750473529,0.1589971185,-0.0641288385,-0.2153266966,-0.0288762748,-0.1028173417,0.2728649378,-0.1555081755,-0.1604431421,-0.0406641550,-0.0301021822,-0.0169786382,0.0712809190,-0.0114293238,0.0481780954,-0.1313665062,-0.3397580683,-0.0558145903,-0.0244139805,-0.1085282788,-0.0789435208,0.0323024690,0.0559906773,-0.1492343992,0.0641453117,0.0471646301,0.1038649976,-0.0249663945,-0.0981269628,0.1636376530,0.0496657640,-0.3243029416,0.0873100311,0.0811029002,0.2706154585,0.1318600029,-0.0077609150,0.0232062917,-0.1502670944,0.1124307737,-0.1791098863,0.0088867275,0.1095679104,0.0123343533,-0.0201794412,0.0051110089,-0.0940183252,0.0227849372,0.1834633797,-0.1673783511,0.0141207566,0.0999208763,-0.0486607812,-0.0433933325,-0.1318954229,0.2225141823,0.0911898315,-0.1466110200,-0.2412173152,0.1304436177,-0.1990075409,-0.1259696484,0.0646720901,-0.1079265326,-0.2102982104,-0.3105152249,0.0229663160,0.3246066272,0.1831306666,-0.1654985249,0.0745813549,0.0417967476,0.0297284424,0.0971269757,0.2042967677,-0.0159110948,0.0611852892,-0.0513428971,-0.0015699860,0.2596244216,-0.0425812118,-0.0437831879,0.2273798287,0.0198321249,0.0329446793,-0.0344310850,-0.0499081910,-0.0984066650,0.0537828840,-0.1662546545,-0.0350074954,0.0452594832,-0.0004842994,0.0328113809,0.1196969897,-0.1429384798,0.1607764214,-0.0437223651,-0.0270839725,0.0221269503,0.1319140941,-0.1078888476,-0.0855858997,0.1555561870,-0.1894718409,0.1965384036,0.1823731214,0.1778014004,0.0965077952,0.2219002992,0.0725187585,0.0089513762,0.0023495459,-0.1906000525,-0.0277691893,0.0900122374,-0.0759170577,0.1780532598,0.0348335132
n000009,-0.0646484941,0.1213833615,0.0504700467,-0.0822349042,-0.1260300428,-0.0294239894,-0.0873925835,-0.0134377098,0.1712370962,-0.0853601322,0.2099643350,-0.0299563445,-0.2627033591,-0.0146632530,-0.0978960022,0.2606970072,-0.1635964215,-0.2149066776,0.0148252696,0.0358559862,0.0678843334,0.0631777123,-0.0038692774,0.0655149445,-0.1388345063,-0.3435351849,-0.0843499303,-0.0117737008,-0.0852097720,-0.0657989904,0.0248823669,0.0511313900,-0.1632326990,0.0447517484,0.0688935593,0.0808416083,-0.0325338468,-0.0851473883,0.1656725854,0.0754801184,-0.3521660268,0.0979663432,0.1234804168,0.2858706713,0.2112428844,0.0202432685,0.0141373966,-0.1368562281,0.0014326921,-0.2047752887,0.0478466973,0.1932298988,0.0717248842,0.0358521901,-0.0010669208,-0.1371215582,-0.0114970887,0.1400192529,-0.1555051953,-0.0440081768,0.0868205652,0.0055489368,-0.0043734075,-0.1125785559,0.2210506648,0.0853947997,-0.1804131418,-0.2117284387,0.1193217933,-0.1957423985,-0.1472013891,0.0964538977,-0.1386762261,-0.2132492959,-0.2676118314,0.0231940597,0.3593104184,0.1430779397,-0.1582508385,0.1489417106,0.0112768393,0.0158876404,0.0157693475,0.1946636438,-0.0137739843,0.0437006727,-0.0767135099,-0.0225396659,0.2289791554,-0.0255306810,-0.0348778367,0.2176482081,0.0050275750,0.0409321934,0.0146239139,0.0180670340,-0.0444189571,0.0365887582,-0.1669532508,-0.0827289820,-0.0568507574,0.0063643162,-0.0320598632,0.1064194292,-0.1595613360,0.1496588588,0.0210485831,0.0011572134,-0.0087035960,0.1349052638,-0.0556150638,-0.0605976060,0.1084717438,-0.2418467849,0.2310925275,0.1449245214,0.1007273719,0.0891231075,0.2027977258,0.0965090096,0.0143359723,-0.0408719257,-0.1746640801,-0.0372321345,0.0581272170,-0.0833977237,0.1780567914,0.0378944688
n000009,-0.1083734706,0.0615531541,0.0342809595,-0.0961455777,-0.0970012769,-0.0268349182,-0.0716487318,-0.0954128280,0.1503823698,-0.1230420470,0.2103721350,-0.0456223749,-0.2337859273,-0.0376938917,-0.1362534165,0.2501422465,-0.1452637166,-0.1524036378,-0.0560870916,-0.0044281147,0.0788024068,0.0393598452,-0.0548676960,0.0518060140,-0.1364890188,-0.2681561112,-0.0957521349,-0.0268695541,-0.1024329439,-0.0606320724,0.0162615795,0.0021382689,-0.1270712614,0.0365173630,0.0693384185,0.0716636404,0.0089559974,-0.0985156149,0.1450220644,0.0023773634,-0.2943021059,0.0831014514,0.1047847718,0.2407819182,0.1488370448,0.0120635992,0.0168203581,-0.2022314668,0.1303672791,-0.1502486467,-0.0264137648,0.1220233291,0.0724877194,0.0143481204,0.0215513688,-0.1277700961,-0.0072177472,0.1365528256,-0.1356136203,-0.0414191596,0.0632710382,-0.0316269509,-0.0512532964,-0.1764524132,0.2082986832,0.0637125820,-0.2075134814,-0.2244386524,0.1658456028,-0.1562996209,-0.0934426785,0.0814555436,-0.1332207024,-0.2095667869,-0.2853111923,0.0030632073,0.3575992882,0.1196178496,-0.1733937562,0.1038822979,-0.0447672792,0.0490800776,0.0407244787,0.1703494936,0.0149110639,0.0675685629,-0.0412284397,-0.0258820821,0.2604078054,-0.0723802820,-0.0096313599,0.2107314616,0.0007637886,0.0446851589,-0.0395911299,0.0037676713,-0.0814366341,0.0537427068,-0.1020843163,0.0063891546,0.0067256358,0.0121247619,0.0495048352,0.0927331671,-0.1332291961,0.1411759406,0.0037035528,0.0404552892,0.0073186606,0.0799928010,-0.1020484343,-0.0465187281,0.1328196526,-0.2622676790,0.2119813859,0.1323180944,0.1142965928,0.0701446608,0.1734260619,0.0866409019,-0.0034196991,0.0023860978,-0.2015002817,-0.0329481438,0.0862673745,-0.0982450694,0.1375629455,0.0091343084
n000009,-0.0290530752,-0.0367931686,0.0283947084,-0.1290788949,-0.1273249090,0.0042637647,-0.0648589358,-0.0316367149,0.1417887807,-0.1297076792,0.1590018868,-0.0645782501,-0.2504235506,0.0027554324,-0.1396406591,0.2360516042,-0.1341818422,-0.2007037252,-0.0467828736,0.0319228806,0.0243541691,0.0210565832,-0.0906902701,0.0530750193,-0.1145785227,-0.2774924040,-0.0921580642,-0.0169109311,-0.0884784982,-0.0662129074,-0.0275442023,0.0519100204,-0.1599410623,0.0523071289,0.0634858608,0.0942390934,0.0034834186,-0.1276825070,0.1503757089,0.0779230073,-0.2895103991,0.1013047919,0.0873521045,0.2154396325,0.1180971488,0.0381831862,0.0250762552,-0.1860750914,0.1212334111,-0.1900230050,0.0030915150,0.1624802947,0.0808472633,0.0193173364,0.0156727657,-0.1423780173,0.0495486259,0.1267341822,-0.1489515752,0.0247076564,0.0471639149,-0.0040471954,-0.0150892595,-0.1568364054,0.2097017765,0.0607209802,-0.1608705968,-0.2173164487,0.1865119338,-0.1677218825,-0.1377989799,0.0486950353,-0.1313418150,-0.1974122673,-0.2828309536,0.0141248321,0.3770500124,0.1660148799,-0.2032839507,0.1401897818,-0.0062487889,0.0099663585,0.0791635811,0.1933938563,-0.0075839707,0.0708281547,-0.0709860772,-0.0432246737,0.2797233462,-0.0398949049,-0.0085076094,0.1676571518,0.0114495121,0.0644218549,-0.0030208761,-0.0146226715,-0.0691797808,0.0364393853,-0.1310023814,-0.0264260266,0.0058840602,0.0086644711,0.0085336389,0.1183509976,-0.1085238382,0.1265465915,-0.0225698017,-0.0327917300,-0.0146919563,0.1065150574,-0.0818422213,-0.0533647239,0.1132335737,-0.2490695864,0.1951181293,0.1395527571,0.1259388775,0.0491255857,0.1806934923,0.1046885923,0.0019513762,0.0024312341,-0.2102576047,-0.0726702213,0.0695975497,-0.0610383488,0.1385436207,0.0363496244
n000009,-0.0751378536,0.0199974421,0.0260689575,-0.1271342188,-0.1152240932,-0.0555718504,-0.0544087514,-0.0840946585,0.1419607103,-0.1266632229,0.1959307045,-0.0709538981,-0.2401147932,-0.0380117148,-0.1427473426,0.2482484281,-0.1893428564,-0.1991806626,-0.0667245612,-0.0246971473,0.0791746005,0.0249738786,-0.0532467403,0.0634004921,-0.1558963209,-0.2715567946,-0.0539688282,-0.0170811806,-0.0723828822,-0.0349947065,0.0323322974,0.0709334016,-0.1805998981,0.0178883765,0.0894258022,0.1134648249,0.0364065021,-0.1175522506,0.1666518748,0.0423255414,-0.3013720214,0.0790182129,0.1034983918,0.2368400842,0.1411923170,-0.0342914835,0.0014738609,-0.1847015023,0.1296248585,-0.1706162840,0.0124229500,0.1642335206,0.0505626909,0.0392027535,0.0105894608,-0.0916353688,0.0446031578,0.2011965215,-0.1636864692,-0.0395481512,0.1202621982,-0.0416333564,-0.0232378840,-0.1548405588,0.1598967314,0.0728269741,-0.1603105515,-0.2350906432,0.1344517767,-0.1526785344,-0.1173557565,0.0589307807,-0.1218922809,-0.1668286026,-0.2648009360,0.0167161897,0.3321872950,0.1474196166,-0.1765124351,0.1058304086,-0.0169412531,0.0302259196,0.1193547249,0.1518567353,0.0255595706,0.0631706938,-0.0510658100,-0.0102004455,0.2407495528,-0.0187887400,-0.0104603739,0.2325889468,0.0035409150,0.0121819563,0.0104891928,-0.0184716992,-0.0929077119,0.0705038086,-0.1409843564,-0.0091600893,-0.0033683234,0.0337929614,0.0358104147,0.0794648305,-0.0915531069,0.0881174281,-0.0221392512,0.0297845304,0.0044578156,0.0495673642,-0.0816556141,-0.0820942819,0.0952947214,-0.2163421363,0.2014139742,0.1194538474,0.1195058003,0.0559999831,0.1968190074,0.0674694106,0.0212920271,-0.0253405049,-0.1836085021,-0.0147948107,0.1090480760,-0.0629449934,0.1413319856,-0.0135988202
n000009,-0.1240707189,0.1019593850,0.0460646115,-0.1302212030,-0.0837934017,-0.0508705899,-0.0289451480,-0.0134077836,0.1753360480,-0.1023406163,0.2447395772,-0.0492316857,-0.2357960343,-0.0750100091,-0.1064356342,0.1834720671,-0.2047872096,-0.1555264294,-0.0481379814,-0.0818567425,0.1003567427,0.0586702637,-0.0749478489,0.0225887373,-0.1505217850,-0.2643896937,-0.0515785627,-0.0735932663,0.0332272388,-0.0786574706,-0.0119654471,0.0382992476,-0.1813057065,-0.0431102403,0.0470122322,0.0869095251,-0.0177445430,-0.0499391630,0.1365336031,0.0483187884,-0.1889928281,0.0121610351,0.0841229036,0.2403319031,0.1953812093,0.0312510245,0.0027765874,-0.1620332897,0.0981984660,-0.1579263210,0.0699685737,0.1675773412,0.0992727876,0.1016164422,0.0841472074,-0.1359015852,0.0088474387,0.1137084141,-0.1377409697,-0.0178822540,0.1121594608,0.0209426526,-0.0376074836,-0.0917538255,0.1262773871,0.0320996270,-0.1107620001,-0.2343718112,0.1734025329,-0.1554397941,-0.1343321651,0.1162321419,-0.0787754506,-0.1216156557,-0.2360826731,0.0407032408,0.3537085056,0.1796120107,-0.1307926029,0.0556304045,-0.0424841158,-0.0669449717,0.1085060462,0.0388579853,-0.0668260604,0.0272130128,-0.0836757720,0.0249019023,0.1867554188,0.0176921636,-0.0380541943,0.1568296254,0.0005717365,0.0384238735,0.0166386962,0.0082951179,-0.1215321869,0.0874928832,-0.1264957041,-0.0774125010,0.0552942976,-0.0186570436,-0.0144721344,0.1126375198,-0.0885102004,0.1370449811,-0.0032833519,0.0283612106,-0.0725817680,0.0435185134,-0.1083826348,0.0212410036,0.1124469042,-0.1798473895,0.2079705745,0.1118797064,0.0833919644,0.0586742796,0.1957120448,0.0281285886,0.0153348092,-0.0806418955,-0.1939358711,-0.0708716214,0.0533391945,-0.0447543338,0.1543040127,0.0074565047
n000009,-0.0554283448,0.0005997949,-0.0180285778,-0.0814720690,-0.1365594119,-0.0037236537,-0.0436238237,-0.0672498867,0.2250822186,-0.1070465073,0.2065794617,-0.0365916826,-0.2385880202,0.0005495297,-0.0956060290,0.1773107052,-0.1378106773,-0.1727556288,-0.0124365976,0.0580150671,0.0755888969,0.0428349636,-0.0523411594,0.1399255097,-0.1178250760,-0.3648419082,-0.1484797448,-0.1165879592,-0.0642427281,-0.0838410556,-0.0089591676,0.0220264308,-0.1988395602,-0.0118736094,0.0223648027,0.1079320610,-0.0142973457,-0.1014533043,0.1190141216,0.0942925215,-0.3549356461,0.1263374239,0.0606481172,0.2740909159,0.1378666759,0.0603835024,-0.0210517682,-0.1843899190,0.1040884852,-0.1625334769,0.0659180433,0.1571468115,0.0735932738,0.0416446589,-0.0083998134,-0.1210575849,0.0598487295,0.0886486024,-0.2320736349,0.0096185850,0.1075630635,-0.0175407566,-0.0052051428,-0.1087101176,0.1667819619,0.0940285400,-0.1420756727,-0.1835412532,0.1076675430,-0.2618837059,-0.1207143515,0.1216664091,-0.1524153799,-0.2437864542,-0.3285994232,0.0487654470,0.4459597468,0.1724195480,-0.1559332907,0.0757572204,-0.0209649447,0.0254132785,0.1033625901,0.2053536028,0.0419263318,0.0438672937,-0.0984652117,0.0154235512,0.2347505987,-0.0220553875,0.0033552607,0.2517720163,-0.0064790454,0.0685494617,0.0055514309,0.0989643112,-0.0757853016,0.0252151005,-0.1251211315,-0.0221904330,0.0011563934,0.0533796921,-0.0189585015,0.0756034255,-0.1754460931,0.1455464959,0.0250351448,-0.0482533090,0.0215392821,0.0498336293,-0.0822532997,-0.0614758991,0.1372771114,-0.2705168724,0.2159325629,0.1345356554,0.1192300692,0.0890864730,0.1082150266,0.0665451959,-0.0683859885,-0.1146985814,-0.2682400346,-0.0276261028,0.0743625835,-0.0520685241,0.1134199649,-0.0206342973
n000009,-0.0317934863,0.0851113722,0.0573517308,-0.1541648805,-0.1137640774,-0.0222854409,-0.1220374256,-0.0274668727,0.2051511407,-0.1342319548,0.2368071526,-0.0667184442,-0.1954905391,0.0066140387,-0.1014185324,0.2535121143,-0.1674601734,-0.1424443126,-0.0808293670,0.0264342371,0.0478139892,0.0397278853,-0.0220579673,0.0413420163,-0.1062143371,-0.3286232352,-0.0714186728,-0.0729385242,-0.0153659889,-0.1486850828,0.0566609725,-0.0096085491,-0.2028973550,0.0379996337,0.0211182237,0.0609434023,0.0229600817,-0.1409588158,0.0863123462,0.0368721746,-0.3264341056,-0.0410650857,0.0441982076,0.2018119246,0.1499608755,0.0204617921,0.0288432557,-0.1693004668,0.1076316461,-0.1384018809,-0.0069213184,0.0843111426,0.0196429528,0.0696221814,0.0000841162,-0.1457267106,0.0677791610,0.1166987568,-0.1388483793,-0.0383472219,0.1155143082,0.0176686384,-0.0185899455,-0.1175870374,0.2408555448,0.0173503160,-0.1927017868,-0.1980585009,0.1303510815,-0.1329447180,-0.0570167750,0.0498470999,-0.1356563568,-0.1810600311,-0.3049432337,-0.0346783623,0.3291713595,0.1052932590,-0.1432290524,0.0786776468,-0.0514938608,0.0162213929,-0.0129042668,0.2077908963,0.0241197627,0.1199852377,-0.0348637253,0.0273756571,0.2349955589,-0.0958301052,0.0524652004,0.2315252423,-0.0971961692,0.0460897833,-0.1040464044,0.0301569458,-0.1162389666,0.0988078564,-0.0529536158,0.0210378654,0.0074152513,0.0514205843,-0.0029128878,0.1084605306,-0.1449441165,0.1528212279,0.0207915194,0.0492197908,0.0188690312,0.0834363624,-0.0666415915,-0.1238347664,0.1488586515,-0.1863875091,0.2055512071,0.1873983443,0.1583839357,0.0650865063,0.1725129485,0.0974587500,0.0332370438,-0.0228895731,-0.2400375903,0.0103002898,0.0151726110,-0.0909127444,0.0368948616,0.0201047212
n000009,-0.0997319221,0.0663519576,0.0277751368,-0.0920723230,-0.1509441733,0.0743994042,-0.0519877896,-0.0074363630,0.1610531956,-0.0798452273,0.2239369899,-0.0656141341,-0.2406667471,0.0173515528,-0.0698992014,0.2058464736,-0.1740236729,-0.1276291162,-0.0619016588,0.0359365456,0.0140220383,0.0866718292,0.0349311680,0.0799976960,-0.1150998399,-0.3787331283,-0.0630402789,-0.0915736631,-0.0272624753,-0.0605752505,-0.0107880002,0.0378385708,-0.0935556144,0.0277515315,0.0639486834,0.0821395367,-0.0466506779,-0.0820233822,0.2050774843,0.0087685678,-0.3127498031,0.0350561738,0.1040701047,0.2581247687,0.1716851145,0.0549980961,0.0059138322,-0.1201672554,0.1480217874,-0.2140793502,0.0636984780,0.1715432405,0.0480200760,0.0510016866,0.0543194413,-0.0790444985,-0.0041477499,0.1768463403,-0.1353390813,-0.0526746362,0.0718479156,0.0617449842,0.0035523120,-0.1588697433,0.2063052654,0.0723868981,-0.1538512409,-0.1864578277,0.1630650461,-0.1355234087,-0.1255317628,0.1217704937,-0.1717469245,-0.2078130990,-0.2201057523,0.0275669917,0.3261558115,0.1458850950,-0.0964825302,0.0597467758,0.0052689170,-0.0131001649,-0.0050465665,0.1442020386,-0.0300959609,0.0350593626,-0.0396572128,0.0010729841,0.2132873237,-0.0432059392,0.0228989720,0.2439633757,0.0320339613,0.0305223465,0.0141592985,0.0747044012,-0.0645466447,0.0450020693,-0.1812659651,-0.0198029503,0.0533205308,0.0357262716,0.0279550515,0.0990048349,-0.1897969395,0.1854932308,-0.0356337316,0.0294511467,0.0429721698,0.0406413488,-0.0404718220,-0.0162769295,0.1672789007,-0.2271601558,0.1450091749,0.1031004786,0.1079264432,0.0718906596,0.1283419877,0.0557615124,-0.0098727904,-0.0425030328,-0.2636053562,-0.0577446371,0.1151043698,-0.0719201639,0.0549820550,0.0354263075
n000009,-0.0033925236,0.0275692884,0.0430429243,-0.1339965314,-0.1336399019,-0.0422900170,-0.0578253344,-0.0590608865,0.1525848061,-0.1578944921,0.1882247776,-0.0932665020,-0.2530638874,-0.0417956114,-0.1774829924,0.2834629416,-0.1904808283,-0.1760335118,-0.0639553964,-0.0089011164,0.0070959767,0.0521028750,-0.0340702422,0.0534953587,-0.1305809766,-0.3023780882,-0.0754856244,-0.0083092498,-0.0586258098,-0.0656157881,0.0298451055,0.0802879855,-0.1435766369,0.0592272952,0.0562537052,0.1173670068,-0.0480345711,-0.1354946643,0.1726282239,0.0999555737,-0.2817565203,0.0827542916,0.0885828435,0.2990574837,0.1779880375,-0.0420921519,0.0427820235,-0.1368080080,0.1174074858,-0.2106678784,-0.0249385964,0.1120748520,0.0793140680,0.0193247106,0.0291331038,-0.0837945715,0.0201724805,0.2098943144,-0.1925358176,-0.0229932331,0.0972053781,-0.0570893809,-0.0753687620,-0.1279909760,0.1963056475,0.0808698386,-0.1679366678,-0.2294101566,0.1839029342,-0.2130686492,-0.1099293381,0.0702742860,-0.0978905261,-0.1537946761,-0.2894215286,0.0089199832,0.3371951580,0.1882827580,-0.1290199012,0.0981350020,0.0523876995,0.0489696600,0.0698693991,0.1833602488,-0.0327053405,0.0939258635,-0.0801955014,0.0112734437,0.1901494861,-0.0542705208,-0.0292124059,0.1999153495,0.0179852676,0.0169810746,-0.0114974193,-0.0806079283,-0.0981996655,0.0431088097,-0.1618600190,-0.0387920141,0.0237139463,0.0332326107,0.0427225530,0.0769693628,-0.0612838380,0.1432293057,-0.0445055477,-0.0305738114,-0.0053843893,0.0494339764,-0.0812031776,-0.0388605632,0.1329799294,-0.2243948132,0.1380095333,0.1254001260,0.1296053082,0.0538174175,0.2032300681,0.0508899391,-0.0024104773,-0.0223602615,-0.1769228578,-0.0389864706,0.0690455586,-0.0804931521,0.1891486943,-0.0213172436
n000009,-0.0519768856,0.0280164722,0.0401522741,-0.1085550413,-0.1136672124,-0.0058265678,-0.0722605884,-0.0995068401,0.1192635670,-0.1654243618,0.1592900306,-0.1175955385,-0.2850711346,-0.0189799983,-0.1051233783,0.2837458551,-0.1472847462,-0.2041940391,-0.0345092788,0.0001184703,0.0211836025,0.0990942419,-0.0539838858,0.0670128465,-0.1362189800,-0.3200525641,-0.1292465180,-0.0131334616,-0.1603426039,-0.0527391508,-0.0492899120,0.0623471290,-0.1528843045,0.0178025942,0.0619610921,0.1189427823,0.0094863046,-0.1269742250,0.1006880924,0.0802712068,-0.3039151132,0.1020693332,0.1597635001,0.2805001736,0.1984305084,0.0116222613,-0.0231503136,-0.1945125610,0.0804887787,-0.1935816407,0.0254789405,0.1043712199,0.0296970252,0.0677851886,-0.0151363462,-0.1272957623,0.0378921889,0.1459089369,-0.1815083772,-0.0411445610,0.1336099952,-0.0292679649,0.0027868422,-0.1381720603,0.2114733756,0.0971163139,-0.1437219232,-0.2245055139,0.1410743892,-0.2062814683,-0.1320187896,0.0520033985,-0.1595408916,-0.2005881667,-0.3265478909,0.0360155590,0.3438939750,0.1914045811,-0.1289023608,0.1034529954,0.0341335163,0.0531494133,0.1161992326,0.1665544212,0.0259303357,0.0509397686,-0.0599583760,0.0390906632,0.2649298310,-0.0243941210,-0.0321033970,0.2200231850,-0.0083676055,0.0347024202,0.0454210453,0.0396053568,-0.0660401061,0.0612610988,-0.1994793713,-0.0021220057,-0.0176990945,0.0121147726,0.0392741896,0.1355107427,-0.1103055626,0.1585977972,-0.0168229807,-0.0226054247,-0.0209443271,0.0453292876,-0.0810853541,-0.0120495977,0.1402416080,-0.2213764936,0.1585932225,0.1240638494,0.1288341731,0.0815892443,0.1607235223,0.1104504764,-0.0513910130,-0.0512966998,-0.2564930916,-0.0093783466,0.1264279336,-0.0516863465,0.2033589780,0.0530906506
n000009,0.0385690145,-0.0172481146,-0.0713489801,-0.0748643503,-0.1824849844,-0.0616060682,-0.0518307053,-0.0620460771,0.1905470341,-0.1077967435,0.1941114515,-0.0695604905,-0.2094969302,0.0371851437,-0.0589160845,0.1702706218,-0.1937273592,-0.1446364671,-0.0379005522,-0.0080344323,0.0420184396,0.0346688703,-0.0215694904,0.1163071170,-0.1251325011,-0.3169036508,-0.1084969267,-0.0825469419,-0.0240765512,-0.0844143257,0.0906649679,0.0958720222,-0.1476259530,0.0004779108,0.1112069264,0.0942756459,0.0145804891,-0.0852930844,0.1730249673,0.0874957517,-0.2968308628,0.0549280681,0.0940030143,0.2822382152,0.1157026738,0.0475613885,-0.0133531289,-0.1568009704,0.1352987736,-0.1757707298,0.0599890575,0.1317857802,0.0611600652,0.0326761864,0.0749814808,-0.1420581192,0.0715219304,0.1575790793,-0.2321696877,0.0018645204,0.1124535948,0.0318885073,0.0776759833,-0.1276269108,0.2470855117,0.0270241741,-0.1370288879,-0.1533994228,0.1339399219,-0.1988158226,-0.1198403910,0.1191372722,-0.1249628589,-0.2123443782,-0.2989500761,0.0017742980,0.4743579328,0.1726819128,-0.1386980265,0.0455037579,-0.0154190697,-0.0656712949,0.0879168063,0.1508783549,0.0440286696,0.0028993650,-0.0858139247,-0.0027223560,0.2487498671,-0.0297281258,-0.0133404806,0.2249245644,-0.0137245767,0.0383410454,-0.0174264330,-0.0031592618,-0.1402986646,0.0437647626,-0.1549106836,-0.0525844321,-0.0958015770,0.0214636941,-0.0033144457,0.1010737792,-0.1556812078,0.1257870942,0.0167309735,-0.0882166922,-0.0661255941,0.1107170880,-0.1039583758,-0.0740936175,0.1423235089,-0.3094410300,0.1892966479,0.1158236265,0.1701323241,0.1042228788,0.0449854955,0.0607229099,-0.0243446920,-0.0856289342,-0.1971715540,-0.0247161184,0.0164844971,-0.0617798455,0.0823047981,0.0015327417
n000009,-0.0420549251,0.0245112497,0.0655034631,-0.1159915701,-0.1430138350,-0.0245220177,-0.0945184827,-0.0317920446,0.1115856022,-0.1347761750,0.1898869425,-0.0839642286,-0.2699528635,-0.0007923144,-0.1333031952,0.2348455191,-0.1730919480,-0.1787912697,-0.0353261642,0.0194901414,0.0527573265,0.0612407178,-0.0662342608,0.0447632521,-0.1317183822,-0.3152106106,-0.1032845750,-0.0217660293,-0.0771224797,-0.1066217646,-0.0372303799,0.0356231779,-0.1684207320,0.0541994944,0.0387821943,0.0712694824,0.0178954434,-0.1299072802,0.1164940819,0.0609511919,-0.3139126599,0.0775051191,0.1127454937,0.2465416640,0.1779511124,0.0241746362,0.0144969122,-0.1721945852,0.0794679224,-0.1632691473,0.0036171437,0.1610494852,0.0598819554,0.0449434109,-0.0229633749,-0.1206279024,0.0110668270,0.1412941217,-0.1354621798,0.0007919307,0.1101959273,-0.0363372788,-0.0069039217,-0.1374531388,0.2217649668,0.0487894639,-0.1705675274,-0.2346028388,0.1510870457,-0.2072170377,-0.1447608322,0.0583340451,-0.1529908180,-0.1788247228,-0.3124108911,0.0138775893,0.3283865750,0.1650252193,-0.1633371711,0.1192293391,-0.0259016808,0.0444224402,0.0885006934,0.2000726759,0.0080490150,0.0785012469,-0.0808921456,0.0129615720,0.2794609368,-0.0596341491,-0.0099740187,0.1909145713,0.0004309720,0.0430003554,-0.0049394486,0.0011281964,-0.0760595948,0.0289595369,-0.1338393092,-0.0075463308,-0.0069215265,0.0166497044,0.0036466769,0.1419920027,-0.0919750482,0.1116269156,-0.0098771024,-0.0155480541,-0.0065572406,0.0757517964,-0.0774177909,-0.0873792097,0.1140273511,-0.2307126075,0.1931445301,0.1546583176,0.1456592977,0.0506444350,0.1815895587,0.1067716554,-0.0168808382,-0.0304923300,-0.2015838921,-0.0320962518,0.0841200948,-0.0533515327,0.1612821668,0.0105127068
n000009,-0.0632607862,0.0717661381,0.0225151051,-0.1180319414,-0.1297551394,-0.0237614345,-0.0767125413,-0.0962542519,0.1204589233,-0.1452129781,0.1771804839,-0.1204287484,-0.2795774639,-0.0026243823,-0.1003998443,0.2847437263,-0.1722791344,-0.1901302040,-0.0653559342,0.0116934991,0.0254875869,0.0955160335,-0.0568054169,0.0797716081,-0.1148381382,-0.3778624833,-0.1293583810,0.0163228698,-0.1237978190,-0.0481887087,-0.0192301050,0.0963408798,-0.1619409323,-0.0039564185,0.0416472815,0.0905274972,-0.0039947033,-0.1396800280,0.1044568270,0.0787835196,-0.2902060449,0.0833797455,0.1529857814,0.2867835164,0.1829243153,-0.0024697180,0.0228995476,-0.1717368066,0.0590579659,-0.1698541641,0.0030974927,0.1145289913,0.0203701500,0.0778888166,-0.0068089352,-0.1185102537,0.0201698206,0.1616836488,-0.1834990084,-0.0421205610,0.1159675494,-0.0192657486,-0.0168239996,-0.1584951282,0.2088754773,0.0922314525,-0.1311187446,-0.2281760722,0.1638923436,-0.1628459990,-0.1250758320,0.0332022570,-0.1585015059,-0.2048546374,-0.3057644963,0.0497076027,0.3264302015,0.1784338355,-0.1254069060,0.1085268259,0.0347386077,0.0111185955,0.0902936161,0.1556946337,0.0226582401,0.0428418107,-0.0640704557,0.0708785504,0.2396764606,-0.0120501053,-0.0290972646,0.2396694422,-0.0040356270,0.0148913562,0.0428013764,0.0610092469,-0.0960753560,0.0834534690,-0.1954823285,-0.0040359069,0.0335876830,0.0228505041,0.0238617379,0.1287535280,-0.0647790134,0.1682974100,-0.0069388887,0.0159198921,-0.0126090785,0.0481493883,-0.0873496607,-0.0401169471,0.1340728700,-0.1929500699,0.1497601122,0.1105865613,0.1010758802,0.0865214467,0.1606206447,0.1098037958,-0.0288077574,-0.0558595993,-0.2591875494,-0.0137572195,0.1462584734,-0.0376093313,0.1662308276,0.0537762567
n000009,-0.0359203033,0.0095355045,-0.0020812273,-0.1063904837,-0.0857032835,-0.0312265772,-0.0721839070,-0.0513009354,0.1607929617,-0.1283909082,0.1911944300,-0.0621366836,-0.2339200526,-0.0260233954,-0.1088824421,0.2331716269,-0.1545678973,-0.1472961903,-0.0472356863,0.0787892565,0.1016367674,-0.0067086145,-0.0324351080,0.0926090330,-0.0312854685,-0.3163724244,-0.1116920114,-0.0067097833,-0.0730080381,-0.0564951785,0.0073542530,0.0719382614,-0.1618210822,0.0111763598,0.0507550575,0.1130784750,0.0169695392,-0.1135623828,0.1188614815,0.0696626082,-0.3116306067,0.1088098511,0.0555694513,0.2178970873,0.1502971649,0.0469314121,0.0090437150,-0.1773431003,0.1263361424,-0.2164892107,0.0150243836,0.1364677846,0.0888897106,0.0109114824,0.0349911302,-0.1468917578,0.0440501124,0.1279745102,-0.1592944413,-0.0261410177,0.0759085938,-0.0063751228,0.0224632118,-0.1794135273,0.1823886484,0.0967844427,-0.1590295136,-0.2071026713,0.1506356150,-0.1532706469,-0.0801678598,0.0988011509,-0.1555808485,-0.2146566659,-0.2607313693,0.0392600559,0.3719434142,0.1772617251,-0.1345262975,0.0903140903,-0.0215264335,0.0295810271,0.0401604995,0.1830033511,0.0286110658,0.0538252071,-0.0657485574,-0.0289867632,0.2168891579,-0.0441157445,-0.0151276318,0.2220540047,-0.0258853100,0.0790077969,-0.0372681543,-0.0360701717,-0.0539798550,0.0616864897,-0.1657005101,-0.0183914397,-0.0717160553,0.0220261626,0.0028671909,0.0789158717,-0.0943165421,0.0753344297,-0.0376863405,0.0010197196,-0.0140267033,0.0796708092,-0.0976255909,-0.0408049561,0.0886802152,-0.2370585799,0.1964482814,0.1347980052,0.1623407155,0.0471309349,0.1586077958,0.1126678362,0.0178510025,-0.0562532246,-0.2170266509,-0.0103358673,0.1000442877,-0.0396587066,0.0852516294,-0.0165593345
n000009,-0.0363740176,-0.0272351466,-0.0303570814,-0.0859132335,-0.1498744041,-0.0264451709,-0.0533629768,-0.1087618992,0.1789184809,-0.0996593088,0.2132673413,-0.0632071570,-0.2268428355,0.0044880328,-0.1124923974,0.1810603440,-0.1391130984,-0.1686601788,-0.0249612816,0.0455116369,0.0557377674,0.0400479957,-0.0403638370,0.1373477876,-0.1114727035,-0.3324148059,-0.1227902249,-0.1159078702,-0.0409823917,-0.0702937543,-0.0194562692,0.0084090363,-0.2081086338,0.0008169696,0.0547519475,0.1002621502,-0.0006062266,-0.1127592772,0.1258532256,0.0726701245,-0.3563615382,0.1344738007,0.0650585964,0.2519512475,0.1275845915,0.0643445179,-0.0239788648,-0.2216432989,0.1131219417,-0.1415354759,0.0740338564,0.1287082136,0.0467896089,0.0148789519,-0.0178649146,-0.1392300427,0.0627437830,0.1126690432,-0.2258214056,0.0167605504,0.1089717299,-0.0208092816,0.0014199627,-0.1357341111,0.1904991567,0.0716498271,-0.1442166120,-0.1744283140,0.1063220948,-0.2522453964,-0.1199589968,0.1099590361,-0.1343706101,-0.2324560136,-0.3419264257,0.0293673445,0.4416876137,0.1664390266,-0.1747194976,0.0879918039,-0.0044425707,0.0351766758,0.1323710233,0.2087107897,0.0463253185,0.0540662557,-0.0915114805,-0.0078948075,0.2537243068,-0.0341205262,0.0037387495,0.2530542016,-0.0289771184,0.0608188994,0.0090041365,0.0815571621,-0.0900012180,0.0176878441,-0.1143510789,-0.0317098051,0.0042368313,0.0494569540,0.0005759556,0.0847228020,-0.1890405864,0.1248600110,0.0093776472,-0.0525875427,0.0327865034,0.0346149914,-0.0518311150,-0.0675816387,0.1337037534,-0.2871978581,0.2387228757,0.1367215663,0.1633906364,0.0962658226,0.1048640162,0.0462757386,-0.0628134832,-0.0898142830,-0.2683053911,-0.0205370188,0.0817504153,-0.0695669055,0.1394336373,-0.0065695574
n000009,-0.0239958093,0.0139027145,0.0090474011,-0.1278782040,-0.1634259671,-0.0201976672,-0.0666240603,-0.0604753084,0.2151336521,-0.2019962817,0.1328950822,-0.0114001026,-0.2005210966,-0.0097286934,-0.0526163504,0.2299035639,-0.2122332156,-0.1831806004,-0.0330080166,-0.0311373640,0.0463684462,0.0530212149,0.0122422371,0.1037658900,-0.1124322861,-0.3592270017,-0.0544339865,-0.0562677681,-0.0437532105,-0.0101720467,0.0119397612,0.0449302122,-0.1625176221,-0.0055878912,0.0467770509,0.0757944286,-0.0706210583,-0.1415649205,0.2114144266,0.0875988305,-0.3170876801,0.0927736983,0.0167812407,0.2486528307,0.1312006563,0.0042386577,0.0292466693,-0.1043236703,0.1799057573,-0.2369550318,-0.0040176045,0.1452939957,0.0506587923,-0.0091448687,0.0492402241,-0.1022533476,0.0514423735,0.1443703175,-0.1956911236,-0.0049803974,0.0742907897,-0.0633105934,0.0550581217,-0.1218373701,0.1843614876,0.0351643562,-0.1186376065,-0.1738255322,0.0895359814,-0.1695596129,-0.0891866833,0.0960942507,-0.1274438649,-0.2293776572,-0.2654863596,0.0360556245,0.3767656982,0.1995262504,-0.0764906183,0.0527588874,0.0015644442,0.0096598295,0.0896528214,0.1661800742,0.0102025522,0.0179046765,-0.0545421056,0.0014935202,0.2250112295,-0.0526850112,-0.0646779016,0.2650318444,0.0194302574,0.0598801561,-0.0339619033,-0.0155114969,-0.1043823436,0.0776969418,-0.1235388815,0.0243438184,0.0087453434,0.0137014361,0.0395005904,0.0681536049,-0.1546322107,0.0896355510,-0.0789543688,-0.0389552973,-0.0154756624,0.0917356238,-0.1770635843,-0.0901826173,0.0999790132,-0.2363453805,0.1605460942,0.2153302878,0.1330233663,0.1227892339,0.1444614679,-0.0071384464,0.0009757655,-0.0413614437,-0.1845114678,-0.0558149479,0.1244654953,-0.0053673806,0.1253878176,-0.0002949573
n000009,-0.0218307842,0.0341266803,0.0603522994,-0.1254005134,-0.1000564173,-0.0327742100,-0.0413401984,-0.0762467459,0.1904184371,-0.1445815414,0.1717792302,-0.0468066856,-0.2477854192,-0.0356416069,-0.1386452764,0.2930943370,-0.2304649353,-0.2312128842,-0.0522784591,0.0047149733,0.0096633267,0.0680184737,-0.0131115485,0.0433356464,-0.1744685918,-0.3470402360,-0.1110722795,-0.0178153832,-0.0409585796,-0.0440792218,0.0381211042,0.0570646711,-0.1856687814,0.0580479987,0.0984360948,0.1215702370,-0.0444175750,-0.1705332249,0.1993113607,0.1440042704,-0.2922061980,0.0782585368,0.1048511863,0.2782895863,0.1612158120,-0.0376333222,0.0428419299,-0.1574435830,0.1432748586,-0.2009936422,0.0080575533,0.1390611380,0.0906398147,0.0698330253,0.0466746464,-0.0719691962,0.0512407981,0.2072375119,-0.2239501178,-0.0166435279,0.1001786590,-0.0137275970,-0.0565463156,-0.0999529883,0.1706512719,0.0746764764,-0.1551756561,-0.2253556252,0.2296241373,-0.1730790585,-0.1223150194,0.0665742904,-0.0979832634,-0.1727250665,-0.2571053803,0.0009348217,0.3747318983,0.1757224798,-0.1475026459,0.0868761390,0.0272615738,0.0129989851,0.0329167917,0.1723837703,-0.0461412743,0.0953145623,-0.0641483963,0.0157943331,0.2379052788,0.0009420895,-0.0202953499,0.2341679037,0.0263284557,0.0295566749,0.0182143692,-0.0469694361,-0.0934987888,0.0410089381,-0.1865420192,-0.0783923939,0.0166257787,0.0462678596,0.0197274201,0.1029471010,-0.0995574445,0.1772671640,-0.0063371700,-0.0534148626,-0.0064840559,0.0827978402,-0.0959524214,-0.0389075838,0.1112105846,-0.2452033013,0.1701780856,0.1376799196,0.1060139313,0.0510071702,0.1640093923,0.0540136248,-0.0056600696,-0.0553652830,-0.1939729303,-0.0762000605,0.0791523457,-0.0657240748,0.1597706676,-0.0076190508
